svm_type c_svc
kernel_type linear
nr_class 3
total_sv 13849
rho -0.0388374 -1.01069 -0.999602
label 0 1 2
nr_sv 6575 6498 776
SV
0.8776059817208028 0 3623:1 5999:1 11283:1 12950:1 15074:1 15610:1 16247:1 18142:1 18869:1 23085:1 
1 0 1809:1 6003:1 
1 0 2191:1 3004:1 5520:1 6817:1 10094:1 
0.197203289960959 0 574:1 5864:1 14498:1 15618:1 17584:1 19169:1 19959:1 20254:1 
0.1260134566542847 0 81:1 1206:1 4187:1 8214:1 8697:1 10269:1 11344:1 14654:1 15877:1 16779:1 
1 0.03153439936845335 4783:1 14459:1 14902:1 16802:1 20831:1 21925:1 
0.9867669400865242 0 628:1 3261:1 7003:1 10208:1 10627:1 12905:1 17002:1 20219:1 22927:1 
0.4364392160086604 0 1489:1 17848:1 19251:1 19914:1 20951:1 
1 0 3004:1 
0.8487992700201223 0 1281:1 11653:1 18023:1 18179:1 
0.7646391858260769 0 2475:1 4048:1 5047:1 5382:1 8089:1 8464:1 9579:1 16723:1 16821:1 
0.6023592617796286 0 1423:1 9825:1 17007:1 21909:1 
0.3606042945703179 0 3205:1 7209:1 7365:1 16372:1 18285:1 19359:1 19489:1 22100:1 
0.1878293261032667 0 2241:1 5430:1 15877:1 16896:1 22585:1 
0 0.002309447212150123 60:1 2174:1 2562:1 4635:1 5838:1 5949:1 6802:1 17946:1 18254:1 22857:1 
1 0 2662:1 5529:1 13747:1 22098:1 22249:1 23598:1 23756:1 
0.917272494197236 0 7870:1 7907:1 19477:1 20110:1 
1 0 5251:1 6003:1 11308:1 16091:1 
0.1380330479710492 0 2484:1 3518:1 3889:1 4001:1 4024:1 5318:1 8314:1 9879:1 10603:1 10654:1 11768:1 12027:1 13093:1 13698:1 17942:1 19550:1 20951:1 23074:1 
0.8046502166307968 0 3139:1 3373:1 6655:1 6885:1 8154:1 8482:1 15398:1 15899:1 16285:1 20445:1 20624:1 
0.2456460790556892 0 3432:1 8558:1 13330:1 15522:1 18426:1 
1 0 9532:1 17907:1 18967:1 
0.8488599814526866 0 43:1 8099:1 9614:1 10303:1 11553:1 16884:1 17207:1 19263:1 
0.5531588807515102 0 820:1 2241:1 2493:1 5663:1 10643:1 15877:1 17463:1 18497:1 18596:1 20299:1 23447:1 
0.2731689744938384 0 2091:1 3638:1 10694:1 19501:1 19765:1 
0.07990532078379885 0.07778575570868099 618:1 3825:1 4195:1 6989:1 8582:1 8799:1 11100:1 12226:1 12408:1 13018:1 15212:1 17259:1 22501:1 24021:1 
0.4738973499725632 0.2564423322692393 1694:1 1766:1 3769:1 8856:1 9442:1 19920:1 20308:1 21821:1 
0.06936083660043066 0 1646:1 3882:1 4783:1 5318:1 6288:1 8883:1 12060:1 12634:1 20673:1 20893:1 
0.1204108624904645 0 4100:1 4171:1 6329:1 6619:1 6669:1 7672:1 7962:1 7982:1 9852:1 9935:1 10331:1 10904:1 11964:1 12570:1 13777:1 15351:1 16298:1 18210:1 
0.2356816755419232 0 419:1 6254:1 6796:1 8922:1 14501:1 15241:1 18004:1 18497:1 18510:1 19892:1 22187:1 22860:1 23737:1 
0.8506864713181943 0 3809:1 5041:1 14238:1 14988:1 
0.8995353487926261 0 4983:1 15747:1 19169:1 20028:1 
0.6922583402919849 0.055408804676176 862:1 8583:1 9138:1 19732:1 19953:1 23153:1 23222:1 
0.670031504134788 0 7369:1 15480:1 16623:1 17221:1 
0.08681160094839953 0 2052:1 2639:1 6655:1 7895:1 13027:1 14141:1 18941:1 23037:1 
0.5655322990859529 0 485:1 2375:1 2852:1 6546:1 19169:1 
0.3635428429820364 0 14:1 43:1 308:1 1227:1 10654:1 12714:1 15653:1 15936:1 21838:1 
0.3190241709468971 0 2090:1 2751:1 6802:1 8434:1 10863:1 11893:1 16477:1 17665:1 17907:1 19390:1 
0.03325096358273768 0 574:1 4495:1 5625:1 8966:1 9335:1 15661:1 17146:1 20205:1 20709:1 22719:1 23837:1 
0.2705477222525719 0 10331:1 11265:1 13977:1 21707:1 22697:1 23928:1 
0.1901460683145442 0 865:1 2191:1 4055:1 6916:1 8732:1 8887:1 10830:1 10894:1 11330:1 16723:1 19984:1 21461:1 21907:1 
0.2985908469174557 0 3861:1 16339:1 17089:1 17334:1 20012:1 20142:1 22211:1 
0.7173152121364996 0 1972:1 3803:1 4137:1 6782:1 7257:1 8089:1 20611:1 23593:1 
0.3063363244224231 0 2629:1 3591:1 5411:1 6033:1 10299:1 11245:1 12399:1 14111:1 18765:1 22330:1 
0.413908560502685 0 22927:1 23108:1 23483:1 24137:1 
1 0 4354:1 19169:1 21615:1 24291:1 
0.2405973402198331 0 442:1 825:1 4635:1 6682:1 12255:1 15653:1 22582:1 
0.9317748044992085 0 4783:1 8683:1 11595:1 15877:1 24185:1 
0.02681662543523284 0 2446:1 3335:1 5411:1 6190:1 7481:1 8799:1 13387:1 15327:1 15877:1 17652:1 23666:1 24113:1 
1 0 16439:1 
0.5919978796352316 0 2660:1 4552:1 11181:1 12362:1 15435:1 18743:1 19169:1 
0.3456028198282074 0 4589:1 6775:1 12055:1 14617:1 15829:1 15927:1 19532:1 23402:1 
0.3783897837458057 0 55:1 1034:1 1185:1 1853:1 4073:1 4969:1 7861:1 10603:1 19169:1 21734:1 23468:1 
1 0 5318:1 6757:1 9802:1 14139:1 17095:1 18143:1 19169:1 
0.2365015113028207 0 9303:1 10016:1 10756:1 16510:1 18712:1 21196:1 
0.154364637911663 0 3853:1 4826:1 4969:1 5318:1 6327:1 14439:1 15877:1 16025:1 16257:1 18609:1 
0.9455925438209248 0 2248:1 3581:1 4370:1 8515:1 12399:1 19169:1 21817:1 
0.6649212942210535 0 1177:1 2246:1 4648:1 11431:1 12075:1 12714:1 15237:1 18870:1 19186:1 19801:1 20705:1 21755:1 21758:1 22594:1 23206:1 
0.3062665943025522 0 5731:1 10459:1 14957:1 16126:1 16498:1 16679:1 17762:1 21284:1 21438:1 21990:1 22477:1 22717:1 
1 0 19169:1 20893:1 
0.2946885852382157 0 6549:1 11222:1 13809:1 16878:1 18004:1 18566:1 19259:1 23185:1 
0.6940843532142146 0 6617:1 8162:1 8795:1 14856:1 15859:1 17410:1 22409:1 
0 0.1705129785807482 3365:1 5881:1 8144:1 9004:1 11786:1 14093:1 19002:1 
1 0 2743:1 2811:1 5192:1 6190:1 11224:1 13698:1 14339:1 16114:1 18609:1 23667:1 
0.5090847761294024 0 1415:1 3042:1 4466:1 6170:1 6397:1 10802:1 12390:1 14457:1 20456:1 
0.06281861278360489 0 4385:1 16623:1 16715:1 21435:1 
1 0 4783:1 6782:1 17149:1 
0.1353927709806764 0 909:1 2253:1 6190:1 6722:1 7935:1 9284:1 9721:1 10073:1 13734:1 19447:1 20103:1 23806:1 
0.2998627569358337 0 5318:1 6369:1 14432:1 20887:1 
0.3649688636857132 0 3943:1 4826:1 5041:1 5655:1 12531:1 14417:1 18261:1 21454:1 21974:1 
0.3779734417518001 0 3575:1 5318:1 6254:1 6907:1 16723:1 18609:1 19749:1 22237:1 23231:1 
0.4203699199644684 0 2639:1 3041:1 4783:1 5318:1 5739:1 7106:1 7917:1 10730:1 11238:1 15701:1 16438:1 18259:1 18904:1 22330:1 23028:1 
0.9816621339037942 0 1973:1 2933:1 4999:1 5262:1 6980:1 10130:1 10208:1 10603:1 10972:1 14791:1 15138:1 15274:1 
0.9446277915740463 0 2484:1 6757:1 8233:1 9329:1 10094:1 10723:1 13849:1 20702:1 22103:1 22418:1 
0.3042771948429737 0 4649:1 8306:1 10978:1 13143:1 14977:1 15023:1 15407:1 16170:1 17251:1 20596:1 21856:1 
0.4166738675118123 0 1222:1 4475:1 4599:1 5015:1 5192:1 6757:1 8722:1 10094:1 12432:1 13854:1 14210:1 18041:1 19175:1 20893:1 21024:1 22260:1 22620:1 22711:1 
0.5956647033538619 0 1190:1 1697:1 8583:1 12714:1 12755:1 18039:1 
0.2980401290931643 0 8317:1 12675:1 12896:1 13323:1 14057:1 15498:1 21471:1 
0.5347127870727354 0 225:1 2248:1 5155:1 6131:1 14241:1 21763:1 22227:1 22614:1 
0.9380068914282027 0 2662:1 3780:1 6148:1 15210:1 17592:1 20968:1 
0.7376513028776919 0 2099:1 2192:1 8086:1 15399:1 17746:1 19013:1 19169:1 20583:1 21468:1 
0.2597465773178282 0.007637274555892808 3258:1 7815:1 8602:1 11938:1 14292:1 15653:1 16865:1 22530:1 
0.5988383145887737 0 3531:1 16623:1 17161:1 18566:1 
0.02733872124310809 0 4552:1 5318:1 15392:1 19925:1 23173:1 
0.323406400047438 0 1314:1 9950:1 16619:1 18005:1 19169:1 21944:1 
0.2593450595603926 0 212:1 3994:1 5623:1 9639:1 12965:1 13058:1 15287:1 15877:1 21217:1 
0.4575624317707973 0 2248:1 3828:1 10663:1 12399:1 12643:1 18609:1 20563:1 21074:1 23535:1 
0.5735243995464038 0 911:1 1190:1 1259:1 4783:1 8188:1 9336:1 10810:1 14488:1 17491:1 18735:1 19014:1 
0 0.008571816849854117 120:1 2691:1 4766:1 9117:1 10906:1 12379:1 13505:1 14989:1 15313:1 20298:1 21225:1 23281:1 
0 0.01129049781746846 11:1 43:1 370:1 444:1 3698:1 3847:1 8030:1 9745:1 11645:1 12468:1 13998:1 14783:1 17541:1 18045:1 18683:1 19892:1 21528:1 
0.2100955296957705 0.005364143045049558 2375:1 6254:1 7950:1 9161:1 10261:1 15766:1 21476:1 23715:1 
0.8629012218917619 0 1190:1 5648:1 6190:1 15407:1 18467:1 18735:1 20933:1 
0.4498395979074044 0 370:1 1190:1 6740:1 8290:1 12658:1 13778:1 16813:1 21273:1 21952:1 22468:1 23116:1 
1 0.1312114696339823 6399:1 15279:1 
0 0.01938016748481541 1053:1 2032:1 4108:1 12645:1 16177:1 16796:1 18094:1 22376:1 24191:1 
0.7469674226134114 0 2399:1 2430:1 6980:1 7059:1 7433:1 8067:1 9831:1 11223:1 17552:1 
0.2113631779355516 0 2867:1 5406:1 5529:1 6417:1 15877:1 16920:1 23604:1 
0.233296179212311 0 8154:1 9138:1 15330:1 19169:1 21764:1 22481:1 23896:1 
0.2794200285650397 0 1011:1 5240:1 8860:1 9181:1 9955:1 13070:1 15803:1 15877:1 16845:1 17020:1 18566:1 18948:1 23013:1 
0.01882087245115919 0 1325:1 1423:1 3718:1 4522:1 6369:1 8365:1 9616:1 16062:1 17546:1 18762:1 19095:1 
0.41400053136811 0 11561:1 21754:1 23380:1 
0.08161978388345183 0 763:1 3948:1 5192:1 5305:1 5318:1 6387:1 8515:1 14252:1 18056:1 21853:1 23402:1 
0.6283395170841314 0 847:1 2785:1 6831:1 8492:1 13998:1 15407:1 15483:1 18179:1 19251:1 20058:1 22616:1 23606:1 23767:1 
1 0 4826:1 12287:1 13180:1 23719:1 
0.157240769003181 0 1206:1 9925:1 10170:1 10659:1 15023:1 16266:1 20711:1 20726:1 21853:1 22293:1 22377:1 23248:1 
0.07289568156407321 0 2387:1 6003:1 8729:1 12287:1 18566:1 21867:1 21913:1 
0.0504154766444067 0 4441:1 13601:1 14411:1 14979:1 15187:1 16708:1 
0.1184474286749389 0 5318:1 5529:1 6248:1 6254:1 6775:1 10918:1 11931:1 14617:1 21615:1 
0.8731765773298502 0 12714:1 13448:1 18185:1 
0.2170499305477351 0 781:1 8532:1 12657:1 17049:1 
0.07016420108738591 0 5018:1 5362:1 8856:1 13998:1 14339:1 14786:1 15744:1 17296:1 
1 0 763:1 3070:1 3845:1 6441:1 9524:1 11442:1 15279:1 15877:1 17780:1 17908:1 18410:1 
1 0 1423:1 10094:1 16145:1 
1 0 6980:1 19169:1 
0.2745637373717591 0 370:1 6639:1 6916:1 10126:1 12178:1 13296:1 15877:1 16665:1 18004:1 22437:1 23547:1 
0.01509389190349246 0 917:1 5318:1 7701:1 10974:1 21525:1 
1 0 1588:1 2558:1 5041:1 
0.07917547822730174 0 83:1 1593:1 3578:1 9170:1 12714:1 15463:1 18845:1 22439:1 22960:1 23373:1 
1 0 2446:1 6254:1 10641:1 14617:1 17264:1 20412:1 
1 0 3183:1 10033:1 15877:1 21565:1 23654:1 
0.1949717204402752 0.04887947449265101 1138:1 4620:1 9845:1 10094:1 12643:1 15401:1 18004:1 18802:1 22259:1 
0.2551973736719888 0 4354:1 7807:1 10080:1 17164:1 20318:1 21740:1 21974:1 
0.9453938773223572 0 446:1 14339:1 
1 0 6369:1 8222:1 10194:1 15877:1 17584:1 18024:1 
0.303323192683821 0 2989:1 8282:1 12566:1 14339:1 18535:1 18968:1 21632:1 22963:1 24287:1 
0.4374480220456295 0 1631:1 1903:1 8259:1 9485:1 11651:1 12032:1 16339:1 17755:1 18986:1 20279:1 23186:1 23468:1 24184:1 
0.585490040926571 0 2692:1 5588:1 9489:1 13626:1 19169:1 20005:1 20562:1 
0.5675898025631541 0 10094:1 12714:1 21652:1 21775:1 
0.4757071888356165 0 173:1 825:1 1155:1 1872:1 3382:1 4271:1 5607:1 9309:1 11422:1 18397:1 
0.1739059529302816 0 2005:1 4253:1 5568:1 10347:1 12085:1 13048:1 13245:1 14617:1 20902:1 21350:1 23108:1 
0.2413480895003458 0 1631:1 4275:1 4687:1 5915:1 6153:1 8920:1 16172:1 18369:1 18609:1 20148:1 
0.5278665842280371 0 11:1 2660:1 3162:1 4095:1 8601:1 14575:1 
0.6535271310238616 0 1199:1 4162:1 8003:1 10080:1 15550:1 19390:1 
1 0.02642561692744632 5279:1 13997:1 14882:1 20860:1 
0.05827986354445942 0 2241:1 3870:1 7248:1 13073:1 14617:1 
0.3626880562745913 0 4181:1 6573:1 7446:1 12514:1 15838:1 17333:1 18039:1 18442:1 20487:1 21706:1 
0.2718244358540963 0.03958113445205177 3287:1 5791:1 8872:1 11508:1 17541:1 
0.1633516624897464 0 283:1 370:1 1451:1 3428:1 3910:1 10044:1 11111:1 15459:1 16318:1 18225:1 18462:1 18467:1 19363:1 20053:1 22778:1 23401:1 24085:1 
0 0.01387243866451838 1587:1 5661:1 7540:1 7873:1 10603:1 12027:1 22305:1 23424:1 
0.8058305736231208 0 13528:1 15047:1 15877:1 18305:1 18320:1 18419:1 
0.4634043256736603 0 2430:1 2477:1 11223:1 13811:1 16257:1 19826:1 22732:1 23194:1 
0.06620909692809684 0 1318:1 1319:1 2401:1 2808:1 2898:1 3642:1 8065:1 8883:1 12714:1 14432:1 17907:1 18241:1 
1 0 7213:1 13217:1 13402:1 
1 0.02835753203610028 2548:1 4624:1 9639:1 13817:1 14783:1 20507:1 
1 0 18609:1 
0.6063854430299171 0 1155:1 15212:1 19169:1 20214:1 22500:1 
0.04096370973699325 0 3845:1 5871:1 6757:1 11490:1 13419:1 15248:1 15877:1 22614:1 
1 0 5029:1 13638:1 17827:1 20950:1 
0.6001773520105088 0 255:1 1580:1 3889:1 6190:1 7882:1 14453:1 15182:1 20950:1 
0.2710607732583071 0 480:1 3241:1 3952:1 9552:1 9861:1 9988:1 10752:1 11308:1 11884:1 14016:1 14417:1 16044:1 20058:1 20862:1 21350:1 22206:1 22291:1 
1 0 10588:1 17221:1 21372:1 
0.2571097704034785 0.00432498583583456 1630:1 3261:1 6756:1 7892:1 10910:1 11761:1 13481:1 14954:1 15173:1 16858:1 19169:1 23705:1 
0.5640802393026315 0.005813012501589769 1762:1 2375:1 4894:1 9062:1 9707:1 10928:1 14940:1 15235:1 22838:1 
1 0 6417:1 8479:1 19169:1 21265:1 21706:1 
0.1024469418211449 0 1025:1 1909:1 3750:1 4892:1 5059:1 6865:1 7328:1 10094:1 16247:1 20078:1 23028:1 
0.4669856708760184 0 705:1 7608:1 8840:1 16509:1 17634:1 18179:1 20284:1 20641:1 
0.1220809700264358 0 216:1 4963:1 6302:1 13238:1 19169:1 22693:1 
0 0.1790572360607208 60:1 917:1 7077:1 23615:1 
0.29085953772321 0.232039410884935 381:1 681:1 10094:1 14225:1 23722:1 
0.1604290835406947 0.04754565149952583 1231:1 2360:1 6843:1 7731:1 7779:1 9884:1 10643:1 10694:1 12785:1 13768:1 20033:1 23199:1 
0.8743424363848918 0 9085:1 14210:1 18714:1 19984:1 
0.9275074283824807 0 654:1 2063:1 7371:1 8005:1 9340:1 19916:1 23802:1 
0.1444801117037958 0 60:1 1138:1 3564:1 4824:1 12859:1 18321:1 21488:1 21763:1 21821:1 
0.7314834371156004 0 2558:1 6377:1 16779:1 17226:1 17635:1 17889:1 18952:1 20090:1 
0.4839050116703303 0 4440:1 5432:1 11259:1 14057:1 17792:1 18890:1 
1 0.005426302552367199 6338:1 10296:1 11764:1 16025:1 18321:1 
0 0.02162739204712615 1155:1 1206:1 2047:1 10611:1 19320:1 19914:1 
0.08402708968716247 0 4563:1 5283:1 6204:1 7064:1 8310:1 8711:1 10260:1 11476:1 14417:1 15877:1 19067:1 19071:1 20103:1 23465:1 
0.3509623243146551 0 4148:1 4162:1 12398:1 13820:1 14153:1 18179:1 20130:1 22500:1 
0.4013758439527353 0 1209:1 2910:1 4413:1 5709:1 7371:1 7873:1 10780:1 12953:1 15066:1 17138:1 17392:1 22555:1 
0.2733907320380364 0 60:1 5321:1 7415:1 8034:1 15877:1 16145:1 19458:1 
1 0 7457:1 10978:1 15586:1 23942:1 
0.2665734661061372 0 1190:1 2112:1 15865:1 20634:1 20883:1 
1 0 4132:1 6288:1 6369:1 7566:1 16623:1 18683:1 19169:1 20466:1 20583:1 23526:1 23722:1 
0.6916873080766641 0 372:1 3634:1 15877:1 16561:1 19898:1 20968:1 24102:1 
0.005422698751240186 0 279:1 6740:1 8934:1 15768:1 17406:1 22186:1 
0.5781056688242823 0 1190:1 2796:1 3636:1 4844:1 6923:1 9756:1 9950:1 10973:1 15275:1 16872:1 17517:1 
1 0 2483:1 6775:1 8158:1 15877:1 21896:1 24291:1 
1 0.01750734528691095 1873:1 1954:1 14076:1 
0.06005083478669197 0 56:1 772:1 5731:1 14560:1 14882:1 16263:1 
0.2919397611565264 0 63:1 3368:1 5376:1 9818:1 12714:1 13037:1 13343:1 13589:1 13684:1 18612:1 
1 0 4783:1 22821:1 
1 0 44:1 11954:1 15279:1 15480:1 17454:1 18609:1 21909:1 
0.3981686507177709 0.01887388572902975 37:1 5722:1 9668:1 13970:1 14905:1 14972:1 15274:1 18650:1 19169:1 21558:1 24005:1 
1 0 2705:1 6088:1 6254:1 6655:1 8154:1 13351:1 18294:1 18765:1 23028:1 
0.6528259155046945 0.01526943486586983 53:1 4354:1 7183:1 11442:1 12085:1 13048:1 14520:1 16569:1 21233:1 22057:1 23373:1 23836:1 
1 0 4555:1 6193:1 6771:1 7344:1 11270:1 12266:1 14913:1 15953:1 17671:1 19212:1 22485:1 
0.03938842565131867 0.04083642069863136 1423:1 6190:1 6649:1 10344:1 12281:1 16334:1 21251:1 
0.2730067412133477 0 1016:1 7456:1 8492:1 15881:1 19169:1 21581:1 
0 0.007176604314623772 4202:1 4982:1 6330:1 7653:1 8430:1 10094:1 11647:1 12188:1 15433:1 17769:1 20748:1 21502:1 21852:1 23942:1 24308:1 
1 0.0554456444494018 6682:1 9170:1 16984:1 24169:1 
0.3805671411275998 0 7291:1 8435:1 12550:1 15407:1 18931:1 19984:1 20130:1 21706:1 22166:1 22445:1 
0.147320178790993 0 3548:1 8356:1 11836:1 15275:1 15877:1 18179:1 21764:1 23229:1 
0.2285099487526845 0 3433:1 10208:1 13959:1 19010:1 19169:1 
0.1468611630438051 0 14169:1 14792:1 19914:1 
1 0 1191:1 4567:1 16944:1 17980:1 20333:1 
1 0 225:1 5170:1 7868:1 23140:1 
1 0 5318:1 5550:1 6254:1 6313:1 11223:1 13793:1 14417:1 16588:1 16884:1 17430:1 19390:1 
0.4336211236431237 0 1346:1 7806:1 9372:1 14180:1 14837:1 15877:1 22379:1 
0.9830509003264529 0 4475:1 5526:1 15653:1 16866:1 19169:1 19664:1 20338:1 
1 0 2662:1 14411:1 
0.1545315152065214 0 48:1 156:1 3300:1 4328:1 7658:1 8811:1 13837:1 16658:1 17541:1 18566:1 21075:1 21157:1 21867:1 23778:1 
0 0.006809161430273052 3004:1 3261:1 10982:1 11393:1 12085:1 14542:1 20257:1 22186:1 23684:1 24058:1 
0.04127903770959787 0 156:1 370:1 3490:1 8667:1 10261:1 10952:1 11385:1 12833:1 14375:1 17373:1 
0.2402668064492853 0 1580:1 3552:1 3631:1 6271:1 6843:1 8850:1 9622:1 20058:1 23981:1 
1 0.004164216105347908 1155:1 10303:1 11946:1 13089:1 19821:1 
0 0.005699406511340996 370:1 2918:1 11476:1 14764:1 15438:1 15480:1 16715:1 16961:1 20860:1 
0.6765246346792657 0 266:1 7839:1 8412:1 10609:1 13518:1 14786:1 15054:1 16657:1 17388:1 17584:1 19324:1 20677:1 24249:1 
0.0732171532136992 0 3041:1 7556:1 14041:1 19180:1 19982:1 20008:1 21046:1 21188:1 
0.1499936052144937 0 11309:1 18609:1 
0.002710516173746833 0 653:1 1206:1 4149:1 4162:1 5135:1 7994:1 10071:1 10117:1 10300:1 11501:1 12109:1 13638:1 15407:1 16145:1 16902:1 17685:1 18163:1 20849:1 22098:1 
1 0.02799060693377325 1985:1 8852:1 14606:1 
0.6805364120698068 0 1190:1 3788:1 9951:1 
0.1162080282246791 0 469:1 1155:1 6254:1 8312:1 8965:1 10901:1 12398:1 12909:1 14562:1 15877:1 18566:1 20831:1 22221:1 
0.5082843928831724 0 7521:1 12121:1 19984:1 22582:1 
0.07642669565216283 0 417:1 1190:1 2558:1 3698:1 3861:1 4882:1 10566:1 16025:1 16603:1 18724:1 20688:1 22592:1 
1 0.03311344423046473 911:1 2558:1 10326:1 17563:1 
0.5949150616339098 0 60:1 654:1 1438:1 3360:1 3514:1 3801:1 5769:1 7596:1 9516:1 9808:1 15877:1 16944:1 20115:1 22035:1 23321:1 
0.5153095375870131 0 16896:1 19328:1 20420:1 
1 0 2916:1 15153:1 19110:1 
1 0 14121:1 19169:1 20595:1 
0.1983816726599596 0 1742:1 2141:1 5375:1 8696:1 9170:1 13352:1 16615:1 16744:1 
0.4076109539669551 0 244:1 2430:1 8848:1 11025:1 12499:1 12931:1 13217:1 14019:1 15877:1 18566:1 19169:1 19452:1 22349:1 
0.1897556183901863 0 9567:1 9745:1 18046:1 21950:1 22653:1 
0.5487550745004932 0 1848:1 3004:1 3368:1 5299:1 8497:1 10643:1 12876:1 18302:1 18596:1 20595:1 21556:1 22483:1 
0.05684189538353003 0 1640:1 9075:1 18281:1 
1 0.1767302422425203 960:1 8515:1 12808:1 
1 0 10641:1 
0.5495965449171611 0 3801:1 4466:1 5799:1 11841:1 15653:1 16137:1 19366:1 21535:1 
0.02891866321974174 0 6982:1 12172:1 13112:1 13352:1 14276:1 14740:1 18609:1 
0.6461250546730495 0 3004:1 9567:1 18316:1 
0.3550027300322475 0 1241:1 1742:1 2605:1 5731:1 6676:1 7715:1 13218:1 13951:1 19160:1 24000:1 
0.3858405602810973 0 250:1 15877:1 16142:1 18902:1 21461:1 23686:1 
0.2383142222481382 0 1155:1 4343:1 11192:1 11939:1 12463:1 16570:1 17044:1 23395:1 
1 0 2248:1 15653:1 15877:1 16447:1 23448:1 
0.005442425614973739 0 6959:1 7371:1 7879:1 12064:1 14011:1 15877:1 17089:1 22776:1 
0.4891189596574242 0 1155:1 2785:1 3478:1 4605:1 6782:1 9884:1 15877:1 17209:1 
1 0 1259:1 2430:1 2484:1 4624:1 9047:1 10404:1 18566:1 19835:1 21867:1 23007:1 
0.2393340329401582 0 5772:1 7887:1 9557:1 12566:1 
0.5770378846168623 0 8860:1 9602:1 11027:1 11471:1 15877:1 17445:1 21846:1 
0.25234926197861 0 3490:1 15557:1 22625:1 
0.6618981932964311 0 120:1 2691:1 12379:1 19169:1 21414:1 23894:1 
0.2873176101642171 0 5534:1 5975:1 8848:1 9277:1 14417:1 16142:1 16637:1 
0.509919437535721 0 1206:1 2483:1 3845:1 10813:1 14905:1 15058:1 16437:1 23152:1 
1 0.1802436753675602 3655:1 5421:1 6029:1 9745:1 23722:1 
0 0.04609750786837919 3881:1 5131:1 6483:1 7224:1 13238:1 13244:1 14279:1 14292:1 16126:1 20893:1 
1 0 120:1 6325:1 6387:1 19169:1 
1 0 1478:1 7258:1 13721:1 14374:1 14617:1 18149:1 21329:1 23575:1 
0.3991816519827184 0 936:1 3040:1 5318:1 5864:1 15877:1 18215:1 18765:1 18771:1 22503:1 
0.290097003429907 0 709:1 2586:1 3685:1 4266:1 6740:1 6921:1 10094:1 10603:1 10644:1 11771:1 11878:1 14428:1 18649:1 20767:1 21356:1 21548:1 
0.1833998733421937 0 3042:1 3546:1 4271:1 6008:1 6355:1 7720:1 10287:1 12343:1 13778:1 13971:1 15894:1 16741:1 18876:1 20496:1 21442:1 22697:1 23227:1 
0.8030971994511106 0 2852:1 4181:1 6381:1 12496:1 14117:1 15590:1 18912:1 
0.825285028124079 0 3361:1 4605:1 8228:1 9075:1 10501:1 14125:1 19597:1 
0.7468892370036975 0 2705:1 5406:1 12038:1 15057:1 15877:1 20709:1 21265:1 
0.7432183282630496 0 4846:1 10394:1 13713:1 21494:1 
0.01477931914043467 0 4060:1 5126:1 7120:1 7759:1 14940:1 15023:1 15877:1 16481:1 21707:1 22346:1 22697:1 
0.3135085486038507 0 1081:1 2751:1 3564:1 4826:1 4876:1 5059:1 9181:1 12188:1 14095:1 15330:1 
1 0 3634:1 9523:1 13698:1 14139:1 14153:1 18285:1 18609:1 20582:1 
0.3484905422744344 0 2635:1 4496:1 6190:1 7391:1 8002:1 10385:1 12720:1 15125:1 16338:1 17207:1 18781:1 23681:1 
0.8205577650167283 0 2917:1 3004:1 5318:1 9840:1 11223:1 17092:1 18566:1 21230:1 
0.1415296989283584 0 2366:1 2657:1 5060:1 6441:1 6861:1 7521:1 9818:1 11836:1 15050:1 19139:1 
0.9643979803220848 0 2430:1 3361:1 5318:1 8158:1 12965:1 14029:1 15982:1 17259:1 17419:1 20702:1 
0.5885237646334543 0 359:1 2446:1 7873:1 10065:1 10151:1 11224:1 11270:1 23028:1 23503:1 
0.2174106207309243 0 2418:1 3041:1 3190:1 3575:1 5028:1 6980:1 7903:1 8153:1 16813:1 18363:1 22103:1 
0 0.09363329475004077 1368:1 8596:1 13217:1 14257:1 14893:1 16013:1 16605:1 17221:1 18566:1 18609:1 
0.5803020006036054 0 5015:1 11333:1 11738:1 
0.5239087210760285 0 2443:1 3368:1 8938:1 8948:1 10654:1 11565:1 15720:1 16373:1 19169:1 19286:1 21706:1 
1 0 120:1 1155:1 6255:1 6782:1 14339:1 15652:1 16044:1 20058:1 21384:1 22376:1 
0.186484701705313 0 1412:1 1674:1 9955:1 9976:1 11246:1 12085:1 17840:1 18781:1 19169:1 20950:1 21707:1 
0.2298990154488738 0 1191:1 3552:1 11325:1 14411:1 20826:1 22330:1 24112:1 
0.1236408424764225 0 7371:1 14210:1 14302:1 15651:1 15877:1 21343:1 24293:1 
0.8738663901714534 0 4276:1 5059:1 8184:1 9367:1 13935:1 14076:1 17584:1 18160:1 23028:1 
0.292287862587887 0 211:1 628:1 2687:1 5059:1 8294:1 10553:1 11580:1 14057:1 15877:1 17138:1 17803:1 19169:1 21913:1 22211:1 22693:1 
0.1214352326266414 0.08267812353948437 2135:1 3491:1 6190:1 7209:1 7401:1 13180:1 17359:1 17954:1 23656:1 
0.919634868312883 0.02091448277019223 3270:1 3361:1 13218:1 13402:1 22393:1 
1 0 10094:1 10973:1 21642:1 
0.3591064840132891 0 1155:1 1190:1 17419:1 19169:1 19390:1 20012:1 20487:1 
0.4765353391031558 0 1519:1 2841:1 2916:1 3379:1 4642:1 5939:1 6190:1 14617:1 20205:1 20388:1 23866:1 
0.4968387779907386 0 83:1 1206:1 2795:1 3497:1 4552:1 7456:1 13094:1 14786:1 15166:1 15877:1 18566:1 
0.3680595785147545 0 3889:1 6084:1 10980:1 15965:1 16708:1 
0.9057780289068045 0 3578:1 5263:1 6207:1 6916:1 8359:1 9940:1 14092:1 18566:1 18640:1 
0.1153723776611302 0 4064:1 4563:1 4688:1 7495:1 7789:1 10510:1 13823:1 14913:1 17641:1 19067:1 19169:1 19767:1 
0.7943618870951568 0 5520:1 10208:1 11653:1 11809:1 20757:1 23579:1 
0.2232116348254269 0.01849433779194765 3546:1 11967:1 15223:1 16467:1 18928:1 
0.496781539513944 0 2829:1 6757:1 10641:1 12954:1 13687:1 21390:1 
1 0 6980:1 9077:1 19169:1 
0.6975602025225901 0 1443:1 6596:1 9458:1 10046:1 14139:1 15480:1 16503:1 16603:1 17876:1 19518:1 21284:1 
1 0 2279:1 
1 0 893:1 1016:1 9494:1 9517:1 10487:1 13544:1 
1 0 9464:1 
0.4166180724949626 0 9954:1 12963:1 18609:1 20090:1 
0.5863084324747071 0 3050:1 3490:1 3619:1 12921:1 20545:1 20865:1 
1 0 19169:1 22186:1 
1 0 12424:1 15589:1 16044:1 23646:1 
1 0.1139597843055333 3070:1 6989:1 12674:1 21824:1 
0.1978226974568611 0 1954:1 2909:1 7058:1 9941:1 15543:1 17703:1 
0.4252924707685325 0 973:1 1190:1 1821:1 15653:1 17124:1 17454:1 18770:1 20286:1 20684:1 
0.0984073266740246 0 6782:1 10651:1 20058:1 22047:1 22718:1 23015:1 
0.2185400052374375 0 378:1 1195:1 1259:1 3127:1 3531:1 5095:1 14871:1 15877:1 17379:1 23767:1 
0.8837974531436826 0 8009:1 9973:1 10487:1 15695:1 16067:1 23046:1 
0.4635905417139346 0.02359810580112662 949:1 7624:1 7665:1 9396:1 
0.4558159842369119 0.01677880352257203 1368:1 6441:1 7540:1 9158:1 12714:1 14893:1 18862:1 22109:1 
1 0 4963:1 17669:1 19597:1 20702:1 21578:1 23028:1 23847:1 
1 0.0476227834362118 1993:1 4826:1 5663:1 6152:1 7496:1 22885:1 
0.2629428311878241 0 1650:1 8680:1 9704:1 9745:1 12781:1 20254:1 
0.08171883130678247 0 60:1 2562:1 3634:1 3801:1 3957:1 4459:1 5470:1 5534:1 13712:1 18179:1 18254:1 24205:1 
0.5167480488862822 0 2167:1 3258:1 4777:1 6782:1 13859:1 16185:1 17419:1 19811:1 20058:1 20976:1 
0.4391506408171209 0 2108:1 3368:1 3447:1 4038:1 5559:1 10312:1 11941:1 13387:1 18378:1 18399:1 18912:1 21079:1 21566:1 22587:1 23202:1 23281:1 23295:1 
1 0 3845:1 14257:1 15877:1 
0.9363036810623406 0 11221:1 20125:1 
0 0.03834887613835274 5334:1 7008:1 7747:1 13660:1 13676:1 13970:1 14989:1 15279:1 15877:1 21763:1 
0.179800810440525 0 5969:1 8302:1 14103:1 15131:1 15653:1 17889:1 21071:1 21273:1 21372:1 24101:1 
0.9246332091432266 0 1190:1 9966:1 15865:1 
0.1950015490589544 0 3578:1 4796:1 8233:1 13885:1 14423:1 15463:1 15476:1 18890:1 21112:1 
0.6987561031365448 0 1650:1 4984:1 6254:1 10287:1 12210:1 14988:1 16142:1 16239:1 16339:1 21707:1 22180:1 22638:1 
0.4934776061820382 0 2203:1 4844:1 5318:1 8818:1 10875:1 16866:1 20989:1 
0.2845205161731978 0 1190:1 6749:1 18679:1 18862:1 
0.09726702776706826 0 6369:1 6988:1 7806:1 8593:1 17992:1 
0.534551062658243 0 672:1 8426:1 8516:1 9078:1 24102:1 
0.04206187058179763 0 2505:1 5073:1 5381:1 8573:1 10483:1 10661:1 17543:1 18238:1 22330:1 
0.5565712259724979 0 2635:1 5799:1 12266:1 12742:1 
0.1067987822205751 0 9142:1 9919:1 10576:1 12287:1 13760:1 15877:1 16503:1 17084:1 19169:1 23099:1 
1 0 8497:1 10394:1 18912:1 
0.1523723189626218 0 2178:1 5060:1 8625:1 8774:1 14488:1 15865:1 15936:1 21838:1 22910:1 
0.1754573435337788 0 1640:1 2597:1 2623:1 6544:1 6763:1 7415:1 8450:1 9097:1 13408:1 14411:1 15421:1 22500:1 23277:1 
0.05273832706933831 0.02137485228778529 1549:1 2277:1 7225:1 7658:1 9486:1 15695:1 17095:1 18717:1 23615:1 
0.1002370509525518 0 4494:1 8180:1 8368:1 9049:1 9597:1 11710:1 12010:1 17872:1 19530:1 22349:1 24138:1 
0.5182793722306861 0 419:1 1630:1 5034:1 8512:1 15407:1 16618:1 20090:1 
0 0.0186554200148943 817:1 5209:1 8883:1 8894:1 9919:1 18004:1 19259:1 23531:1 
0.9610689222374127 0 1177:1 11878:1 15275:1 15877:1 17202:1 18515:1 
0.5171924851994872 0.01323225516605995 665:1 6281:1 6911:1 8101:1 11898:1 14591:1 17254:1 17313:1 
0.1884502153456226 0 4051:1 5111:1 8461:1 14453:1 17920:1 20593:1 24107:1 
0.2680969863407076 0 10274:1 20388:1 
0.3043097417164267 0 225:1 3847:1 4116:1 6782:1 9676:1 11270:1 12663:1 13218:1 17167:1 
0.1007595092056326 0.04093838711756277 1433:1 1562:1 1729:1 2165:1 4747:1 5485:1 14432:1 14763:1 15865:1 18285:1 23037:1 23247:1 
0.7723596446072869 0.007128494731686304 4697:1 10025:1 19982:1 20173:1 21763:1 
0.2007264382891332 0 1924:1 2150:1 7557:1 9485:1 10220:1 15049:1 15610:1 16400:1 22236:1 
0.3449664435613726 0 482:1 1412:1 11602:1 14640:1 15402:1 17985:1 22712:1 23468:1 
0.3009101689906367 0.05129790677551758 721:1 1419:1 6254:1 13710:1 15029:1 15274:1 18929:1 22668:1 22728:1 23420:1 
0.4991008790353777 0 2691:1 5406:1 9796:1 9966:1 18967:1 
0.7997396572912535 0 1209:1 7521:1 19169:1 19437:1 19984:1 21207:1 
0.4521702338289695 0 1155:1 2375:1 4824:1 12085:1 13764:1 13785:1 14859:1 15877:1 19541:1 20135:1 
0.7515580060195632 0.07258356643007749 3099:1 6891:1 9035:1 16142:1 
0.0905590735059567 0 4658:1 5888:1 9105:1 11301:1 12380:1 13401:1 14617:1 15763:1 20545:1 23382:1 
0.3236643551582034 0 1227:1 1319:1 3042:1 5522:1 8846:1 10287:1 15619:1 19193:1 19449:1 22871:1 23531:1 
0.03175709332318277 0 109:1 2063:1 6245:1 6850:1 15262:1 15274:1 18254:1 21372:1 
0.140973722209956 0 2112:1 5520:1 5534:1 7368:1 9756:1 11223:1 15877:1 17715:1 19515:1 20709:1 
0.2652947983194653 0 988:1 5047:1 5209:1 8969:1 9496:1 15132:1 24291:1 
0.4498027003950141 0 5262:1 5655:1 10065:1 15424:1 16587:1 16632:1 18632:1 19897:1 21278:1 21564:1 23028:1 23479:1 
0.1902707878123684 0 3575:1 8883:1 8894:1 10069:1 10170:1 13778:1 14448:1 15039:1 16368:1 17864:1 23792:1 
0.1927905771443739 0.1380985292851037 1155:1 7023:1 13867:1 16729:1 
1 0 987:1 1206:1 2168:1 2477:1 8788:1 8814:1 8860:1 9925:1 18564:1 18735:1 24300:1 
0.5226696863623467 0 488:1 2705:1 3004:1 9524:1 15877:1 18890:1 19492:1 
0.967174148235204 0 1190:1 9966:1 12959:1 18862:1 
0.04336417328918173 0 4129:1 5622:1 10299:1 10528:1 11748:1 15435:1 15877:1 16439:1 20214:1 21924:1 
0.02005232863205888 0 2982:1 3267:1 3921:1 9575:1 11233:1 11748:1 12271:1 16044:1 16723:1 16791:1 
0.3319811115234086 0 11:1 1155:1 8314:1 11770:1 23719:1 
0.07711314483678218 0 1155:1 1599:1 5363:1 12382:1 15156:1 15927:1 18225:1 18615:1 23077:1 
0 0.08293912158400268 2285:1 2477:1 6923:1 7827:1 9944:1 10151:1 13811:1 16727:1 17367:1 20569:1 20950:1 21164:1 
0.3482765642154564 0 339:1 3049:1 4801:1 5059:1 
1 0.1490693353474213 9421:1 15397:1 
1 0.4134586182056131 7391:1 12256:1 17513:1 18393:1 20110:1 24249:1 
1 0 5520:1 6369:1 18609:1 20550:1 
0.6191343260418145 0 3264:1 11058:1 11461:1 13045:1 
0.07783126467892133 0 5522:1 6198:1 7962:1 8938:1 10444:1 16276:1 17225:1 17906:1 19169:1 21500:1 23177:1 23279:1 24030:1 
1 0 60:1 3578:1 4624:1 4711:1 5318:1 6088:1 6885:1 11539:1 12287:1 14076:1 
0.8242632360857343 0 1649:1 2639:1 5406:1 6081:1 6254:1 12055:1 15653:1 15877:1 18250:1 
0.8548028116639295 0.02225246847840305 5059:1 9579:1 10027:1 11237:1 15767:1 16145:1 17602:1 21865:1 24113:1 
1 0 1155:1 8314:1 8625:1 14076:1 24223:1 
0.182944044286983 0 359:1 2484:1 5936:1 7626:1 12833:1 16044:1 16834:1 17044:1 18497:1 19984:1 22330:1 
0.8495474874968959 0 1155:1 1341:1 2466:1 2682:1 2692:1 8314:1 17422:1 
0.5520541838042465 0 3368:1 3664:1 6861:1 9078:1 15865:1 15877:1 20968:1 
0.7472187891065371 0 2145:1 3029:1 3801:1 8833:1 15441:1 18566:1 18951:1 21867:1 23449:1 
0.4431572353235139 0 2193:1 5623:1 17563:1 17599:1 19251:1 
0.02554366275140336 0.04662987391535032 2135:1 2487:1 3318:1 3483:1 6172:1 7713:1 8883:1 10496:1 11395:1 13432:1 17197:1 17798:1 17835:1 19945:1 22349:1 
1 0 346:1 3004:1 14411:1 17234:1 19169:1 20879:1 
0.7663810028055712 0 6088:1 6288:1 7933:1 9382:1 12794:1 17896:1 18566:1 23710:1 
0.6395446183602996 0 4783:1 9075:1 12226:1 12714:1 13809:1 18906:1 19169:1 24291:1 
1 0 15248:1 18609:1 20254:1 
0.2185712600761314 0 134:1 614:1 2271:1 6254:1 7759:1 11301:1 12496:1 15478:1 15877:1 17335:1 17379:1 21740:1 24089:1 
0.439286998977972 0 173:1 5059:1 9876:1 12085:1 13837:1 14309:1 16961:1 20632:1 22700:1 
1 0 7388:1 8625:1 17907:1 18566:1 20042:1 21356:1 
0.587927133635716 0 14041:1 15877:1 19550:1 23849:1 
1 0 1190:1 3485:1 6916:1 12906:1 15865:1 17563:1 17907:1 19169:1 
0 0.002142453738466222 1177:1 6876:1 6980:1 14617:1 14882:1 16326:1 17096:1 
0.4336821109607031 0 3861:1 9766:1 13144:1 16255:1 19287:1 21517:1 22797:1 
0.2091896785464485 0 6587:1 6917:1 7507:1 9181:1 9415:1 10659:1 10737:1 10934:1 11862:1 15195:1 18410:1 18948:1 21556:1 22187:1 22293:1 
0.2325129699823547 0 2071:1 2359:1 3490:1 9955:1 12098:1 17334:1 18631:1 20142:1 20279:1 
1 0 6004:1 9704:1 15981:1 18179:1 
1 0 2430:1 3952:1 5060:1 6088:1 8856:1 15019:1 16044:1 19169:1 20090:1 20280:1 23028:1 
0.0709058825809296 0 606:1 2155:1 3551:1 6193:1 11084:1 12107:1 16101:1 18716:1 18731:1 19552:1 21556:1 22500:1 
0.6783591947968967 0 1016:1 4839:1 5263:1 5320:1 8066:1 8495:1 13246:1 13319:1 13477:1 16868:1 17383:1 22086:1 
1 0 2857:1 5163:1 9425:1 
0.8780734634350338 0 18360:1 22771:1 
0 0.1750202894238373 2751:1 3546:1 10781:1 15586:1 
0.4056179648915936 0 4061:1 5799:1 9554:1 14536:1 15877:1 16587:1 22103:1 
1 0 6217:1 19153:1 
0.6747768132268556 0 5381:1 6775:1 13638:1 20485:1 22575:1 
0.2109942967309041 0 527:1 6805:1 8399:1 10208:1 14088:1 15441:1 16044:1 18718:1 18840:1 20759:1 21329:1 
0.2449615726732901 0 2751:1 16702:1 21225:1 
0.07896349504510866 0 2310:1 10694:1 11967:1 12658:1 13238:1 15248:1 15824:1 18566:1 21931:1 
0.3426316880804237 0 268:1 2375:1 2446:1 4272:1 6426:1 8089:1 9209:1 10385:1 12847:1 13698:1 15877:1 18609:1 22086:1 
0.5287935963097014 0 2558:1 3957:1 12696:1 15877:1 17045:1 
0.2205339834833685 0 72:1 2289:1 3889:1 7504:1 14281:1 14654:1 15759:1 
0.09046807211887661 0 1155:1 12636:1 12886:1 15392:1 15865:1 
0.3311750505909392 0.005890207032901564 1190:1 5427:1 9627:1 18362:1 18805:1 
0.02725266276822389 0 1712:1 3846:1 5209:1 9395:1 15877:1 18302:1 19169:1 24121:1 
0.07424532207048914 0 1258:1 3861:1 4410:1 9966:1 11583:1 11836:1 14400:1 14938:1 16391:1 18587:1 21700:1 23897:1 
0.009844219396868747 0 108:1 976:1 2812:1 4507:1 5031:1 12517:1 14988:1 18743:1 19169:1 22724:1 
1 0 403:1 5318:1 13833:1 19186:1 
0.04572978231892987 0 2558:1 7082:1 8089:1 12858:1 17159:1 20138:1 23468:1 24227:1 
0.7851442148417247 0 156:1 3008:1 3889:1 5568:1 7279:1 10906:1 10977:1 17584:1 20058:1 
0.8334498789431454 0.01481769976398571 7715:1 12675:1 15565:1 16025:1 17192:1 20888:1 21706:1 
0.3394171469411882 0 2622:1 4883:1 10094:1 11163:1 15662:1 16126:1 17667:1 19169:1 20709:1 21717:1 22230:1 23869:1 
0.4462668455099253 0 4658:1 6156:1 8179:1 9847:1 11753:1 13486:1 14871:1 22187:1 
0.4526809816494701 0.01204440794838144 1185:1 1945:1 2692:1 4266:1 5737:1 9466:1 11786:1 12714:1 14167:1 15279:1 15789:1 
0.6418544635982065 0 3861:1 4941:1 10249:1 15506:1 15775:1 
0.5238299086991918 0 1155:1 1207:1 1319:1 4073:1 6026:1 10940:1 14138:1 14192:1 14617:1 15877:1 
0.7445300730857136 0 60:1 1293:1 3663:1 7869:1 16648:1 18765:1 19169:1 22165:1 
0.2493065285346799 0 1848:1 5059:1 5299:1 7460:1 8210:1 9596:1 12464:1 12622:1 15653:1 17212:1 18471:1 18784:1 20962:1 21189:1 21731:1 
0.6649771805653557 0 1160:1 4073:1 5029:1 7852:1 8210:1 10130:1 12188:1 18321:1 21884:1 23646:1 23687:1 
0.01409100984353486 0 2445:1 4171:1 7672:1 9852:1 9935:1 10331:1 11051:1 11420:1 16396:1 16504:1 17800:1 17971:1 18505:1 19605:1 19965:1 
0.9416185873283485 0 4567:1 8450:1 10208:1 
0.1031808454679554 0 348:1 4640:1 5465:1 7982:1 12822:1 12867:1 12994:1 16142:1 18558:1 
0.175156903676622 0 3861:1 5318:1 7800:1 16117:1 16142:1 16801:1 
0.3904129950802584 0 1650:1 1751:1 1930:1 2902:1 5382:1 11596:1 13768:1 13857:1 14956:1 15407:1 16564:1 22344:1 23646:1 
0.6589409346841694 0 4970:1 11100:1 12389:1 12497:1 16044:1 20001:1 20103:1 20535:1 
1 0 2570:1 2785:1 7961:1 8528:1 16062:1 
0.2388133188605566 0 5095:1 10444:1 12714:1 14267:1 17665:1 
0.4038641203400964 0 2558:1 2777:1 6415:1 7136:1 19874:1 21763:1 
1 0.1381435669730982 1593:1 5206:1 6748:1 10652:1 15720:1 
1 0 781:1 1155:1 3004:1 3672:1 6190:1 6748:1 11901:1 12085:1 16074:1 23028:1 
1 0 4624:1 8461:1 12777:1 14237:1 
0.4775164789891304 0 4090:1 4333:1 10597:1 
0.7269876051824706 0.1739489107443084 5209:1 6627:1 14293:1 19533:1 22553:1 23281:1 
0.05286542834373854 0 654:1 2904:1 9572:1 11263:1 12947:1 12971:1 14016:1 15182:1 15651:1 20138:1 20587:1 23950:1 
0.2830062748912772 0.005221866886342732 2135:1 6049:1 6213:1 11538:1 11612:1 11774:1 15397:1 15450:1 15937:1 17138:1 18829:1 21817:1 22655:1 
0.1311455611326621 0 6965:1 15097:1 15877:1 16722:1 19902:1 20734:1 
0.7455643591751311 0 9436:1 11953:1 12583:1 13337:1 15541:1 18714:1 19218:1 21585:1 22796:1 
0 0.01555983084752021 173:1 1412:1 4406:1 5059:1 6400:1 6574:1 7122:1 8464:1 8649:1 17755:1 20605:1 22444:1 
0 0.01749071656005426 370:1 4860:1 8430:1 8562:1 10114:1 10944:1 11381:1 13352:1 15927:1 16082:1 16918:1 18197:1 20090:1 22048:1 
0.5622673930629059 0 9209:1 9516:1 15279:1 17312:1 18609:1 19138:1 21004:1 
1 0 1209:1 3070:1 15877:1 20847:1 24293:1 
0.1933521532377978 0 2875:1 5956:1 9745:1 11230:1 18775:1 18917:1 19891:1 23494:1 
1 0 10706:1 12909:1 15877:1 
0 0.02688869191163626 2558:1 2687:1 3698:1 3861:1 7174:1 7402:1 7749:1 10092:1 18802:1 24051:1 24227:1 
0.3772939405378646 0.05006492636939192 4343:1 10022:1 10569:1 22003:1 
0.5988906028227985 0 1599:1 2916:1 5251:1 6980:1 13263:1 18615:1 19370:1 20888:1 
0.09179974270094518 0 1941:1 12085:1 12681:1 12830:1 14453:1 17920:1 18392:1 19841:1 20672:1 
0.1699532542726346 0 316:1 2958:1 3634:1 4883:1 5272:1 8275:1 10261:1 10650:1 12714:1 14983:1 18002:1 18038:1 19169:1 20128:1 20951:1 
0.5703052258472583 0 654:1 1061:1 10437:1 13752:1 16685:1 18735:1 19550:1 20609:1 22752:1 
0.417631976664153 0 6088:1 7877:1 8625:1 11731:1 16881:1 17541:1 
0.4284649671566099 0 15877:1 21177:1 22687:1 
0.9177548337353335 0 1190:1 2191:1 6980:1 8122:1 18496:1 18661:1 
0.3278126517752598 0 820:1 2493:1 3187:1 10069:1 12517:1 19169:1 23864:1 
0.8131255484721037 0.05664086708163979 1839:1 5623:1 15019:1 15188:1 16270:1 20012:1 21784:1 
0 0.004084840998872601 1646:1 13508:1 15158:1 21706:1 
0.4265267566142512 0 3018:1 5935:1 6537:1 18111:1 19169:1 19543:1 22420:1 22461:1 
0.411266527434657 0 4877:1 5251:1 6757:1 8852:1 12009:1 14210:1 15333:1 18268:1 18650:1 24230:1 
0.2658999532080952 0 6254:1 13651:1 15653:1 15877:1 15999:1 23107:1 24193:1 
0.1121492423083144 0 262:1 6331:1 7672:1 8862:1 18011:1 20060:1 20266:1 
1 0 2446:1 4116:1 11120:1 16094:1 18765:1 22938:1 
0.4080106796296634 0 1209:1 2785:1 2867:1 5406:1 6190:1 6891:1 8689:1 9882:1 16920:1 21667:1 21821:1 
0.8719825536558738 0 7660:1 9425:1 11475:1 24249:1 
1 0 1478:1 9485:1 16846:1 
0.1096504399138696 0 1694:1 2246:1 2631:1 3094:1 6247:1 6740:1 7660:1 12911:1 19226:1 20362:1 20702:1 22797:1 
0.7608121107168987 0 679:1 2682:1 4937:1 6121:1 6682:1 14774:1 15151:1 16126:1 18609:1 
1 0 2446:1 4868:1 14125:1 
1 0 10627:1 10641:1 17092:1 
0.002471839390203826 0 1701:1 3290:1 6369:1 8966:1 11081:1 12455:1 15559:1 22996:1 24024:1 
0.1820982358702792 0.007789270559311062 334:1 2115:1 2962:1 4171:1 7672:1 7962:1 7982:1 8448:1 9511:1 10332:1 12570:1 12994:1 13197:1 17897:1 18069:1 18541:1 19598:1 
0.6570396323191331 0 4333:1 4401:1 8856:1 12287:1 12399:1 23646:1 
1 0 7492:1 
0.3463738059149403 0 1190:1 2493:1 2900:1 4241:1 5490:1 7605:1 9138:1 16816:1 22103:1 
0.08747441520175593 0 848:1 1315:1 4826:1 5487:1 10129:1 14996:1 17024:1 23229:1 
0.2513152122023818 0 6980:1 15650:1 15653:1 15877:1 16091:1 18467:1 20628:1 
0.3469180444517528 0 527:1 6885:1 7391:1 7464:1 10393:1 10508:1 13893:1 14396:1 21273:1 22459:1 
0.7105463142523096 0 2477:1 5318:1 6254:1 6499:1 8131:1 8154:1 14411:1 19356:1 20083:1 20350:1 21707:1 
0.01579502145307479 0 3990:1 4867:1 5585:1 7725:1 12254:1 15848:1 16623:1 19765:1 
0.787681331175084 0 1278:1 4333:1 4567:1 6772:1 13934:1 
0.2024627922832168 0 1631:1 2375:1 4701:1 5059:1 5318:1 12188:1 12358:1 18321:1 18986:1 23186:1 
0.09303988282662845 0.01760574056007109 798:1 4475:1 8067:1 10978:1 11078:1 12788:1 14996:1 15945:1 21150:1 
0.7144432529355917 0 156:1 1155:1 6330:1 6881:1 18286:1 19914:1 20186:1 21528:1 
0.4332841154415945 0 1973:1 4999:1 6861:1 13640:1 14966:1 15865:1 16813:1 17138:1 19913:1 21293:1 21817:1 23369:1 
0 0.0001009095840221772 1827:1 5251:1 5362:1 6980:1 13222:1 17541:1 21390:1 
0.2865985322111093 0 681:1 10303:1 12714:1 15024:1 16452:1 20753:1 22774:1 23028:1 
0.2394969787076854 0 2639:1 3035:1 3889:1 6436:1 6885:1 10208:1 12085:1 12550:1 13522:1 23028:1 
0.9640554958553714 0 3361:1 6740:1 7232:1 13217:1 19515:1 
0.6085183600979098 0 8774:1 10974:1 11223:1 11836:1 13655:1 15687:1 23661:1 23974:1 
0.4456634596160689 0 781:1 6856:1 14016:1 19169:1 
0.04146420255872542 0 1549:1 1809:1 3843:1 8120:1 8723:1 17044:1 18247:1 19045:1 21817:1 
0.6325674226521141 0 2375:1 5343:1 5582:1 9181:1 15330:1 16864:1 17652:1 23134:1 23869:1 
0.9873459218857965 0 156:1 595:1 3258:1 5381:1 6955:1 10094:1 10645:1 10944:1 15653:1 16263:1 17314:1 19169:1 21648:1 
1 0 8492:1 10569:1 11539:1 22267:1 
0.1971363526225056 0 5577:1 9494:1 10430:1 17619:1 18539:1 
1 0 1478:1 2633:1 8596:1 11878:1 
0.4687132248377239 0 1190:1 2244:1 2312:1 2639:1 5534:1 6190:1 8187:1 11318:1 12141:1 14008:1 17604:1 19195:1 20078:1 20883:1 
1 0 7144:1 11248:1 
0.9277676339970572 0 3490:1 3664:1 4605:1 4655:1 5029:1 5095:1 5952:1 7044:1 10603:1 11678:1 23646:1 
1 0 2867:1 4537:1 19169:1 23954:1 
0.3463753801433526 0 173:1 746:1 8857:1 12503:1 14577:1 15877:1 16188:1 
0.01868144790616246 0.03041270808342346 270:1 6387:1 10243:1 12775:1 13469:1 16044:1 16510:1 17924:1 19862:1 20708:1 
0.1764044104208435 0 1503:1 1864:1 4783:1 4923:1 6951:1 9735:1 9997:1 10780:1 
0.1454903722899605 0 11888:1 15877:1 18822:1 21412:1 
1 0 2446:1 8089:1 13801:1 22733:1 24036:1 
0.5287488270792089 0 1011:1 3845:1 5520:1 5731:1 10736:1 15653:1 19477:1 20211:1 20761:1 20861:1 24165:1 
0.3116237937734421 0 6494:1 7672:1 14337:1 15351:1 17293:1 21439:1 
0.4211575338558997 0 3518:1 4894:1 7742:1 12005:1 12500:1 13873:1 19518:1 23631:1 
0.4005694367498307 0 99:1 825:1 2639:1 9745:1 13638:1 15158:1 15275:1 19356:1 20550:1 23382:1 
0.008408627140799778 0 430:1 2495:1 5170:1 7107:1 10326:1 11647:1 12197:1 14706:1 17600:1 19226:1 21707:1 23028:1 
0.3898378048840108 0 4341:1 8790:1 11223:1 12286:1 13668:1 15877:1 23107:1 
0.529742187624653 0 326:1 3291:1 4073:1 8599:1 10123:1 13293:1 15877:1 19536:1 
0.1955396710449687 0.0635638341793144 2705:1 2786:1 5000:1 5251:1 6088:1 6859:1 14069:1 14654:1 15380:1 15971:1 16044:1 21442:1 21806:1 23369:1 23837:1 
0.7581532488287316 0 4656:1 7457:1 10528:1 13065:1 16339:1 19261:1 21273:1 22569:1 
0.291375225350708 0.01332747008620252 368:1 3408:1 3962:1 4341:1 6313:1 11685:1 12034:1 14918:1 19418:1 23103:1 
1 0 3318:1 3845:1 
0.2874384237148427 0 1630:1 5137:1 6193:1 7240:1 9842:1 11223:1 15585:1 
0.9609227197153098 0 1326:1 
1 0 6124:1 6980:1 18498:1 22917:1 
1 0 3490:1 8272:1 11802:1 17227:1 17586:1 21046:1 21471:1 
1 0 3505:1 7082:1 7935:1 17584:1 18664:1 20279:1 
0.893642450263533 0 3004:1 4783:1 7906:1 12519:1 14501:1 16145:1 16188:1 23737:1 
0.07751293517279889 0 1774:1 2904:1 3663:1 9130:1 14076:1 23778:1 
1 0 781:1 12449:1 14417:1 15330:1 15877:1 16846:1 22996:1 
1 0 5282:1 6757:1 19169:1 22103:1 22186:1 22608:1 
0.1574422445641776 0 2558:1 5343:1 5705:1 19169:1 19717:1 22211:1 23251:1 23589:1 
0.7370967567781507 0 1078:1 8870:1 11724:1 15877:1 17628:1 18902:1 21329:1 21461:1 
0.136518763416881 0 58:1 2833:1 2928:1 4276:1 6460:1 7979:1 8020:1 8202:1 8492:1 15205:1 21944:1 22593:1 
0.6040066927344739 0 974:1 1631:1 4767:1 10050:1 11596:1 16041:1 18539:1 19162:1 23033:1 
0.1142378014439465 0 5318:1 9078:1 15335:1 16142:1 16623:1 16723:1 
1 0 11279:1 17441:1 20950:1 
0.3204070699935438 0 4271:1 10243:1 10577:1 14890:1 16571:1 16623:1 
0.6754541059886338 0 13977:1 14817:1 19169:1 
0.1589735554897738 0 236:1 335:1 370:1 1978:1 3262:1 5520:1 6456:1 6980:1 8450:1 9532:1 12909:1 16306:1 17189:1 19244:1 
0.3579005247157889 0.08459521767992977 1024:1 3320:1 6926:1 7064:1 7351:1 7861:1 11931:1 16503:1 18438:1 22427:1 22732:1 
1 0 5251:1 5529:1 6740:1 14123:1 20702:1 20922:1 
0.3957012518002231 0 1259:1 6135:1 15587:1 17017:1 19234:1 21517:1 21696:1 
0.372559360772517 0 1190:1 3902:1 6740:1 6981:1 7095:1 12085:1 13016:1 14654:1 16321:1 19055:1 21763:1 21817:1 
0.1664792657554873 0 654:1 4944:1 5772:1 6609:1 19382:1 19974:1 22186:1 22314:1 23028:1 23594:1 24165:1 
0 0.01730282457236532 612:1 1190:1 6740:1 7492:1 9176:1 9627:1 12362:1 13610:1 14979:1 15480:1 16864:1 20617:1 
1 0 6445:1 13793:1 
0.2184457759542381 0 2590:1 4783:1 5520:1 5529:1 12681:1 14339:1 15653:1 17719:1 19149:1 20328:1 21563:1 
0.06379071004779627 0 1987:1 3552:1 3765:1 8310:1 9745:1 13112:1 15877:1 16896:1 
0.8951733264839746 0 91:1 16752:1 
1 0.193107647537773 6748:1 10130:1 23870:1 
0.5349035495092574 0 555:1 8917:1 14173:1 18491:1 
0.1532520574212884 0.01199903538959947 351:1 1155:1 2530:1 11986:1 
0.1307452506873326 0 5944:1 7008:1 10115:1 14131:1 14324:1 15402:1 15662:1 17463:1 22160:1 22389:1 23692:1 
1 0 2692:1 15182:1 18781:1 20711:1 
1 0.01905824295382542 586:1 14041:1 15178:1 16849:1 20515:1 21849:1 23321:1 
0.1403958655263542 0 974:1 2798:1 3629:1 8883:1 13360:1 17807:1 
0.9609520177423738 0 8692:1 
0.5891022208016615 0 2032:1 2997:1 4239:1 7072:1 7143:1 8848:1 9348:1 14765:1 19984:1 
0.07421692199766323 0 1190:1 6345:1 7829:1 9400:1 9579:1 13027:1 18566:1 21273:1 22213:1 
0.245070838942147 0.001202996472309615 1767:1 1857:1 2558:1 5790:1 7985:1 9157:1 10153:1 11442:1 11788:1 12188:1 12434:1 17746:1 18496:1 
0.3297475631511094 0 6757:1 15744:1 21177:1 21299:1 
0.4875312652993487 0 1190:1 2576:1 3258:1 6207:1 10644:1 13222:1 16569:1 21803:1 
0.960288555680594 0 2821:1 9294:1 10848:1 12514:1 14417:1 15407:1 20861:1 22643:1 23845:1 
0.3682369926466235 0 5145:1 5168:1 6964:1 8461:1 15653:1 16283:1 21552:1 22336:1 
0.2993978255167358 0 2705:1 3602:1 4710:1 5034:1 6112:1 8037:1 8497:1 13778:1 14076:1 15653:1 18400:1 20171:1 20860:1 22165:1 23933:1 
0.6665101118868491 0 1762:1 1879:1 2982:1 4783:1 5747:1 6748:1 8910:1 11308:1 15881:1 17095:1 17521:1 18433:1 
0.6256249537947026 0 1209:1 2248:1 3889:1 5381:1 7259:1 9142:1 10015:1 15720:1 20008:1 21646:1 
0.1415911050940001 0 3578:1 4001:1 6441:1 6682:1 11811:1 12027:1 15248:1 19393:1 21538:1 22305:1 
0.5038975301473448 0 1905:1 3664:1 4725:1 10613:1 14153:1 16067:1 16408:1 21657:1 21667:1 
0.009312761006753371 0 1791:1 8270:1 8978:1 10322:1 11208:1 11539:1 15877:1 21046:1 
0.8532360577164411 0 4865:1 6483:1 12226:1 12882:1 14411:1 15877:1 16145:1 17330:1 
0.2968631544191169 0.08805115981383523 4220:1 13557:1 20254:1 
0 0.01125680154016348 1478:1 13131:1 14180:1 22103:1 
0.04838060065168242 0 4475:1 9314:1 11822:1 14076:1 15275:1 
0.09660000664884841 0.03890784223337612 672:1 1944:1 2827:1 3050:1 3698:1 3783:1 7246:1 7313:1 10369:1 12031:1 
0.5678658763360394 0 6190:1 7521:1 10894:1 19359:1 19984:1 20279:1 
0.6279066746247266 0 9586:1 19251:1 
1 0 88:1 2446:1 6828:1 11515:1 15877:1 17827:1 
0.3018514953002991 0 5353:1 11360:1 12824:1 19169:1 
0.6665661517956097 0 625:1 4824:1 13535:1 14417:1 16864:1 17920:1 20684:1 20895:1 22871:1 
1 0 6088:1 
0.3953118018849504 0 5871:1 9294:1 10306:1 12875:1 13512:1 22350:1 
0.5988363339573671 0 3041:1 5059:1 6201:1 8151:1 10702:1 11461:1 15330:1 15424:1 16623:1 17175:1 19305:1 
0.5604743030490936 0.02115694144483242 1423:1 1671:1 3265:1 3862:1 5702:1 6727:1 12163:1 13083:1 15327:1 19497:1 20938:1 22094:1 22568:1 22762:1 
0.135256963682223 0 1740:1 5258:1 7042:1 16126:1 17182:1 20480:1 20709:1 23929:1 
0.1955629518011333 0.0273729924506917 7371:1 10336:1 14626:1 15279:1 16411:1 19217:1 20745:1 
0.1011633250268331 0 654:1 2375:1 8694:1 8957:1 10444:1 12779:1 15696:1 15977:1 18609:1 24074:1 
0.1739377976879871 0 3189:1 3716:1 15413:1 15877:1 24089:1 
0.6692910586792035 0 1314:1 1995:1 6831:1 9745:1 14625:1 15272:1 17059:1 18862:1 22318:1 23448:1 
0.7549680580390224 0 2009:1 3727:1 6395:1 10353:1 20162:1 
0 0.001835486522156372 798:1 1105:1 2558:1 2834:1 3143:1 8133:1 9844:1 11853:1 13713:1 14988:1 15479:1 17206:1 18779:1 20140:1 20279:1 
1 0 11272:1 18107:1 21391:1 22103:1 
1 0 44:1 
0 0.1184558672007351 1324:1 5343:1 5648:1 7064:1 8492:1 9425:1 14844:1 16145:1 
0.8530361840021512 0 1280:1 2692:1 6980:1 8723:1 9181:1 10261:1 13387:1 15330:1 15573:1 16506:1 17044:1 20022:1 20058:1 
0.1062041101588745 0.01600918926937683 11647:1 16452:1 17882:1 18890:1 
0.1761448252480569 0.2050425344922073 1890:1 8717:1 10306:1 18003:1 20077:1 20362:1 21419:1 24127:1 
0.1757081339379205 0 1227:1 6483:1 7769:1 10630:1 12882:1 14635:1 14849:1 18609:1 20094:1 
1 0 3278:1 4526:1 4951:1 5772:1 6923:1 7950:1 12385:1 12387:1 18650:1 19426:1 20535:1 21390:1 21790:1 
0.6030473061493764 0.07622026429668138 1155:1 10293:1 11318:1 12085:1 13261:1 13406:1 16864:1 18975:1 22638:1 23241:1 
1 0 1053:1 7391:1 9745:1 11901:1 20552:1 23295:1 
0.2311593351415419 0 8143:1 8412:1 8609:1 10533:1 13436:1 19169:1 21974:1 23037:1 23799:1 
1 0 16188:1 
0.1369024728253495 0 625:1 1896:1 3361:1 8003:1 10894:1 13222:1 14032:1 22330:1 23028:1 23984:1 
0.2396109525604955 0 1418:1 1755:1 4873:1 6097:1 9429:1 13606:1 14005:1 14259:1 17139:1 18566:1 19550:1 
0.2578079903166789 0 5666:1 9718:1 12999:1 13217:1 13718:1 18385:1 18471:1 20103:1 21585:1 22103:1 
1 0 18311:1 22409:1 23691:1 
0.5505302444055421 0 1314:1 3910:1 5166:1 9826:1 15248:1 18683:1 18782:1 21046:1 
0.5571110519008332 0 2417:1 4605:1 5018:1 7391:1 17244:1 18092:1 22330:1 
0.09670005160867597 0 2639:1 3268:1 9211:1 13778:1 15878:1 22086:1 22186:1 23254:1 
0.0806833284246837 0 911:1 1503:1 6131:1 16623:1 17367:1 23321:1 
1 0 4635:1 15653:1 19169:1 
0.9144026221654086 0 405:1 12554:1 16126:1 22664:1 
0 0.05292583102269713 43:1 6914:1 12085:1 15398:1 
1 0 6313:1 13354:1 
0.9112527741897998 0 9575:1 15156:1 
0.2237477516923989 0 7540:1 9382:1 18791:1 
0.2547584869428788 0.008589082657794164 5242:1 8074:1 10261:1 10278:1 11307:1 12301:1 15937:1 18250:1 18566:1 23028:1 23390:1 
1 0 6351:1 14144:1 15877:1 17419:1 24282:1 
0.2016049967223396 0 517:1 5059:1 5554:1 14292:1 14488:1 15407:1 15619:1 15858:1 22305:1 
0.8902062403875128 0 617:1 1423:1 1954:1 6352:1 7195:1 7869:1 18609:1 22291:1 
0.5294329916455578 0 1016:1 4839:1 8222:1 10934:1 13778:1 15720:1 18673:1 18770:1 20677:1 22039:1 23168:1 
0.9164844864221265 0 4381:1 5192:1 5318:1 6779:1 7950:1 8737:1 13611:1 15877:1 
0 0.04824928805741942 681:1 798:1 8788:1 20000:1 
0.3187959883969239 0 4671:1 5318:1 6875:1 11770:1 12823:1 17932:1 19055:1 23028:1 
0.02396018795173197 0 1211:1 1293:1 3501:1 8306:1 10094:1 18557:1 18838:1 20101:1 21566:1 
0.02282822470617147 0.008864802054397207 2051:1 3952:1 4269:1 12246:1 12816:1 14076:1 15248:1 15353:1 16569:1 18056:1 19984:1 21102:1 
0.3753882728577629 0.01987431530921343 2013:1 3581:1 6341:1 7841:1 8359:1 10487:1 13822:1 13898:1 17536:1 17971:1 18004:1 19807:1 20734:1 21130:1 21750:1 22343:1 
0.1560769249478471 0.0227916489245688 7459:1 8724:1 10043:1 11412:1 15171:1 16481:1 18516:1 21763:1 
0 0.01312320281803042 28:1 992:1 2525:1 3564:1 4580:1 5709:1 14195:1 15275:1 15475:1 15952:1 17234:1 22028:1 
0.7199487495054078 0 3384:1 4090:1 7431:1 8372:1 11020:1 18241:1 18845:1 18946:1 21867:1 22165:1 
0.1242889779529479 0 2248:1 4073:1 6254:1 14287:1 15487:1 15804:1 15877:1 16819:1 18508:1 18566:1 20661:1 
0.4822801101252556 0 763:1 2627:1 2682:1 4589:1 4624:1 5500:1 7144:1 19169:1 19835:1 21465:1 21764:1 
0.4990761965441143 0 60:1 2855:1 3013:1 4090:1 14161:1 18779:1 18902:1 19169:1 22936:1 24077:1 
0 0.01384244441486368 3080:1 5974:1 8086:1 12287:1 22620:1 23837:1 
1 0 2639:1 6980:1 18179:1 19169:1 21356:1 
0.3464650826293375 0.05538832743685746 1747:1 3901:1 4204:1 7939:1 8225:1 9187:1 12358:1 13970:1 16878:1 18566:1 23591:1 
0.8870823570348255 0 15872:1 15877:1 19815:1 
0.3691320623175383 0 4605:1 4840:1 15004:1 18948:1 
0.2866463706726624 0 2430:1 7192:1 13217:1 13867:1 15847:1 15877:1 
0.9922159270414173 0 1190:1 2068:1 6063:1 6369:1 10627:1 17124:1 19169:1 22289:1 
0.3012425097205326 0.003635931349177611 420:1 2562:1 4877:1 6775:1 8133:1 8464:1 9905:1 13373:1 15279:1 16067:1 18083:1 
0.2846513533249875 0.002584113883883137 6782:1 7104:1 10499:1 12211:1 14141:1 14654:1 16338:1 16374:1 18566:1 21364:1 23587:1 
0.2434980451467677 0 2248:1 10657:1 10716:1 11329:1 12651:1 16096:1 16126:1 17667:1 18640:1 19268:1 19328:1 20484:1 21711:1 22766:1 22963:1 
0.917163691161902 0 3004:1 7464:1 16878:1 18784:1 
0.1822597088702546 0.03973651297912602 1214:1 2607:1 8874:1 9491:1 10094:1 10278:1 10569:1 13970:1 15463:1 16421:1 16868:1 18841:1 23615:1 
1 0 2191:1 8122:1 9494:1 14457:1 15653:1 
0.01538204235795068 0 2855:1 10762:1 15719:1 20641:1 21102:1 22014:1 
0.4986137493028226 0 1025:1 1749:1 7516:1 7618:1 8810:1 12587:1 14606:1 22435:1 
0.5561212807291934 0 5623:1 5774:1 6895:1 7777:1 8225:1 11224:1 11748:1 12343:1 13236:1 16809:1 17595:1 20702:1 21492:1 22330:1 
1 0 5042:1 8883:1 12775:1 17221:1 20058:1 
0.1200675395679936 0 1190:1 3035:1 5145:1 11938:1 13856:1 14411:1 14488:1 16944:1 22330:1 
1 0 1728:1 5059:1 8086:1 10973:1 16561:1 
0.7633739644554285 0 2430:1 2473:1 6013:1 6678:1 14535:1 16880:1 17446:1 18179:1 
1 0 11223:1 15392:1 
0.04996048266381389 0 5059:1 5318:1 10894:1 13180:1 13847:1 13971:1 15225:1 17737:1 19321:1 19846:1 19879:1 20286:1 23640:1 
0.2328068776859535 0 5318:1 6867:1 7889:1 12090:1 12642:1 15279:1 15719:1 16944:1 18609:1 19749:1 
0.1419199264809499 0.04153489965275582 2574:1 11416:1 14459:1 20480:1 22186:1 
0.06914879611684843 0 11953:1 14057:1 17584:1 19169:1 
0.1730779216056611 0 4840:1 5554:1 8206:1 10103:1 15877:1 16229:1 19679:1 20950:1 22752:1 
0.1500237045322098 0 6275:1 6782:1 6952:1 6981:1 17373:1 17713:1 
0.005273267865439226 0 3889:1 4234:1 6254:1 15156:1 17820:1 21950:1 22433:1 22956:1 
0 0.09082593204910741 2260:1 2687:1 4238:1 7516:1 
0.4476627959019379 0 6885:1 8135:1 15327:1 18032:1 
0.5070252425605014 0.06608162158374425 2090:1 5008:1 7064:1 7657:1 9579:1 11788:1 14427:1 15877:1 17393:1 18039:1 19226:1 22186:1 
0.427560532280196 0 330:1 2558:1 12424:1 15877:1 16779:1 
0.892684344700354 0 949:1 10016:1 22249:1 
0.1308797646879124 0.03495868191372514 5317:1 7411:1 9659:1 9858:1 10603:1 13768:1 18566:1 19422:1 23945:1 
0.07474138061649208 0.02381256391670903 1549:1 1723:1 4171:1 5140:1 6692:1 7672:1 7710:1 7961:1 7978:1 8926:1 12529:1 13195:1 16061:1 16444:1 19486:1 21418:1 22557:1 22630:1 23479:1 
0.7378900739692704 0 1973:1 3704:1 3861:1 4805:1 4999:1 13217:1 13436:1 15865:1 18683:1 20078:1 20214:1 24227:1 
0.1147062595225205 0 763:1 1209:1 1652:1 2034:1 3004:1 3318:1 6313:1 16492:1 17314:1 20090:1 20405:1 21380:1 
0.5689267357264678 0 42:1 9745:1 15190:1 22672:1 23028:1 24179:1 
0.346771380522545 0 60:1 2692:1 4963:1 6757:1 7371:1 13613:1 14088:1 
0.2539776702151556 0 60:1 3578:1 4291:1 8233:1 13701:1 15086:1 22103:1 22317:1 
0.6273178216375901 0 11624:1 12226:1 12855:1 15241:1 16439:1 18555:1 19544:1 20709:1 
0.01297420043264492 0 879:1 1699:1 5059:1 18905:1 19169:1 21380:1 
0.8923940068440869 0 1013:1 2357:1 6387:1 11779:1 15877:1 16723:1 17827:1 21071:1 23508:1 
0.7836837701259871 0 173:1 733:1 1854:1 2483:1 5251:1 8162:1 
0.2486305887672014 0 820:1 1646:1 2493:1 3504:1 9517:1 13041:1 14041:1 18566:1 19169:1 20677:1 20822:1 23862:1 
0.9876771281249597 0 3004:1 7950:1 8154:1 11953:1 14432:1 15653:1 17326:1 18566:1 23710:1 
0.1151984988284956 0 1926:1 4118:1 4333:1 4820:1 5242:1 6234:1 7725:1 9613:1 10291:1 15674:1 19715:1 20058:1 20280:1 21490:1 23798:1 24047:1 
0.3467135396098092 0.1473178660282513 6369:1 8007:1 14153:1 16369:1 19389:1 23942:1 
0.2057683763944008 0 3780:1 4557:1 5648:1 6134:1 6483:1 7424:1 7665:1 8883:1 8936:1 9243:1 12882:1 14517:1 15877:1 16961:1 19169:1 21124:1 21315:1 
0.4728878566913083 0.01781671671998429 1762:1 10094:1 10525:1 10603:1 13394:1 17326:1 18560:1 22592:1 
0.741099875251328 0.0488488709264558 612:1 5158:1 11240:1 14107:1 15543:1 16142:1 17354:1 20321:1 23028:1 
0.5991915796432943 0 7504:1 7582:1 13959:1 18683:1 18967:1 
0.6192538163099386 0 1814:1 2468:1 2477:1 4182:1 7672:1 10331:1 11636:1 21528:1 22879:1 
0.07882186739151022 0 6254:1 10385:1 23479:1 
1 0 2558:1 4826:1 19169:1 
1 0 7391:1 14419:1 21499:1 23028:1 23369:1 
1 0 9919:1 11223:1 
1 0 714:1 6964:1 11878:1 21552:1 
1 0 517:1 3008:1 18433:1 24121:1 
0.341746117741942 0 9802:1 12481:1 15418:1 15877:1 23170:1 23705:1 
1 0 15877:1 16679:1 17166:1 20364:1 24227:1 
1 0 3004:1 3934:1 7688:1 8319:1 9524:1 9745:1 11270:1 13396:1 14314:1 17020:1 18479:1 
0.1349739527916697 0 5673:1 13638:1 15775:1 15877:1 16940:1 
0.2669877772950939 0 917:1 2605:1 5059:1 10305:1 18197:1 18257:1 23028:1 23187:1 
1 0 1678:1 3990:1 5139:1 11539:1 18609:1 20595:1 
0.3944267520047682 0 614:1 1176:1 3490:1 7672:1 8378:1 10395:1 11285:1 12240:1 17780:1 20277:1 21082:1 22682:1 22726:1 
0.5765609956068746 0 5318:1 12714:1 15279:1 15407:1 21728:1 
0.6530270447374799 0.03288000108088401 2237:1 5252:1 5826:1 7225:1 7457:1 8883:1 9396:1 14913:1 
0.07533995521633842 0 1267:1 1478:1 2558:1 13533:1 19543:1 21322:1 
0.2013469737718875 0 1861:1 3490:1 5756:1 7395:1 8560:1 14125:1 17135:1 18054:1 18530:1 22317:1 
0.7176023279562825 0 173:1 2192:1 3196:1 3217:1 6244:1 6854:1 9163:1 10299:1 10503:1 15668:1 16440:1 18225:1 19010:1 19873:1 22624:1 22936:1 
0.2668522829366382 0.02295949465509529 730:1 5029:1 8450:1 10637:1 14078:1 14674:1 21139:1 21278:1 23765:1 
0.6747654156076003 0 173:1 2692:1 4390:1 10094:1 20583:1 20896:1 22291:1 
1 0.09593047326573556 2048:1 10094:1 11208:1 21784:1 24018:1 
0.6827347149424804 0 2558:1 23369:1 
0.5185254726143113 0 8604:1 13778:1 15879:1 22393:1 23728:1 
0.314242748061707 0 43:1 1011:1 2056:1 2501:1 4385:1 10129:1 10688:1 12281:1 16689:1 17698:1 18523:1 19362:1 24215:1 
0.5400331512120511 0 3498:1 6387:1 7543:1 22582:1 
0.8122258022846647 0 268:1 1088:1 6426:1 7878:1 9819:1 17207:1 18609:1 
0.7623857737818819 0 10094:1 15510:1 
0.138577860390026 0 43:1 1138:1 1592:1 1969:1 4427:1 4570:1 7830:1 7985:1 8308:1 15690:1 16846:1 17439:1 18566:1 20950:1 21177:1 
0.3258419476898878 0.06951464897551306 3638:1 5799:1 8671:1 10339:1 13970:1 16525:1 19762:1 
0.4575701868176753 0 5015:1 8699:1 8722:1 15877:1 
0 0.02119547753141743 612:1 893:1 7645:1 7660:1 8143:1 12060:1 15801:1 20103:1 
0.4335451828755437 0 5587:1 7521:1 7660:1 14927:1 15343:1 16044:1 21528:1 
0.01525522173719475 0 441:1 3838:1 5251:1 9323:1 9697:1 10264:1 13140:1 13577:1 14979:1 16596:1 17656:1 18974:1 
1 0 4923:1 14339:1 15425:1 
0.153531631889291 0 6254:1 12940:1 14617:1 19110:1 19445:1 19758:1 20550:1 23046:1 
0.2331276811362339 0 654:1 1053:1 10480:1 11297:1 12085:1 13459:1 15279:1 20569:1 22144:1 
0.1099163995890375 0 1155:1 10094:1 10129:1 10643:1 14786:1 18596:1 19907:1 20717:1 21310:1 21385:1 23836:1 23942:1 
0.2641414760127596 0 5287:1 5620:1 8609:1 14699:1 21808:1 23222:1 
0.1123471388781545 0 1170:1 1985:1 3024:1 3861:1 
0.1231088563314693 0 9552:1 10748:1 13317:1 15877:1 16570:1 17626:1 
0.05804730987720207 0 1712:1 8717:1 10619:1 13765:1 14750:1 18412:1 
0.5663570530963419 0 3542:1 3911:1 5790:1 8210:1 11866:1 12449:1 14831:1 14911:1 15619:1 16044:1 21255:1 
0.1309380380587924 0 325:1 4132:1 5034:1 5286:1 6617:1 7112:1 8133:1 9495:1 9952:1 10708:1 11162:1 15323:1 19055:1 
0.0675925132709105 0 385:1 1426:1 5059:1 6404:1 10303:1 13869:1 14031:1 14417:1 15877:1 20496:1 20550:1 21228:1 21248:1 21604:1 
0.06298970332415454 0.01811278855793698 2558:1 3470:1 6740:1 6782:1 7082:1 8493:1 13409:1 15937:1 20279:1 
1 0 7660:1 21754:1 
0.1684076012987073 0 2483:1 2532:1 3361:1 5067:1 5318:1 8158:1 11847:1 12287:1 12446:1 16623:1 17379:1 19251:1 19703:1 
0.3178599005203732 0 2502:1 3004:1 4845:1 4908:1 11832:1 18566:1 18594:1 22086:1 
0 0.06503863014042564 881:1 5942:1 6605:1 7830:1 11622:1 12517:1 18977:1 
0.4974568857803918 0 1105:1 4018:1 8170:1 15809:1 15877:1 16152:1 17206:1 17806:1 19592:1 22965:1 
0.1749218344313725 0 826:1 1751:1 5059:1 7460:1 11122:1 13185:1 15151:1 15687:1 18731:1 21022:1 21132:1 23343:1 
1 0 15744:1 
0.5992461198027798 0 4743:1 5406:1 9142:1 
0.4852359689130836 0.02556122984353986 2135:1 2427:1 2663:1 3109:1 5368:1 6269:1 8089:1 10370:1 16849:1 17087:1 20616:1 22045:1 24113:1 
0.1489592756839858 0 3809:1 4615:1 5153:1 7368:1 8849:1 9344:1 9990:1 13970:1 15877:1 23028:1 23287:1 23490:1 
0.748976058950074 0 3623:1 5990:1 7456:1 7874:1 16126:1 21581:1 
1 0 7672:1 10503:1 13583:1 20572:1 
0.5978663379012307 0 812:1 6148:1 6885:1 6896:1 7576:1 8818:1 10641:1 15488:1 18566:1 22291:1 
0.01170332628775025 0 318:1 654:1 1093:1 2375:1 3196:1 4963:1 5310:1 5318:1 6634:1 6639:1 9293:1 13970:1 14100:1 14882:1 21255:1 23896:1 
0.1617137074240021 0.3925302607778083 868:1 16830:1 18111:1 19491:1 23157:1 24127:1 
0.05120934448161396 0 2798:1 2900:1 5570:1 9057:1 13360:1 14740:1 15407:1 24241:1 
0.9200146215522169 0.005563049437261957 513:1 3938:1 5936:1 6387:1 8667:1 10974:1 13066:1 19477:1 20383:1 23028:1 
1 0 1191:1 3004:1 12481:1 23705:1 
1 0 3207:1 7928:1 12222:1 13506:1 15199:1 19169:1 19221:1 
0.01581047866539496 0 4162:1 5607:1 10306:1 11399:1 12814:1 14720:1 14882:1 16973:1 21504:1 
0.116359082343118 0 7291:1 8376:1 10764:1 11153:1 15327:1 20103:1 23721:1 
0.2552578567091849 0 5871:1 15877:1 
0.2005398981650639 0 365:1 5059:1 6532:1 8310:1 10306:1 11424:1 14089:1 15415:1 16085:1 16247:1 16849:1 19138:1 21146:1 23579:1 
0.792137234513256 0.005226075633095136 2368:1 2422:1 4816:1 9315:1 14181:1 14459:1 15427:1 22035:1 
1 0 4385:1 6190:1 19169:1 21615:1 23911:1 
1 0 3262:1 5790:1 12517:1 15480:1 17698:1 17896:1 22291:1 
0.1944864103589775 0 2903:1 7672:1 8921:1 9452:1 10232:1 14689:1 18618:1 22331:1 
0.2976740442182073 0 973:1 1254:1 2246:1 4783:1 5568:1 8000:1 13693:1 15703:1 16346:1 19661:1 
0.4703881555033251 0.08710073856057902 711:1 860:1 2053:1 8044:1 11167:1 12524:1 18103:1 19771:1 
0.06159275812907713 0 5335:1 6748:1 6782:1 7900:1 12248:1 15619:1 17993:1 21161:1 21375:1 23606:1 
0.07170791290761677 0 1032:1 2931:1 6740:1 10094:1 11283:1 16846:1 18862:1 19072:1 20078:1 23028:1 
0.5614094545684977 0 988:1 1227:1 3004:1 5543:1 8625:1 14041:1 18902:1 18916:1 
1 0 1423:1 5192:1 17059:1 
0.563502616114438 0 2361:1 7318:1 9138:1 19169:1 24169:1 
0.02929486291534594 0 2505:1 4236:1 7593:1 7817:1 10115:1 13354:1 13744:1 19045:1 19161:1 
0.1380589991047266 0 15865:1 22221:1 
0.4685748341084106 0 225:1 3022:1 3716:1 6369:1 10641:1 13837:1 14339:1 15087:1 17138:1 21665:1 
0.08149753191657935 0 3672:1 6397:1 13330:1 15877:1 18902:1 19169:1 23401:1 
0.3802686903071487 0 1155:1 6369:1 8210:1 11600:1 13516:1 
0.5175097523029977 0 9314:1 9966:1 15877:1 18967:1 
0.3524843602096452 0 2202:1 4534:1 6093:1 6700:1 6748:1 8089:1 9382:1 9919:1 21642:1 
0.2369627032486325 0 1581:1 4555:1 6245:1 6861:1 7521:1 7629:1 19984:1 
0.3624724233290983 0 2633:1 6727:1 10309:1 
0.2208019895104833 0 9745:1 10805:1 15330:1 23371:1 23684:1 
0.6963931312152812 0 567:1 2038:1 2522:1 7327:1 10446:1 15197:1 22716:1 23281:1 
0.6036772538444213 0.04293535599086621 4635:1 12775:1 12931:1 16025:1 20496:1 21969:1 
0.01682408281263177 0 11485:1 17738:1 18838:1 20203:1 23447:1 
1 0 2375:1 6345:1 6740:1 8210:1 15248:1 15951:1 16400:1 20828:1 21803:1 
0.4731224019711202 0 1190:1 2855:1 11468:1 11814:1 20907:1 
0.1044827042663164 0 1791:1 3099:1 12496:1 13778:1 15329:1 17907:1 20648:1 22563:1 
0.6346818687677882 0.01086146204020829 1368:1 5362:1 6757:1 8492:1 14893:1 23606:1 
1 0 1191:1 2456:1 4823:1 15877:1 16723:1 19001:1 19474:1 20482:1 20968:1 23028:1 23646:1 
0.6714065637481816 0 1138:1 2880:1 3160:1 6546:1 6732:1 6885:1 9968:1 15877:1 16872:1 21228:1 24219:1 
0.03561779480896628 0 282:1 7715:1 10937:1 13623:1 18255:1 19984:1 
1 0 12281:1 
0.2718059612665417 0 2483:1 19938:1 21792:1 
1 0.03388411219653218 654:1 2145:1 10032:1 12226:1 16044:1 18709:1 20458:1 21852:1 21966:1 
0.2048720879668197 0 5034:1 6449:1 6917:1 8065:1 19169:1 
0 0.03085232832442317 1190:1 3861:1 7403:1 7730:1 9251:1 10467:1 11691:1 16302:1 16796:1 17604:1 21612:1 21903:1 
0.1429929115153967 0 43:1 1259:1 5520:1 5809:1 7144:1 8609:1 10480:1 11938:1 12933:1 13694:1 14882:1 16439:1 19169:1 19404:1 20935:1 
0.7346943514625968 0 271:1 2772:1 3634:1 4736:1 5318:1 6823:1 12775:1 16233:1 19333:1 20827:1 
0.8873165160294415 0 3518:1 4840:1 8158:1 10805:1 24291:1 
0.8492944801378923 0 3944:1 6980:1 10566:1 
1 0 8210:1 21030:1 
0 0.001159611570991284 1253:1 2477:1 4642:1 5573:1 6193:1 8154:1 8247:1 8696:1 10483:1 10914:1 14792:1 15607:1 20824:1 22231:1 22620:1 23331:1 
0.3276739924769476 0 1853:1 5572:1 8069:1 10603:1 11410:1 21206:1 23531:1 
0.4949033725033427 0 2451:1 5476:1 7906:1 11333:1 12287:1 15703:1 15961:1 18427:1 21378:1 24231:1 
0.283603050794712 0 4839:1 5557:1 9382:1 12938:1 14032:1 15877:1 16708:1 17827:1 17976:1 19694:1 21518:1 23340:1 24165:1 
0.189684802610532 0 911:1 6749:1 14417:1 14882:1 15279:1 18566:1 
0.448430451422537 0 1999:1 3191:1 10668:1 10894:1 17221:1 22272:1 
0.04962046712298859 0.009974580631560044 1053:1 5166:1 5589:1 5656:1 6369:1 7725:1 8906:1 11215:1 12377:1 21157:1 
0.6299514761940812 0 504:1 9366:1 12172:1 14411:1 16160:1 20487:1 
0.8328736192223279 0 1617:1 12840:1 18248:1 23572:1 
1 0.2564835196074986 5589:1 12160:1 20299:1 
1 0 14292:1 19169:1 21372:1 23664:1 23942:1 
0 0.002054473251680629 2112:1 8675:1 10094:1 16309:1 18281:1 18295:1 21071:1 22850:1 
0.4331027912959121 0 7082:1 9437:1 11447:1 13437:1 15343:1 16704:1 17167:1 18278:1 23028:1 
0.04572033781890588 0 4116:1 5769:1 7931:1 14944:1 
0 0.002326014041910499 2071:1 2558:1 9627:1 11763:1 16708:1 18902:1 21517:1 22591:1 23287:1 
0.3781398083509913 0 772:1 9197:1 
0.5184770134534739 0.001583437095449739 6674:1 6989:1 9903:1 10603:1 12714:1 23185:1 
0.2211873292616322 0 3505:1 6782:1 13693:1 13752:1 18948:1 22330:1 22531:1 23028:1 24147:1 
0.1495213460651991 0 2640:1 10655:1 10665:1 17231:1 23090:1 23725:1 
0.610633110684246 0.00250322753039651 6313:1 8282:1 9571:1 16785:1 17610:1 20412:1 20914:1 21011:1 
0.8283352570143062 0 2713:1 6914:1 11318:1 11878:1 17491:1 18743:1 19169:1 20677:1 
0.3371364079230473 0 144:1 1156:1 1206:1 5053:1 6824:1 10005:1 11027:1 12399:1 13277:1 15877:1 
1 0.1423864148882343 9884:1 15279:1 18385:1 
0.3911123443755497 0 4873:1 6885:1 6980:1 8609:1 9610:1 10266:1 11477:1 13747:1 15047:1 15877:1 20702:1 22187:1 23028:1 23108:1 23646:1 
0.06845467281607155 0 4413:1 6497:1 7892:1 15653:1 15877:1 16095:1 22186:1 
0.2215331398551227 0 3889:1 7404:1 9078:1 10043:1 10810:1 11223:1 13615:1 21930:1 22330:1 22431:1 
0.468001851105079 0.0186358325626077 988:1 2479:1 14778:1 17694:1 18004:1 18497:1 18566:1 20989:1 21969:1 22195:1 
0.172545456673773 0 2477:1 5318:1 5527:1 6313:1 8966:1 9018:1 9861:1 13352:1 16276:1 16723:1 17839:1 19260:1 20552:1 
0.03641811168887687 0 1190:1 4826:1 7672:1 8768:1 10094:1 10210:1 16613:1 18004:1 19169:1 20089:1 22682:1 
0.9287647993109936 0 5252:1 12287:1 14267:1 15910:1 16834:1 
0.08038521724231479 0 8154:1 8649:1 11123:1 11411:1 19169:1 21071:1 
0.573632769565171 0 14940:1 15429:1 22062:1 
0.04654304478146851 0.02348413948640494 1177:1 2855:1 11539:1 13792:1 16523:1 16679:1 16723:1 
0.03275793702849177 0 8532:1 10342:1 11835:1 14776:1 15423:1 18515:1 23579:1 
1 0 2246:1 2558:1 3318:1 4269:1 20962:1 22028:1 23395:1 24227:1 
1 0 3845:1 6980:1 13811:1 19371:1 23767:1 
0.6965381737044218 0 1190:1 3626:1 4605:1 7120:1 8544:1 9972:1 12435:1 13343:1 13828:1 14019:1 15703:1 15877:1 18566:1 19874:1 20616:1 23606:1 
0.1296949647555521 0 41:1 1011:1 4624:1 9552:1 10226:1 15877:1 20538:1 21739:1 22600:1 
0.09479031997845254 0 2275:1 7802:1 9220:1 16126:1 18612:1 19169:1 19885:1 22164:1 
0.05630891230936951 0 9382:1 9612:1 10385:1 10414:1 13550:1 13665:1 15877:1 17268:1 17889:1 23108:1 23606:1 
1 0.03013034007669529 2597:1 2605:1 9843:1 13469:1 13778:1 23646:1 
0.1174107879349713 0 1412:1 5136:1 6727:1 6757:1 7808:1 8906:1 10411:1 15877:1 17584:1 21378:1 
0.222871514796415 0.1913921310579106 43:1 1322:1 2135:1 8158:1 11788:1 14450:1 19080:1 23896:1 
0 0.141918168454309 7960:1 13217:1 13970:1 14617:1 
0.1476711941378273 0 6980:1 9148:1 10688:1 15877:1 16570:1 16727:1 20595:1 
0.9787419256411402 0 7231:1 10641:1 15275:1 17216:1 19169:1 19322:1 21595:1 
0.3625635441661264 0 690:1 979:1 2772:1 10959:1 13525:1 14300:1 15108:1 15877:1 18004:1 21225:1 23185:1 
0 0.03971938917839737 60:1 1762:1 12909:1 17353:1 19791:1 20115:1 21685:1 22330:1 23522:1 
0.6232856511870835 0 252:1 3490:1 6841:1 16025:1 17197:1 
0.4973665734753772 0.02152412295014635 1155:1 4579:1 10826:1 22500:1 
0.4754468259384133 0.0745087488942368 578:1 6786:1 10603:1 13469:1 15877:1 
1 0 156:1 13067:1 15717:1 15877:1 16067:1 20496:1 20968:1 21821:1 24121:1 
0.03569466522402942 0 654:1 655:1 1155:1 2780:1 4030:1 10111:1 11544:1 11701:1 12266:1 12921:1 13002:1 14304:1 18013:1 
0.05986517122394226 0 2292:1 3910:1 6775:1 6785:1 9707:1 17059:1 22904:1 23479:1 23948:1 
0.745813358921008 0 1678:1 5059:1 6387:1 9955:1 12710:1 18630:1 19169:1 
0.3105565842172229 0 812:1 6190:1 13945:1 14339:1 20100:1 20791:1 
0.5478505665138154 0 7442:1 7879:1 9627:1 10094:1 12313:1 14272:1 15787:1 
1 0 2692:1 4783:1 8557:1 17198:1 17274:1 22314:1 23085:1 23272:1 
1 0 405:1 6914:1 15877:1 
0 0.009614651571560016 654:1 1190:1 1750:1 2464:1 2658:1 3698:1 8515:1 13408:1 15047:1 15984:1 20850:1 21273:1 22086:1 
0 0.01858438278823812 173:1 5772:1 6003:1 6217:1 7737:1 11342:1 13702:1 14314:1 
0.07868078040641356 0 3901:1 6313:1 6740:1 7481:1 9468:1 10089:1 11485:1 12287:1 12399:1 14115:1 18321:1 19765:1 20496:1 21726:1 23447:1 
0.643956207782677 0 1712:1 2063:1 3099:1 5220:1 10722:1 12486:1 14417:1 14617:1 16757:1 17685:1 18311:1 20058:1 
1 0 8066:1 16025:1 17257:1 20058:1 23535:1 
0.1161806245461362 0 2783:1 3634:1 3943:1 6352:1 10755:1 11790:1 11933:1 13767:1 17186:1 
0.3772444482430021 0 417:1 1627:1 3595:1 6926:1 12184:1 20115:1 21023:1 
0 0.002449185661426725 3913:1 6190:1 6600:1 11638:1 11991:1 12714:1 16637:1 16901:1 17554:1 21197:1 
0.149746825312585 0 3712:1 6740:1 6885:1 13180:1 16044:1 16142:1 22175:1 22938:1 
1 0 14076:1 
0.3895756317235476 0 6023:1 6771:1 6907:1 8774:1 17221:1 17333:1 19169:1 19356:1 
1 0 4415:1 5299:1 5568:1 10410:1 14417:1 15653:1 19169:1 20968:1 
0.2268201216474118 0.02859345110762438 1456:1 2150:1 3041:1 3609:1 4202:1 13475:1 15573:1 19749:1 
0.8263606760362594 0.03299604333499592 2375:1 7814:1 8450:1 12377:1 13774:1 13778:1 14067:1 15097:1 17516:1 23732:1 
0.3705932976540919 0.009225909796751317 10683:1 13520:1 22349:1 22743:1 23177:1 
0.112144287536873 0 4093:1 4171:1 4963:1 5844:1 6260:1 7605:1 7672:1 7710:1 7961:1 10413:1 10993:1 13182:1 13195:1 14299:1 14689:1 14982:1 17795:1 18611:1 19029:1 23433:1 
0.1683616374296327 0 2090:1 2184:1 4048:1 6775:1 7672:1 17541:1 17892:1 23479:1 23572:1 
0.3008728150590125 0 2150:1 2297:1 5953:1 8870:1 11199:1 16381:1 22330:1 
0.1577633754817514 0 12909:1 14011:1 19169:1 19526:1 
0.4025352050720645 0 577:1 2014:1 2248:1 6660:1 7066:1 8089:1 8115:1 15946:1 16864:1 18358:1 19169:1 24007:1 
0.5838807931510321 0 5771:1 7368:1 7391:1 12281:1 20893:1 21706:1 23216:1 23425:1 
1 0 3548:1 15865:1 16623:1 18179:1 20090:1 
1 0 345:1 2575:1 6300:1 7456:1 20217:1 21273:1 22045:1 
0.8377257295091102 0 3490:1 3845:1 6369:1 7772:1 20815:1 22236:1 23385:1 
0.154077859008604 0 1599:1 8532:1 12085:1 12714:1 16761:1 17563:1 22015:1 23792:1 
1 0 1015:1 16805:1 17059:1 19169:1 
0.653869463434457 0 5139:1 5623:1 10066:1 18045:1 18361:1 20058:1 23179:1 
0 0.0340509103676592 1812:1 10094:1 11664:1 11751:1 12977:1 13159:1 17296:1 17896:1 18099:1 23445:1 
0.2298469585411223 0 3004:1 6989:1 8089:1 9425:1 10706:1 17143:1 22871:1 23028:1 23185:1 
0.8686239147378333 0.1114811052699769 612:1 6009:1 6865:1 8685:1 16596:1 16878:1 20865:1 20895:1 
0.3337000797850718 0 2639:1 10129:1 11411:1 13602:1 15087:1 16392:1 17045:1 
0.5083124017307673 0 763:1 3441:1 3762:1 9815:1 11767:1 14399:1 17499:1 
0.5456219026432545 0 7:1 7748:1 15984:1 17759:1 18801:1 
0.08089427452468313 0 1155:1 2525:1 7291:1 10087:1 11836:1 15877:1 17584:1 19601:1 20595:1 23479:1 
0.01173622023194644 0 11788:1 15327:1 15424:1 16424:1 19305:1 19897:1 20738:1 
0.850329295111404 0 7378:1 10495:1 20495:1 22336:1 
0.01075410298062898 0 1412:1 3973:1 4435:1 5254:1 7672:1 9704:1 9968:1 15248:1 22682:1 
0.5385511994021857 0 156:1 4605:1 4624:1 4923:1 10422:1 15877:1 
0.2277866760816444 0 1259:1 2484:1 3430:1 4413:1 5318:1 7873:1 8657:1 17296:1 20128:1 20931:1 20962:1 23792:1 
0.04803353151629196 0 324:1 4656:1 8475:1 12612:1 14011:1 14913:1 15877:1 17408:1 21273:1 22114:1 23028:1 23646:1 
0.9939020647367827 0 8412:1 10657:1 11325:1 14617:1 17569:1 19256:1 19668:1 
0.3751314920773235 0 4440:1 5215:1 6802:1 13611:1 18143:1 
0.4065088221153251 0 1155:1 6757:1 7291:1 7436:1 8314:1 9382:1 13085:1 14300:1 15480:1 15877:1 17044:1 21278:1 
0.2016240449557206 0 4113:1 6573:1 7192:1 11270:1 13108:1 13971:1 14153:1 18479:1 20058:1 20891:1 20950:1 20951:1 23646:1 23719:1 
0.170735215125898 0 5617:1 8906:1 15877:1 16506:1 21468:1 22719:1 
0.3737171083860306 0.01310006728822466 665:1 3004:1 3952:1 8101:1 9696:1 11318:1 14339:1 14468:1 14591:1 14708:1 19984:1 22103:1 22871:1 
0.4295761580046072 0 1190:1 9972:1 13269:1 14281:1 15865:1 20495:1 21528:1 23028:1 
1 0 2014:1 3634:1 3801:1 7928:1 8539:1 13216:1 16044:1 
1 0 5318:1 7213:1 
0.3230288565537131 0 5726:1 16623:1 19251:1 19328:1 
1 0 10115:1 12287:1 12399:1 18566:1 19589:1 21867:1 22041:1 
0.0537180221023403 0 7715:1 9382:1 18535:1 19010:1 21556:1 
0.6346243910038685 0 1445:1 4624:1 5262:1 6369:1 7573:1 10032:1 20299:1 22448:1 
0.4637965769768851 0 108:1 7172:1 8717:1 21706:1 23216:1 
0 0.07536488463761182 3381:1 4524:1 7324:1 12785:1 19518:1 20286:1 
1 0 3490:1 10005:1 18902:1 
0.09773113655637669 0 632:1 1478:1 12446:1 22330:1 
1 0 21177:1 
0.960862920509632 0 3773:1 
0.1170611599238841 0 1190:1 5086:1 7879:1 8830:1 9317:1 11270:1 14882:1 21378:1 21565:1 23662:1 23746:1 
1 0 10481:1 15452:1 16247:1 20030:1 
0.05724945351609554 0.06965613656961592 2785:1 8814:1 12517:1 17952:1 21821:1 
0.6317330641588296 0 3858:1 6088:1 7282:1 7371:1 9372:1 9966:1 19169:1 20000:1 
0.1974449198281325 0.08994249056327577 1608:1 3490:1 4368:1 5018:1 5028:1 7106:1 11557:1 17139:1 19526:1 20572:1 21542:1 21844:1 23248:1 
0.2593716961166805 0 2913:1 6731:1 11164:1 14665:1 15274:1 15877:1 16092:1 20932:1 21672:1 
0 0.01931491648057156 10974:1 14153:1 15213:1 18519:1 18781:1 20895:1 
0.1155251017167472 0 1156:1 3084:1 6441:1 7536:1 9861:1 10094:1 10452:1 14089:1 16247:1 20932:1 21556:1 22187:1 22335:1 
0.1071315526189236 0 974:1 2150:1 3943:1 4429:1 5381:1 5871:1 6885:1 7783:1 14698:1 14786:1 15151:1 16752:1 19169:1 19559:1 20336:1 21057:1 
1 0 3318:1 5772:1 6190:1 10636:1 11788:1 18990:1 19110:1 19169:1 
0.7025611867463283 0 3901:1 5874:1 6605:1 6691:1 12152:1 18714:1 19218:1 21351:1 21803:1 
0.7460386311143719 0 3855:1 4451:1 14338:1 17216:1 19169:1 21894:1 23615:1 
0.04801418981806077 0.001371041025786946 898:1 4272:1 15076:1 15154:1 16188:1 16832:1 17907:1 18533:1 23045:1 
0.1444966155499632 0 2394:1 5318:1 7850:1 7935:1 17626:1 17977:1 19517:1 19749:1 20846:1 21773:1 
0 0.1358865553243175 4341:1 5335:1 10430:1 11534:1 14046:1 16119:1 17198:1 19333:1 20705:1 
0.3268000266227011 0 1767:1 10907:1 20860:1 20934:1 21177:1 24227:1 
0 0.04048220917214308 199:1 2048:1 8054:1 14339:1 18045:1 19442:1 21542:1 22927:1 23801:1 
0.2114757732905909 0 1190:1 4568:1 12281:1 15407:1 
0.1169686127888443 0 3566:1 12003:1 13387:1 14987:1 15100:1 17626:1 18285:1 
0.228387939556756 0 1314:1 2633:1 9884:1 12517:1 13510:1 14617:1 22184:1 22752:1 24169:1 
0.3179445334882665 0.03007932019915307 772:1 1138:1 5832:1 5898:1 9406:1 10706:1 10836:1 12074:1 16564:1 17816:1 17827:1 21987:1 23468:1 
0.7121445842058018 0.06933739682259783 2029:1 3248:1 4381:1 11578:1 15313:1 15877:1 
1 0 3889:1 4578:1 6254:1 6732:1 7892:1 15877:1 17182:1 19749:1 
0.5841514024742847 0.03085352694263864 2456:1 4241:1 4645:1 5318:1 6217:1 6245:1 7012:1 9592:1 12959:1 14153:1 19749:1 20108:1 21862:1 22605:1 
0.7325424951674649 0 4158:1 8154:1 10171:1 19169:1 
0.3011534417680867 0 3844:1 7391:1 10367:1 13002:1 22249:1 22314:1 22722:1 23579:1 
1 0 2501:1 5623:1 7950:1 8089:1 12085:1 14400:1 20535:1 22927:1 
0.7856227266925228 0 976:1 4333:1 5318:1 11925:1 16452:1 17685:1 19169:1 21925:1 
0.435104092846277 0 2350:1 5747:1 7892:1 8089:1 9517:1 13768:1 14501:1 15223:1 17685:1 18892:1 19472:1 23453:1 
0.3719281387743868 0 6989:1 19169:1 20279:1 23185:1 
0.9324366194404681 0 12312:1 19169:1 21706:1 23216:1 
1 0 5209:1 7098:1 15662:1 17624:1 22344:1 
0.07810751322067082 0 3748:1 19515:1 21846:1 21974:1 23028:1 
0.5694782009375348 0 2695:1 6294:1 7021:1 7568:1 10209:1 10336:1 15500:1 16785:1 17392:1 19833:1 21790:1 23468:1 
0.1331606023235903 0.02589121910182096 1382:1 11468:1 18325:1 
0.2519030126257697 0 781:1 2475:1 2492:1 5071:1 5209:1 8033:1 8225:1 11223:1 11884:1 14542:1 15877:1 17379:1 18712:1 19694:1 20569:1 
0.02390456020678576 0 61:1 541:1 3710:1 4475:1 5495:1 7122:1 9559:1 10598:1 11123:1 11962:1 12819:1 13444:1 13509:1 20204:1 21471:1 21798:1 
0.1414260441260473 0 1920:1 4171:1 7672:1 7711:1 7982:1 9642:1 10331:1 10856:1 10990:1 15534:1 15815:1 21181:1 21629:1 22345:1 24132:1 
0.2163321503948379 0.003396964581088299 69:1 1206:1 2192:1 4030:1 5550:1 6775:1 8860:1 9878:1 14610:1 15827:1 18609:1 19719:1 20254:1 21852:1 
0.4259870221372948 0 5771:1 7895:1 8722:1 16481:1 18004:1 
0 0.05448724990854544 14089:1 16247:1 16752:1 18250:1 
0.6083907036293268 0 1349:1 2451:1 4151:1 12658:1 23792:1 
0.0982692866224297 0 2633:1 10465:1 15877:1 18706:1 20926:1 22236:1 
0.1810721759032285 0 5318:1 6369:1 6655:1 6757:1 7917:1 8089:1 8222:1 9014:1 9552:1 10533:1 14511:1 16126:1 18179:1 19803:1 23799:1 
0.7396154378109894 0 1041:1 4061:1 5318:1 9556:1 15457:1 21896:1 
0.1684090901694942 0 527:1 2827:1 3004:1 6568:1 7144:1 7599:1 9745:1 10475:1 14453:1 18609:1 20226:1 
1 0 6369:1 10826:1 12226:1 20677:1 23531:1 
0.269066619887269 0.01795935958420685 419:1 1674:1 2448:1 4367:1 8265:1 11107:1 14096:1 17907:1 18804:1 20171:1 23869:1 
0.6375635234254073 0 576:1 880:1 1473:1 4030:1 5043:1 5318:1 6653:1 12107:1 13720:1 16481:1 18719:1 
0.1676861272997839 0 1155:1 2413:1 4524:1 9013:1 10075:1 15210:1 15937:1 16918:1 18373:1 20496:1 22532:1 
0.001675157028497635 0 4441:1 8793:1 9340:1 11788:1 16198:1 17908:1 19984:1 20003:1 21071:1 
0.702118384115246 0.1872061366698249 32:1 2248:1 3004:1 3801:1 5328:1 6989:1 8154:1 10110:1 21356:1 23185:1 
0.1093379242799425 0 1444:1 1742:1 6148:1 6289:1 8879:1 21426:1 
0.1465628139311327 0 4048:1 7213:1 19550:1 
0.08932638578405171 0 430:1 5029:1 14269:1 15877:1 17017:1 23028:1 24023:1 
0.05230507109725915 0 667:1 1190:1 3680:1 4839:1 5139:1 6980:1 7180:1 10459:1 15446:1 15877:1 16390:1 17359:1 17667:1 
0.7616125521609731 0 3127:1 3908:1 5059:1 7779:1 10374:1 11126:1 14883:1 15877:1 17124:1 19013:1 20617:1 21004:1 22927:1 
0.0338470764657503 0 1191:1 3490:1 9525:1 15771:1 
0.5046553528765088 0 2788:1 6369:1 6756:1 12674:1 17584:1 19426:1 23287:1 
0.1001491273855746 0 1190:1 4783:1 7068:1 11094:1 18862:1 20677:1 23292:1 
0.5918526922230286 0 10862:1 12182:1 15877:1 16896:1 22904:1 23342:1 23869:1 
0.1260471492965801 0 3946:1 4815:1 6800:1 7611:1 11262:1 17967:1 23028:1 
0.200865424510656 0.03968059748748733 861:1 4170:1 6841:1 7749:1 11086:1 14766:1 17387:1 20058:1 21197:1 
0.8631478326203738 0 326:1 765:1 9499:1 10041:1 11058:1 11482:1 14606:1 19729:1 23617:1 
0.3786665343813215 0 2059:1 2394:1 3004:1 5318:1 7725:1 7850:1 11779:1 12085:1 14079:1 15877:1 17971:1 22237:1 
0.7464730007990487 0 10094:1 16313:1 
0.9725899052891517 0 881:1 11768:1 17149:1 18566:1 21535:1 22330:1 
0.06836959388162085 0 7168:1 12537:1 13336:1 19169:1 20507:1 23028:1 
0.8580290702713241 0 2984:1 16846:1 19169:1 19982:1 
0 0.01737245563791785 12029:1 12188:1 12481:1 18285:1 19333:1 20709:1 23705:1 
0.6550883490952983 0 3382:1 4401:1 8856:1 11461:1 15719:1 15877:1 19704:1 19715:1 22463:1 
0.3818200205600951 0 1184:1 12764:1 19795:1 23137:1 
0.07940257765274664 0 2233:1 2430:1 7547:1 7931:1 9726:1 11076:1 15041:1 15940:1 16679:1 17454:1 17584:1 19949:1 21566:1 23028:1 23452:1 24275:1 
0.04441418094766518 0.006607535277814562 1155:1 4453:1 6068:1 7880:1 8154:1 10503:1 13246:1 16901:1 18427:1 20113:1 20336:1 20526:1 21173:1 22468:1 
0.8641466453353516 0 204:1 336:1 3850:1 7143:1 11476:1 14413:1 18714:1 18949:1 19218:1 21605:1 
1 0 4753:1 7839:1 10094:1 14806:1 16372:1 17584:1 
1 0 3490:1 10944:1 12931:1 
0.7129914938266464 0.07267681477301792 5776:1 10411:1 12444:1 15955:1 19749:1 21909:1 
0.1537551227493199 0 781:1 3803:1 5522:1 15734:1 16677:1 17209:1 18285:1 23711:1 
0.2185447011306967 0 4978:1 5318:1 12051:1 14210:1 14243:1 15877:1 17827:1 18948:1 
1 0 9351:1 9698:1 11123:1 14161:1 14617:1 16723:1 20050:1 20550:1 
0.3291395406160232 0 173:1 21071:1 
0.1384042936772595 0 3861:1 7456:1 9916:1 17853:1 18532:1 20278:1 
0.3103488727276519 0 2545:1 3783:1 7665:1 8891:1 10369:1 11595:1 12287:1 15877:1 17667:1 20828:1 22132:1 22591:1 
0.9636408566120687 0 1952:1 2435:1 13383:1 19169:1 
0.07417430340428337 0 1931:1 1972:1 8210:1 10115:1 16309:1 20611:1 21656:1 21991:1 
0.771779594190715 0 5192:1 5573:1 7490:1 19031:1 
0.9464106579056919 0.1906641574223537 2130:1 6457:1 15947:1 19333:1 
1 0 2483:1 3901:1 15877:1 17138:1 
0.405195749668881 0 1795:1 11393:1 15877:1 17671:1 23684:1 
0.1536035320500886 0 2427:1 5209:1 8492:1 8934:1 
0.1422159629446428 0 7456:1 8160:1 9041:1 9142:1 9858:1 11810:1 13722:1 18056:1 18179:1 
1 0 1314:1 6923:1 6980:1 13217:1 14606:1 19874:1 22047:1 
0.4037311897726978 0 4624:1 18023:1 21927:1 23594:1 23792:1 
0.2988487640949292 0 499:1 6277:1 6861:1 10129:1 10329:1 10784:1 10894:1 13583:1 14501:1 19811:1 20572:1 
1 0 2241:1 17419:1 
0.2111079414196973 0.02972768284545572 612:1 1139:1 3756:1 7012:1 11975:1 14198:1 15653:1 15858:1 17685:1 18250:1 21112:1 21140:1 22726:1 23140:1 
0.2527116549787393 0 1454:1 2565:1 4660:1 4783:1 5586:1 7645:1 8188:1 13815:1 14628:1 14882:1 18848:1 19421:1 21542:1 
0 0.004682271324044402 4385:1 13332:1 14426:1 14432:1 14558:1 15279:1 16263:1 16849:1 18515:1 20625:1 
0.4280930232554346 0 654:1 2375:1 5015:1 7578:1 8430:1 10299:1 10523:1 11245:1 14317:1 16452:1 18250:1 20699:1 
0.09232963990190445 0 1209:1 4132:1 9952:1 10906:1 14488:1 20058:1 
0.2072828259564789 0 2375:1 4783:1 5220:1 16723:1 19342:1 23272:1 
0.3482969340370477 0.06137363302482256 2164:1 2785:1 3790:1 5023:1 9434:1 21494:1 
1 0.07892463886809299 12974:1 13694:1 13867:1 19393:1 22500:1 
1 0 503:1 825:1 973:1 4561:1 7082:1 14989:1 16091:1 19169:1 22086:1 
0.2237961414410444 0 6044:1 6063:1 6229:1 11834:1 12658:1 15877:1 19014:1 20023:1 
1 0 71:1 208:1 1314:1 13113:1 18590:1 22291:1 23425:1 
0 0.006652544122148571 2164:1 2845:1 3000:1 3041:1 5970:1 6387:1 8503:1 9628:1 14423:1 16357:1 17541:1 18634:1 21497:1 22005:1 22470:1 22850:1 
0.3983108316259541 0 1678:1 2006:1 2966:1 3099:1 5874:1 12085:1 13264:1 16044:1 
1 0 15279:1 17095:1 19169:1 
0.5978752666097003 0 9466:1 10447:1 
0.422993213216889 0 7456:1 12287:1 13269:1 21764:1 23798:1 
0.5377650470410207 0 1599:1 3590:1 4385:1 4605:1 8230:1 9138:1 14411:1 15158:1 23705:1 
0.07282797217190957 0.03191725651142538 612:1 1487:1 2248:1 2355:1 7456:1 10780:1 12294:1 15480:1 
1 0 13352:1 
0.1372542506620713 0 1207:1 15984:1 21963:1 24134:1 
0.2559146719210899 0 991:1 2771:1 5797:1 11081:1 23046:1 
0.01795625253807924 0 223:1 2483:1 6802:1 13981:1 14542:1 17634:1 19169:1 19913:1 19916:1 19987:1 
1 0 7021:1 7361:1 10688:1 14453:1 19169:1 24249:1 
0.2218122169137756 0 7064:1 10197:1 11410:1 18912:1 19169:1 23522:1 
0.1827105530540018 0 4095:1 5209:1 11449:1 14463:1 16708:1 19168:1 21256:1 23028:1 
0.2095534381244463 0 949:1 1774:1 3004:1 4840:1 6384:1 21751:1 23858:1 
1 0 120:1 2691:1 15248:1 19722:1 
0.4970410972469457 0 4563:1 5209:1 8817:1 12427:1 14168:1 14786:1 15674:1 16623:1 17735:1 
0.7888900315680182 0 469:1 1075:1 3185:1 4624:1 4777:1 7391:1 13412:1 16044:1 17201:1 18868:1 19057:1 19275:1 20767:1 23646:1 24173:1 
1 0 
1 0 4839:1 6217:1 9491:1 13217:1 13793:1 15877:1 17976:1 
0.04127096738595002 0 1750:1 3004:1 6757:1 10324:1 11270:1 12693:1 13419:1 14257:1 15248:1 22537:1 23231:1 
1 0 6757:1 15865:1 22213:1 22330:1 
0.1789356131477248 0 156:1 541:1 2496:1 5629:1 6387:1 7944:1 14481:1 14528:1 14805:1 14861:1 16478:1 17608:1 19477:1 19891:1 20383:1 20699:1 
0.4896610722277047 0 1666:1 19235:1 20677:1 23463:1 
0.2079226280642953 0 781:1 1751:1 3223:1 4563:1 8722:1 10030:1 10239:1 13238:1 13674:1 14188:1 15248:1 15321:1 17743:1 17744:1 18699:1 19241:1 19984:1 
0.7002558453440338 0 8532:1 15543:1 23448:1 
0.1531680635785827 0.06024962626031788 1712:1 1876:1 4783:1 4794:1 8044:1 8774:1 9955:1 14062:1 14628:1 15407:1 16422:1 18179:1 18378:1 20155:1 21018:1 21689:1 22633:1 23615:1 
0 0.06324701744125556 60:1 812:1 1853:1 3212:1 3258:1 3943:1 8596:1 10641:1 13720:1 14076:1 20412:1 
0.3757503634648343 0 2826:1 7521:1 23129:1 
0.8673308479507839 0 6157:1 7351:1 11040:1 15734:1 20480:1 22330:1 
0.4900241923573441 0 14076:1 14267:1 15953:1 18392:1 19169:1 
1 0 1190:1 4994:1 8133:1 9745:1 12496:1 15279:1 18902:1 22330:1 
1 0.07342545671312199 11937:1 13387:1 13402:1 21704:1 
0.4464650369140257 0.07738700668665148 2137:1 11435:1 20253:1 23522:1 
0.57631639287971 0 606:1 11289:1 13720:1 14783:1 16126:1 18566:1 19169:1 
0.2802308209491913 0 6417:1 10376:1 19169:1 20215:1 
0.854633153568974 0 4124:1 12714:1 22697:1 
0.6427271676296158 0 3882:1 4475:1 6740:1 17076:1 21556:1 23128:1 24126:1 
0.3636683476430451 0 8497:1 14339:1 15877:1 
0.01593901389706067 0 3809:1 4563:1 7342:1 7371:1 8883:1 11221:1 16322:1 19165:1 20487:1 24291:1 
1 0 974:1 1190:1 2811:1 6885:1 10208:1 11667:1 14161:1 18967:1 20626:1 21356:1 
0.7762130440587468 0 5804:1 11058:1 15653:1 20893:1 
0.2793501945151042 0 4755:1 10220:1 13351:1 14339:1 15877:1 18023:1 21471:1 22186:1 
0.1188063608848025 0 2867:1 8583:1 14257:1 19169:1 20538:1 21925:1 
1 0.1023763087655339 2579:1 2812:1 4526:1 14180:1 17896:1 18975:1 20103:1 21856:1 23107:1 23535:1 
0.5152765771711594 0 6740:1 8795:1 10867:1 14786:1 16727:1 22330:1 22349:1 
0.7984573680385378 0 1190:1 2919:1 11223:1 16126:1 
0.6688051932885057 0 2051:1 12398:1 20884:1 22165:1 
0.5637501108362934 0 1155:1 1314:1 3710:1 5318:1 7521:1 9379:1 15543:1 15651:1 15877:1 19749:1 19984:1 
0 0.04893806773557233 817:1 1083:1 1155:1 6469:1 14076:1 15653:1 16400:1 19790:1 21011:1 21556:1 
0.1321955251228759 0 1020:1 3670:1 5560:1 5874:1 14792:1 18160:1 21821:1 
1 0 13691:1 14501:1 20423:1 20595:1 
0.09276506648284742 0 2806:1 8009:1 11938:1 
0.3687490230491741 0 6499:1 6660:1 9277:1 13445:1 14089:1 14617:1 15182:1 15327:1 15877:1 
1 0 14890:1 19515:1 
0.1579955060126766 0.01917923393943076 763:1 3261:1 14076:1 15476:1 15999:1 23860:1 
0.4694521912019379 0 5139:1 8450:1 10072:1 14311:1 18748:1 18915:1 19515:1 23554:1 
0.2413768686700879 0 4984:1 9396:1 12775:1 13445:1 15877:1 16626:1 17347:1 19169:1 22526:1 22671:1 
1 0 18765:1 19169:1 
0.08666879033952395 0 1906:1 3889:1 5293:1 6369:1 13802:1 23410:1 
0.2403692669649214 0 537:1 3490:1 4649:1 5586:1 6190:1 6289:1 7865:1 8089:1 10442:1 13151:1 13947:1 16878:1 17713:1 18902:1 19984:1 23688:1 
0.4237306526075447 0 1568:1 5059:1 13549:1 13778:1 15877:1 16846:1 18362:1 19240:1 
0.1744576066382472 0 173:1 538:1 539:1 1551:1 1631:1 4686:1 5059:1 6088:1 9369:1 16096:1 19366:1 22084:1 
0.6651252852386427 0 1924:1 3007:1 3387:1 3445:1 4983:1 7889:1 8611:1 10220:1 14139:1 14212:1 14256:1 15432:1 16828:1 18375:1 
0.5964720012883031 0 15877:1 23684:1 
0.2075302109805106 0 880:1 1744:1 5015:1 8074:1 9100:1 16114:1 17811:1 
1 0 8428:1 11889:1 
0.4202163977783223 0 3809:1 13665:1 
0.2717869418781725 0 3004:1 3845:1 6875:1 7599:1 9524:1 11836:1 15009:1 22177:1 
1 0 12517:1 
1 0 3546:1 3671:1 
0.1136781440243844 0.01607507115064898 1999:1 3313:1 7391:1 8309:1 9179:1 17037:1 21030:1 22857:1 
0 0.1219745127304023 124:1 3175:1 6782:1 13894:1 15038:1 19734:1 20861:1 20863:1 
0.1026478500865689 0 14:1 2857:1 3490:1 5467:1 6706:1 8143:1 14257:1 15877:1 18092:1 24126:1 
0 0.003037010270376029 1581:1 1855:1 3490:1 3664:1 3710:1 3861:1 4182:1 7822:1 9688:1 14432:1 19016:1 20632:1 23140:1 
1 0 12051:1 15877:1 
0.4246387425654904 0 2662:1 2933:1 6354:1 7542:1 10094:1 10430:1 11836:1 12799:1 12959:1 18609:1 18779:1 
0.1658513225891489 0 1857:1 2971:1 3490:1 4475:1 5623:1 14498:1 15561:1 15877:1 16492:1 16727:1 17454:1 19010:1 22620:1 24219:1 
0.3959038912595581 0 1263:1 2639:1 4029:1 6994:1 8494:1 13402:1 13525:1 14994:1 15787:1 15877:1 18844:1 19009:1 22214:1 
0.9977694174252041 0 1190:1 6757:1 11046:1 13861:1 21362:1 
0.3861669749323797 0 4177:1 4552:1 15892:1 20950:1 
0.1282267939957708 0 824:1 8717:1 8788:1 10654:1 13322:1 17326:1 20593:1 
0 0.03379778371707109 733:1 6876:1 8130:1 13180:1 14411:1 14617:1 15888:1 18630:1 19013:1 23333:1 23869:1 
0.202342529824135 0 756:1 2001:1 3589:1 14453:1 17602:1 18942:1 20768:1 23606:1 
0.01234970044408194 0 2014:1 3578:1 5314:1 7549:1 12959:1 14617:1 21390:1 22582:1 
1 0 4983:1 8515:1 11270:1 11645:1 18566:1 19169:1 
0.3594070716853042 0 2558:1 4400:1 6217:1 7023:1 7391:1 12424:1 12796:1 15653:1 17499:1 20748:1 24179:1 
0.7416836030648404 0 5063:1 12527:1 12953:1 17584:1 20482:1 20677:1 
0.03382021817741878 0 2506:1 2558:1 5262:1 10448:1 11208:1 12287:1 12399:1 19536:1 20496:1 21338:1 21350:1 22041:1 22927:1 
1 0 2851:1 6782:1 6802:1 7645:1 20582:1 22103:1 
0.3583193363249101 0 10483:1 18215:1 19635:1 
0.08009514174808444 0 165:1 3889:1 4648:1 6032:1 6563:1 6983:1 8995:1 12674:1 12880:1 16918:1 
0.6974596714326615 0 764:1 4805:1 6885:1 16691:1 17858:1 17985:1 22509:1 
0 0.01017833224108157 2916:1 5505:1 10094:1 13995:1 14180:1 14548:1 19207:1 21310:1 21535:1 22850:1 
0.4992297832311331 0 2607:1 6313:1 16727:1 22167:1 
0.5212602362598315 0 2064:1 2164:1 8419:1 15877:1 23051:1 
0.8266991691144517 0.2053803474633643 10130:1 11531:1 22500:1 
1 0 6841:1 12394:1 16142:1 16875:1 19169:1 
0.08525650877394167 0 3629:1 6616:1 6980:1 7328:1 8811:1 11097:1 16285:1 19169:1 20146:1 20334:1 21173:1 21547:1 
1 0 6661:1 
0.5748265707450559 0 22404:1 24212:1 
0.3005789837005463 0 2867:1 9524:1 10029:1 14037:1 
0.8724012679930278 0 4177:1 12630:1 16723:1 
1 0 5669:1 5767:1 19169:1 
0.0805106761863801 0 1190:1 2206:1 3004:1 3045:1 5220:1 5430:1 6275:1 7291:1 7892:1 8089:1 10707:1 11142:1 14365:1 14586:1 14871:1 17896:1 21911:1 24121:1 
1 0 6980:1 14687:1 15275:1 20535:1 22291:1 
1 0 2473:1 5034:1 7457:1 8492:1 9621:1 10973:1 13518:1 15523:1 16185:1 16561:1 22410:1 23028:1 
0 0.01944284233263396 1155:1 2673:1 3216:1 3261:1 4605:1 6923:1 11223:1 11297:1 13492:1 14913:1 16723:1 21351:1 22221:1 22330:1 
0.2137398548109391 0 1404:1 1423:1 4605:1 8515:1 8848:1 12727:1 15767:1 19052:1 20860:1 
1 0 4755:1 8543:1 8573:1 9997:1 10748:1 13665:1 16439:1 17169:1 19169:1 20480:1 24063:1 
0.4574023868930903 0 5582:1 9921:1 10057:1 11126:1 13238:1 14786:1 15420:1 17823:1 20103:1 20569:1 20595:1 21265:1 
0.2124933916890207 0 14:1 2508:1 5318:1 6345:1 12714:1 
1 0 2294:1 19597:1 
0 0.02396144608887261 43:1 14321:1 18566:1 18812:1 
0.5526887647905127 0 687:1 821:1 2279:1 4770:1 7454:1 8760:1 9293:1 11664:1 16449:1 18179:1 
0.07206189076546135 0 216:1 2916:1 3386:1 3861:1 4687:1 8154:1 14127:1 15899:1 17214:1 18278:1 19874:1 20217:1 21442:1 
0.6905342274656843 0 2275:1 4940:1 12848:1 15845:1 19169:1 
0 0.0006489587713010826 60:1 2956:1 3091:1 3943:1 4605:1 14617:1 17279:1 20205:1 
0.3585641904624571 0 2705:1 3152:1 3889:1 5262:1 5586:1 8810:1 13509:1 15662:1 17784:1 19550:1 19749:1 22047:1 22241:1 
1 0 4001:1 15713:1 19226:1 20709:1 
0.001690157546293704 0 1190:1 1481:1 4589:1 4605:1 4821:1 6346:1 8995:1 12085:1 14709:1 
0.6580922997500152 0 1562:1 3368:1 6732:1 8133:1 8811:1 10603:1 15034:1 16044:1 16388:1 19169:1 21197:1 22459:1 
0.5310514314905611 0.003093456282726316 430:1 3470:1 4432:1 6101:1 7727:1 11379:1 12973:1 18070:1 20581:1 24144:1 
0.1161966546421488 0 655:1 2493:1 2692:1 3410:1 3990:1 7887:1 10129:1 13759:1 14257:1 17746:1 18215:1 
0.5569178171822887 0 154:1 2982:1 3050:1 5220:1 8427:1 9459:1 11123:1 16791:1 17228:1 20050:1 21425:1 23324:1 23369:1 
0.2818927303731157 0 740:1 2241:1 3008:1 5607:1 12201:1 12714:1 15279:1 22086:1 
1 0 5568:1 22330:1 
1 0.02737104838707847 6775:1 7768:1 8158:1 15593:1 18884:1 22094:1 
0.5309055937877077 0 44:1 8120:1 11124:1 11442:1 15571:1 18609:1 
0.1187992650088824 0 5059:1 7008:1 7231:1 11945:1 14654:1 19384:1 20206:1 24239:1 
0.5296347632159927 0.01724592279205254 8154:1 8162:1 13447:1 15329:1 15573:1 17366:1 23508:1 24161:1 
1 0 4708:1 9581:1 11226:1 12684:1 16044:1 19366:1 20702:1 23028:1 
0.8843488368538953 0 9909:1 10094:1 15643:1 15653:1 17907:1 19169:1 19287:1 19580:1 
0.7106245118770355 0.02183324145344266 3698:1 6832:1 10226:1 12073:1 12877:1 19833:1 20860:1 21755:1 
0.3894673100162271 0 1190:1 4605:1 6124:1 7371:1 9800:1 14141:1 14267:1 20078:1 
0.773633931206863 0 661:1 1267:1 2158:1 3245:1 3968:1 5145:1 5709:1 8179:1 9613:1 10603:1 14841:1 15653:1 17584:1 20217:1 20323:1 21303:1 
0.298580523835689 0 2451:1 6338:1 7672:1 10320:1 10441:1 17337:1 18198:1 21225:1 21857:1 
0.04091907130971111 0 227:1 1155:1 3809:1 4475:1 5467:1 5575:1 7444:1 8419:1 9468:1 12839:1 16626:1 19159:1 19169:1 20003:1 20550:1 21969:1 
0.402932877723855 0 6980:1 24303:1 
0.2797820342884844 0.01237851283098559 156:1 798:1 2598:1 10641:1 11645:1 14089:1 14275:1 17285:1 18306:1 23280:1 
1 0 14153:1 15543:1 
0.03838671233481019 0 1813:1 2579:1 2782:1 6035:1 7672:1 7811:1 7962:1 7963:1 7982:1 9119:1 10331:1 10360:1 12570:1 13197:1 14512:1 16981:1 18069:1 19605:1 20578:1 20705:1 21629:1 21765:1 22968:1 
0.009004442845892809 0 1553:1 4558:1 5545:1 6190:1 8609:1 9467:1 11240:1 12449:1 13727:1 14361:1 14460:1 14463:1 15398:1 15877:1 16216:1 19551:1 21581:1 
1 0 19226:1 19452:1 
0.6176275425814675 0 1932:1 6748:1 10080:1 13941:1 19169:1 19241:1 19818:1 22966:1 23396:1 23756:1 
0.4882610270220517 0 12734:1 14253:1 16249:1 
0.5950847874341626 0 1190:1 3041:1 5220:1 15006:1 15407:1 16037:1 
0.6718178655531515 0 3566:1 7167:1 12287:1 15224:1 22330:1 
0.4005770867917868 0 1847:1 4313:1 6782:1 7531:1 15877:1 16723:1 
0.1879951365812655 0.01819274503698079 150:1 755:1 1857:1 3541:1 4439:1 8358:1 11854:1 12027:1 13778:1 14992:1 
0.7732546975313977 0 2605:1 3088:1 5029:1 13760:1 19169:1 19795:1 20078:1 20279:1 22927:1 
0.4040709296661265 0 199:1 1314:1 5002:1 6980:1 7091:1 7452:1 17563:1 18673:1 19169:1 
0.0215734769146262 0 2075:1 2440:1 12463:1 13785:1 18523:1 18566:1 19169:1 
0.9144574679406958 0 1190:1 2627:1 3261:1 5318:1 5935:1 6919:1 9138:1 11312:1 15865:1 16267:1 16377:1 18146:1 23321:1 
0.2714919608920381 0 2430:1 2639:1 2916:1 3566:1 5791:1 6156:1 7391:1 14089:1 17454:1 18902:1 20920:1 23015:1 
0.5787210468026136 0 1646:1 7917:1 16020:1 19169:1 
0 0.04060999737475984 817:1 1053:1 1712:1 1742:1 3698:1 4589:1 4624:1 6265:1 7157:1 14517:1 17150:1 18471:1 
0.1125235238030785 0 1190:1 1954:1 7419:1 10073:1 11065:1 11595:1 11821:1 12463:1 12888:1 13406:1 15879:1 19169:1 19882:1 
0.8644773118321292 0 4345:1 4829:1 6980:1 8461:1 11281:1 12651:1 17777:1 18278:1 
0.2621380490428163 0 761:1 1582:1 3262:1 8708:1 16619:1 22418:1 22904:1 
0.3786549805233436 0 6275:1 10015:1 10364:1 23106:1 
0.2797800427709654 0 5949:1 6156:1 10347:1 12005:1 12928:1 14993:1 15468:1 15703:1 15877:1 19461:1 20490:1 20702:1 23148:1 
1 0 4073:1 6740:1 19514:1 
0.4667839899725449 0 4183:1 5123:1 10129:1 14817:1 18735:1 23106:1 23876:1 
0.01480655439920254 0 654:1 3558:1 3574:1 5722:1 6923:1 7456:1 13985:1 14617:1 15877:1 17144:1 17410:1 19054:1 19734:1 20281:1 20412:1 20863:1 20893:1 24169:1 
0.1703768601545309 0 833:1 1011:1 2633:1 4904:1 11678:1 11878:1 13217:1 13436:1 16023:1 18494:1 20926:1 21987:1 
0.08060790501291139 0 556:1 1190:1 9800:1 12287:1 14886:1 15865:1 19984:1 20078:1 
0.3276423871923831 0 1650:1 6087:1 10709:1 15877:1 20058:1 
1 0 2248:1 15877:1 
0 0.005728386182946121 279:1 364:1 4024:1 8378:1 9049:1 9122:1 9208:1 9342:1 9925:1 10029:1 10597:1 13587:1 19456:1 22432:1 22837:1 
0.2471422482053856 0 654:1 4649:1 16285:1 18508:1 
0.2417642497058047 0 3889:1 7291:1 8611:1 10433:1 11593:1 
0.9791169495940697 0 7248:1 8358:1 15829:1 22103:1 
0 0.01413914148558349 4001:1 7334:1 10501:1 15619:1 17149:1 18241:1 23445:1 23479:1 
0.3590293948068782 0 1155:1 4354:1 8286:1 9745:1 12381:1 13066:1 15877:1 17584:1 18311:1 19518:1 20951:1 21350:1 23736:1 
0.1126239357918931 0 2399:1 4554:1 5520:1 6190:1 8154:1 11097:1 12517:1 15182:1 16708:1 19169:1 19893:1 
0.5993701227719815 0 2016:1 2430:1 3889:1 7213:1 8534:1 10611:1 13542:1 15850:1 16044:1 23538:1 
0 5.688414570502215e-05 2419:1 4683:1 10533:1 12270:1 12343:1 12677:1 16067:1 18090:1 20746:1 
1 0 3262:1 13916:1 19479:1 24238:1 
0.2374117943002865 0 1190:1 1574:1 4333:1 
0.2726823453756755 0 574:1 698:1 1454:1 1646:1 1970:1 3435:1 3591:1 6624:1 6899:1 7798:1 8712:1 11135:1 12566:1 13694:1 14205:1 19186:1 19959:1 20636:1 
0.5722411939430134 0 3099:1 11138:1 18744:1 19226:1 
0.1269377673699257 0 788:1 6740:1 8162:1 13067:1 14117:1 16372:1 18840:1 19550:1 21112:1 21925:1 22430:1 23929:1 
0.1603986042643153 0 110:1 2135:1 2721:1 4492:1 6156:1 9575:1 10326:1 12024:1 14339:1 15877:1 19803:1 21867:1 22944:1 23531:1 
0.187005326613685 0.01573084545694074 954:1 2558:1 3788:1 6923:1 11647:1 15703:1 19226:1 19583:1 20108:1 23804:1 
0.1652531741109835 0 2243:1 4923:1 4951:1 6255:1 9624:1 11086:1 12631:1 15274:1 15558:1 16983:1 18257:1 19479:1 
0.1769303240633563 0.01285440012833603 2483:1 5112:1 9552:1 13837:1 15407:1 17729:1 20095:1 23054:1 24085:1 
0 0.03023478714195216 634:1 1109:1 6769:1 14161:1 14667:1 14786:1 15171:1 18250:1 19078:1 20683:1 
1 0 879:1 3426:1 3845:1 4635:1 5607:1 7878:1 22748:1 
0.7293769948277529 0 2278:1 2857:1 12394:1 15248:1 19857:1 
0.08444780307223428 0 3004:1 5520:1 23401:1 
0.386683609944323 0.007940725739551435 2375:1 4470:1 7136:1 7479:1 13971:1 19375:1 
0.9611173665919787 0 9197:1 19003:1 
0.5866924853460997 0 12188:1 14011:1 15947:1 18321:1 
0.08391606414696332 0.0335708113806783 5145:1 6217:1 6789:1 8154:1 8693:1 9911:1 14339:1 19251:1 19550:1 20240:1 21586:1 22687:1 
0.804406259246557 0 60:1 3152:1 6679:1 7225:1 12739:1 16126:1 19169:1 20376:1 
0 0.0086905121406195 1011:1 4572:1 6490:1 6980:1 7212:1 8582:1 10170:1 12188:1 15653:1 17630:1 17751:1 21734:1 23222:1 23448:1 24101:1 
1 0 7889:1 19169:1 
0 0.06009195946382795 60:1 1674:1 2558:1 5403:1 6740:1 7050:1 7187:1 11123:1 11665:1 18285:1 18902:1 20003:1 20398:1 20989:1 
0.2630814220240348 0 960:1 1546:1 4909:1 5059:1 6907:1 7456:1 9193:1 11349:1 15877:1 15937:1 21177:1 22094:1 22920:1 
0.4153913828625886 0 2166:1 6425:1 7821:1 15409:1 15662:1 18975:1 19916:1 20820:1 
1 0 606:1 13778:1 14617:1 15610:1 
1 0 1293:1 1314:1 3491:1 13469:1 17059:1 
0.004143527455748642 0 9707:1 10094:1 14163:1 14411:1 15610:1 16091:1 16439:1 21877:1 22236:1 
1 0 5059:1 10857:1 11710:1 15877:1 19361:1 
0.1056736461737677 0 156:1 3045:1 8497:1 12882:1 13084:1 14339:1 16987:1 
0.003423312915628831 0 1538:1 2572:1 4269:1 13216:1 13393:1 17002:1 20226:1 23202:1 
0.3314521520360512 0 45:1 1995:1 3558:1 5343:1 7795:1 10501:1 11645:1 12135:1 13933:1 20859:1 23028:1 
0.9465676803839175 0.08970031051346967 765:1 5877:1 8089:1 8168:1 8723:1 11123:1 16397:1 17044:1 20214:1 20956:1 
0 0.05556360801030956 1972:1 6782:1 10319:1 13067:1 13859:1 14339:1 20058:1 20611:1 
0.2754712471158769 0 95:1 4705:1 6717:1 9745:1 11017:1 13056:1 16849:1 20374:1 21668:1 21974:1 23007:1 23321:1 
0.2837058888101898 0 7859:1 15126:1 15685:1 21754:1 
0.2132044058390846 0 1055:1 2558:1 5406:1 11325:1 12909:1 13778:1 16131:1 17827:1 19037:1 20849:1 21471:1 22867:1 23749:1 
0.5524112753685361 0 1155:1 1658:1 3845:1 5166:1 6070:1 7672:1 9444:1 10115:1 11270:1 12266:1 12505:1 14052:1 14417:1 14913:1 15973:1 17918:1 22212:1 23703:1 23833:1 
0.2745867065185395 0.04029999564592415 3109:1 6152:1 6863:1 7571:1 11942:1 13372:1 13408:1 19461:1 20058:1 21559:1 22274:1 22863:1 
0.1007628656052551 0 8151:1 8883:1 9186:1 12148:1 12161:1 13408:1 15347:1 15891:1 16126:1 19591:1 19874:1 22018:1 22206:1 22719:1 
0.2251188076823618 0 1423:1 5063:1 11602:1 19492:1 19837:1 
0.5856706720047018 0 6431:1 7291:1 11484:1 15279:1 19169:1 19293:1 22546:1 23784:1 
0.2613337784345216 0 3428:1 3910:1 4854:1 5129:1 5945:1 10772:1 14036:1 14617:1 
1 0 14617:1 15118:1 16335:1 
0.04579892270552869 0 1155:1 3506:1 5318:1 6369:1 9552:1 9861:1 10274:1 12500:1 12516:1 13143:1 21878:1 23028:1 23231:1 23827:1 23950:1 
0.1514698976166801 0 318:1 6885:1 11748:1 12287:1 14008:1 16628:1 21095:1 
0.9273593925073202 0 2241:1 6598:1 11442:1 15461:1 19384:1 22927:1 
0.2920593346470572 0 1423:1 2158:1 8179:1 8281:1 12496:1 22936:1 23870:1 
0.2758078537474051 0.04279738399423032 5771:1 12052:1 12414:1 13235:1 17626:1 17827:1 18480:1 22675:1 
0.8770920377238774 0 3262:1 7289:1 15297:1 15877:1 20887:1 23986:1 
0.3922609999911483 0 3955:1 6369:1 16152:1 18023:1 20715:1 22349:1 23351:1 
0.1340967127083646 0 5166:1 10417:1 14076:1 15653:1 15659:1 17563:1 22291:1 
0.6230723894829855 0 43:1 13685:1 15066:1 20130:1 24249:1 
0.2264716171407923 0 3598:1 7921:1 11485:1 
0 0.05885805504939621 5139:1 5172:1 5406:1 7492:1 13222:1 15423:1 20078:1 22532:1 23722:1 
1 0 156:1 6951:1 7782:1 8133:1 10122:1 18566:1 19169:1 20550:1 21707:1 
0.1931244315148326 0 1131:1 2375:1 8284:1 12701:1 12908:1 22318:1 
0.8165871902457862 0 173:1 2430:1 4132:1 6288:1 10251:1 17897:1 19169:1 20078:1 22062:1 22291:1 
0.03341416790496394 0 1155:1 3370:1 19874:1 21646:1 24291:1 
0.02485495511697541 0 5006:1 7398:1 8459:1 8717:1 10894:1 13443:1 14292:1 18250:1 
0 0.06889570300884744 608:1 1412:1 3290:1 3844:1 4162:1 5607:1 7064:1 12281:1 13393:1 18877:1 22186:1 
0.08276623277985118 0 3809:1 3822:1 4341:1 9745:1 12899:1 17665:1 22927:1 
0.1450489604294075 0 2558:1 4475:1 4593:1 4733:1 5059:1 7009:1 9138:1 10040:1 15049:1 19979:1 
1 0 199:1 3318:1 7521:1 8059:1 9763:1 10115:1 19984:1 20090:1 
1 0 5952:1 15877:1 15878:1 18566:1 22002:1 22728:1 
