svm_type c_svc
kernel_type linear
nr_class 3
total_sv 4322
rho 0.136269 -0.968171 -0.999591
label 1 0 2
nr_sv 1785 1882 655
SV
0.01197409050092148 0 815:1 1007:1 1290:1 1972:1 3112:1 4308:1 4320:1 6557:1 8187:1 
0 0.1322944568472773 1459:1 2017:1 4083:1 4321:1 5906:1 6970:1 8367:1 
0.6616681360634687 0.1312137577976583 889:1 982:1 2193:1 4250:1 5089:1 5163:1 5199:1 
0.03247316338920243 0 1525:1 3809:1 6438:1 8525:1 
0.395858727786682 0.006796499205202648 1085:1 4003:1 5349:1 
1 0.03160378986073528 4777:1 
1 0.1129223035413263 581:1 1045:1 2657:1 2757:1 3437:1 6108:1 6286:1 8642:1 
0 0.4697447873635469 1487:1 
0.4641555638864775 0.02320911812502122 4814:1 6589:1 
0.1854429948786008 0 63:1 525:1 798:1 2495:1 6762:1 
1 0.03150530540799091 4955:1 
0.3948715246015411 0 1712:1 4501:1 6690:1 7252:1 8225:1 
0.4369528748434348 0.1165902889909273 3902:1 3987:1 4324:1 4711:1 
0.3787963710027435 0.01067708208240074 2932:1 3137:1 8982:1 
0.917142035423168 0.1869212016421358 2097:1 5792:1 
1 0.5046249714869004 642:1 948:1 7443:1 7780:1 
0.2989460382742679 0.09003069682157165 3846:1 5109:1 7577:1 7985:1 8010:1 8687:1 
1 0 6557:1 
0.8115334753338845 0.009209645148769768 581:1 3157:1 4163:1 6650:1 8033:1 8631:1 
0.6192070327707347 0.01062816534235082 49:1 6939:1 9200:1 
0.9933184461846479 0 1313:1 6357:1 
0.2257369916993868 0 4854:1 5738:1 8923:1 
0.3562827966304011 0.01000855403754978 3437:1 5301:1 5349:1 6129:1 8008:1 
0.3393269049116714 0 581:1 817:1 4681:1 5009:1 5510:1 6637:1 
0.06411882846752133 0 2710:1 6227:1 6477:1 7709:1 
0.01550517001202503 0 1259:1 5045:1 5554:1 5645:1 5738:1 8345:1 
1 0 642:1 1085:1 3730:1 4316:1 
0.03915541851415887 0 1479:1 3638:1 4288:1 5537:1 5841:1 5907:1 5922:1 6252:1 6972:1 8008:1 9110:1 9172:1 
1 0.06320464931088091 1178:1 2678:1 2695:1 4724:1 6557:1 8333:1 8962:1 
1 1 581:1 4288:1 4320:1 
0.1798208859735639 0.1100333388057963 61:1 872:1 2000:1 
0.1400011079998328 0 3370:1 3730:1 4288:1 4864:1 5306:1 6557:1 6774:1 8923:1 
0.1301252315311452 0 3499:1 5020:1 5748:1 8324:1 9002:1 9154:1 
0.05060900478872285 0 2495:1 2554:1 3005:1 7865:1 9108:1 
1 0 531:1 581:1 2084:1 
0.2191945638069257 0.2985750474913543 2095:1 3150:1 3190:1 3383:1 3699:1 3986:1 4841:1 4923:1 5193:1 6336:1 8806:1 
0.1812916905142234 0.1160210687522903 1355:1 4823:1 6030:1 6188:1 7293:1 7379:1 8010:1 
0.3624157007594762 0 4639:1 7923:1 
0.1767028412942881 0.3334248214971695 789:1 1194:1 1409:1 1640:1 4320:1 5739:1 8707:1 8830:1 
0.1001764935728836 0.1443486740100344 1279:1 2611:1 2689:1 3441:1 3828:1 4352:1 4430:1 4616:1 8322:1 
0.4777464202300323 0 845:1 6729:1 7214:1 7575:1 8732:1 
0.9650209344348241 0 7745:1 
0.175494445061319 0 1217:1 4639:1 5814:1 6031:1 7831:1 
0 0.08342558733344803 6856:1 6949:1 
1 0 1929:1 5738:1 
1 0 725:1 1308:1 1922:1 2277:1 5084:1 6406:1 7470:1 8221:1 9040:1 
1 0.2590593691204231 827:1 3441:1 8721:1 
1 0 394:1 7554:1 
0.09919702711175332 0.07710041435545271 490:1 1186:1 6059:1 6615:1 7449:1 8387:1 
0 0.04015004065446458 900:1 3640:1 4795:1 5683:1 5922:1 5995:1 6419:1 7036:1 
1 0 3208:1 
1 0 3801:1 6557:1 8942:1 
0.5999473721167069 0.07674179861274318 1045:1 2413:1 2793:1 3077:1 3717:1 3882:1 4639:1 5292:1 6031:1 6032:1 8381:1 
0.3432822604419017 0 1986:1 6107:1 8948:1 
0.2575344841269365 0.03370087253283864 1196:1 1406:1 2086:1 3236:1 3403:1 4858:1 4864:1 5369:1 5371:1 5538:1 5571:1 6189:1 6881:1 8644:1 
1 1 4320:1 
1 0.1431486704855498 4002:1 7026:1 7846:1 8823:1 
0.3258078599901743 0 992:1 2798:1 3331:1 3404:1 3845:1 6801:1 7194:1 7280:1 8221:1 
0.7421000036783469 0 804:1 2023:1 5941:1 
0.03837677976275546 0 3134:1 4716:1 8750:1 
0.2189526380392769 0 817:1 2008:1 5700:1 6113:1 9126:1 
1 0.08631772407426369 1331:1 1772:1 2784:1 5738:1 5879:1 6946:1 6949:1 
0.3074435007356016 0.05986798293525998 1705:1 2428:1 2767:1 4888:1 5512:1 7649:1 8087:1 8578:1 
1 0.0315936011001913 1269:1 
0.5467456251051962 0 1045:1 1324:1 2695:1 6047:1 6188:1 8180:1 
1 0 6433:1 
0.1759458564834553 0 728:1 2096:1 3631:1 5512:1 8163:1 8451:1 8818:1 8923:1 
0 0.187484578273288 30:1 
0.1577246600053357 0 2240:1 3505:1 
0.3803456444936946 0.1279763071801352 134:1 920:1 6974:1 9040:1 
0 0.05077230722274278 1102:1 2121:1 4320:1 5469:1 9110:1 
0.5057441662379814 0 1045:1 2595:1 3644:1 3831:1 4947:1 5683:1 
1 1 8110:1 
0.7010412224214899 0.07465688548900717 1028:1 3784:1 4509:1 4947:1 4971:1 8074:1 
0.02643420740119293 0 6:1 345:1 1178:1 2079:1 4250:1 5465:1 5507:1 6240:1 7276:1 9079:1 
1 0.03162621416771787 7192:1 
1 0.1769587324155326 8964:1 
0.7064660009476561 0.01712383879517711 581:1 1816:1 5693:1 5775:1 6898:1 7523:1 
0.3329598990858736 0 3197:1 5466:1 5517:1 7364:1 7554:1 7980:1 9224:1 
0.8771648301089521 0.06585904975950935 782:1 1327:1 4320:1 5833:1 8221:1 8602:1 9005:1 
0.2814083996407321 0 1767:1 4456:1 4831:1 4947:1 5749:1 8236:1 8969:1 
1 0.03164247412461384 3273:1 
1 0.04970938805061705 1151:1 4288:1 7000:1 
0.2865086021396805 0 504:1 2855:1 4933:1 5404:1 5997:1 
0.307577373056734 0 1085:1 4639:1 4724:1 8511:1 8725:1 
1 0 2079:1 8008:1 
0.8776611727984085 0 581:1 642:1 1551:1 3918:1 4937:1 6269:1 8542:1 
0.3863602767340272 0.03357239992828401 1090:1 2321:1 5537:1 5964:1 9190:1 
0 0.03823311479836186 3:1 5927:1 6444:1 7872:1 8599:1 
0.594212793630057 0 3734:1 6150:1 7235:1 
0.8208010825484996 0.8439877116908783 30:1 
0.9986803372312826 0.02313105474834233 394:1 914:1 4452:1 5468:1 5850:1 7462:1 
0.5927502037309981 0.01070118788331248 5044:1 8134:1 8783:1 
0.2329743005630108 0.03097252687732729 370:1 2835:1 3093:1 3263:1 3587:1 3875:1 4888:1 5266:1 5334:1 5968:1 8899:1 
0.8082218205983885 0 1313:1 3644:1 6713:1 
1 0 3050:1 
1 0 3370:1 5014:1 5738:1 8036:1 
1 0.1331615482666002 2099:1 2413:1 5046:1 9214:1 
0.2291108635580535 0 1046:1 1384:1 1544:1 5879:1 
0.4026001576526264 0.2607736155143676 2373:1 3261:1 5738:1 8110:1 8631:1 8910:1 
1 0.05010254686234189 3427:1 
0.1015019153734513 0 36:1 531:1 642:1 1788:1 1857:1 3835:1 5834:1 6777:1 6850:1 6946:1 7282:1 7597:1 
1 1 
0.2004698088726891 0 2572:1 3730:1 4168:1 
0.6122986649635236 0 474:1 3144:1 3644:1 4398:1 5007:1 6263:1 6532:1 6976:1 
0 0.01465377674382867 1324:1 2436:1 4136:1 4351:1 4501:1 7119:1 7970:1 
1 0 7406:1 
1 0 4288:1 6615:1 
0.4588591423303021 0 2428:1 7470:1 8879:1 
1 0 5554:1 7650:1 
0.5204593232047501 0 3264:1 7140:1 7462:1 
0.4929774643396531 0.03109600393783731 4:1 791:1 1459:1 2296:1 2701:1 3366:1 3486:1 4244:1 9040:1 
0.4007050197506136 0 4211:1 5191:1 
0 0.03209847803907961 1313:1 5604:1 5705:1 6121:1 
1 0.08323989243810345 6495:1 
1 0.2226996986766062 6197:1 
1 0 270:1 2277:1 3033:1 
0.7168592139819132 0.3422813679113322 5302:1 5423:1 6214:1 
1 0 5999:1 
0.3414271393630557 0 581:1 741:1 2028:1 2551:1 6946:1 9110:1 9154:1 
0.2057589115070437 0 4703:1 5507:1 8217:1 9154:1 
0.9401824234699572 0 4607:1 6240:1 7218:1 
0.502007835139922 0 1230:1 2841:1 4110:1 4492:1 8010:1 8770:1 9181:1 
0 0.2165276606242481 254:1 713:1 1059:1 1190:1 3803:1 4101:1 4136:1 4502:1 
1 1 
0.06532038389303926 0 770:1 777:1 1033:1 6279:1 9230:1 
0.5882734662691143 0.05588832605744026 1636:1 2657:1 6161:1 6430:1 
0.5609637339054273 0 1527:1 2784:1 3717:1 5646:1 6240:1 6557:1 7459:1 7535:1 
1 0.1802937727802231 760:1 1049:1 2757:1 
1 0 3437:1 7523:1 
1 0.3112034041971101 857:1 1338:1 4320:1 5318:1 
1 0.03165601126851689 1483:1 
0.186307666161427 0 2077:1 2896:1 3350:1 4358:1 4569:1 4591:1 5962:1 6011:1 7598:1 8640:1 
0.7735354033144713 0 531:1 1324:1 1425:1 1767:1 2676:1 4051:1 
0.6945948500252809 0 5002:1 5102:1 
0.3624360140643824 0 2033:1 4639:1 
0.6487212687333498 0.02676524671444351 1411:1 7148:1 
0.3574338963366526 0 493:1 527:1 2322:1 3005:1 3483:1 9159:1 
0.3996596059620272 0 1085:1 1908:1 2261:1 
0.9538683395322802 0 4456:1 4616:1 5341:1 5841:1 7524:1 
0.2852763478472915 0 504:1 1178:1 1718:1 2983:1 2997:1 3758:1 4321:1 5033:1 7073:1 7252:1 7917:1 
1 0.5173507622643105 4320:1 7280:1 7489:1 
0.6453736839923954 0 5621:1 8994:1 
0.8139792728632572 0 594:1 3101:1 3640:1 4250:1 7156:1 
0.4036534047954865 0 4219:1 4382:1 8309:1 8489:1 
0.3597105130380188 0.03204636617865578 2678:1 3730:1 4632:1 7500:1 
1 0.1202198482881842 474:1 642:1 993:1 1234:1 4724:1 5261:1 5628:1 6603:1 
0.7340831090425345 0 3710:1 6557:1 7580:1 
0.2043976714266816 0.0577504732575737 237:1 585:1 1165:1 1400:1 2317:1 3614:1 3991:1 7489:1 8284:1 8655:1 8974:1 
1 0 8010:1 
0.8814176284856606 0 2933:1 7361:1 
0.08195808304477929 0 270:1 1313:1 2439:1 2879:1 4533:1 4762:1 5068:1 5318:1 8078:1 8575:1 8894:1 
0.8115572984480862 0 5353:1 6941:1 6949:1 8267:1 
1 0.03153710254730003 3194:1 
0.4102126476153159 0.4501552832648626 1320:1 6946:1 
0.3362737872449159 0.1981477765915357 36:1 490:1 882:1 2023:1 
0.3806594830224811 0 5173:1 6862:1 
0.8415219615481146 0.3150606676365674 2441:1 4735:1 
0.09875645894235538 0.1487964238275295 474:1 1237:1 2763:1 5107:1 6133:1 8816:1 
0.1027748371337627 0.08979197209955506 208:1 1313:1 4890:1 5334:1 5841:1 6205:1 7952:1 8707:1 
0.4593677161610341 0 1705:1 2610:1 
0.1278819067411227 0.07609659434528224 1298:1 4887:1 6438:1 7291:1 9198:1 9216:1 
1 1 3437:1 6933:1 8110:1 
1 1 
0.8755935722342465 0 2296:1 3366:1 4514:1 
0.3970611974652767 0.008149444570124568 242:1 615:1 4035:1 4250:1 8798:1 
0.1129982318509532 0.2125310921408969 257:1 998:1 1426:1 2326:1 6893:1 
1 0 1003:1 1482:1 1861:1 2761:1 2987:1 3882:1 5007:1 5527:1 8968:1 
0.1509192218900127 0.1384323545004688 5288:1 6131:1 6862:1 7917:1 8822:1 
1 0 3366:1 4430:1 5032:1 6059:1 6477:1 
0.4540222345650571 0.04860021228914482 581:1 2082:1 2810:1 2998:1 4543:1 7469:1 
0.820645810591644 0 2079:1 3105:1 3636:1 
0.2505788546355248 0 474:1 912:1 2413:1 3827:1 4543:1 5122:1 5350:1 6031:1 
0.5621201133928442 0.05209538194429496 939:1 1084:1 1684:1 5674:1 
0.9274839228687176 0 175:1 2079:1 3101:1 3370:1 4308:1 4801:1 5999:1 6214:1 8941:1 
1 1 8721:1 
0 0.2088998717990661 3587:1 3730:1 4211:1 4358:1 4617:1 5427:1 5445:1 7026:1 8617:1 
1 0 5997:1 6920:1 7860:1 9130:1 
0.1867586074026069 0 511:1 708:1 1986:1 2658:1 3522:1 4469:1 5283:1 6579:1 
0.5543511172324774 0 1313:1 1985:1 2696:1 7295:1 
0.4660372473845604 0 902:1 2354:1 2657:1 5718:1 7513:1 
0.4861547787847529 0 510:1 648:1 830:1 3105:1 3946:1 6351:1 6557:1 8010:1 
1 0.03163347101483449 6237:1 
1 1 784:1 8617:1 
1 0 6642:1 8750:1 9154:1 
0 0.02143180062218975 403:1 1749:1 2150:1 2745:1 4519:1 4925:1 5581:1 7574:1 8530:1 8631:1 9022:1 
0.4073583681787194 0 493:1 5003:1 7621:1 
0.2568085766390139 0.1746752489438759 581:1 3282:1 3971:1 5237:1 8425:1 8548:1 8631:1 9044:1 
0.4950916958498073 0.1160862175911359 603:1 3617:1 4724:1 6192:1 
0.4061720218079001 0 2473:1 3983:1 4947:1 6557:1 
0.2076878295155533 0 3235:1 3730:1 4136:1 5189:1 5266:1 6845:1 8761:1 
1 0 2371:1 
0.1930455744823432 0 921:1 1308:1 2329:1 3073:1 3559:1 6968:1 
1 0 4308:1 6240:1 
0.5681702529954749 0.01584809374667777 1714:1 7225:1 
0 0.110813764711623 175:1 770:1 1402:1 2240:1 2552:1 3324:1 4890:1 5655:1 6856:1 
1 1 
0.4934560402008982 0.1427737058689206 1797:1 3120:1 4908:1 
0.04501577574722569 0.318696707505958 254:1 4502:1 5321:1 7614:1 7838:1 8743:1 
0.02604583923109717 0 1324:1 2496:1 6214:1 6298:1 6482:1 9140:1 9215:1 
0.5427364826725641 0 1085:1 1159:1 1664:1 2958:1 3350:1 5032:1 6199:1 7762:1 
0.08542061674193992 0.2524292052244413 4502:1 4504:1 4890:1 
0.1902994746252503 0 771:1 2023:1 2541:1 3610:1 4288:1 7570:1 
0.5682895186823806 0 2099:1 2875:1 4982:1 7537:1 
1 0.6954509903844243 2240:1 
1 0.08134721958775207 2763:1 5821:1 7913:1 
1 0 547:1 
0.3221365343519353 0 3136:1 5674:1 6905:1 
0.2495329397756184 0.01580406176234491 8525:1 9049:1 
0.1108094689584502 0 68:1 1628:1 2240:1 6881:1 7626:1 
0.27808783953557 0 1308:1 3717:1 4582:1 5419:1 5518:1 7003:1 8576:1 
0.2979733896397399 0 4087:1 7257:1 
1 0 642:1 5301:1 6278:1 
0.05175041422320811 0.02640045050236681 1243:1 1285:1 2502:1 3819:1 5882:1 5922:1 6252:1 8385:1 8819:1 
1 0.1279170694204471 1073:1 4701:1 6031:1 6780:1 8367:1 
0.475407669350455 0 581:1 1696:1 1735:1 1960:1 5107:1 6536:1 8899:1 8904:1 
0.4300417385484613 0.006715594628000161 1835:1 5020:1 7832:1 8005:1 
1 0 1700:1 2023:1 2784:1 4068:1 5002:1 5545:1 6557:1 7282:1 7582:1 
0.4009396177453781 0 3730:1 8833:1 
0.5482204301598397 0 700:1 770:1 3320:1 9005:1 
0.06649194617455152 0 61:1 906:1 1085:1 3070:1 4519:1 4612:1 6754:1 7156:1 8819:1 9110:1 
0.003474812831660089 0.06324633990766937 249:1 2435:1 4382:1 4385:1 6197:1 6674:1 8850:1 9085:1 
1 0.0316715496462121 1817:1 
1 1 
0.3289750532278013 0 4321:1 8134:1 
0.2581131233328336 0.07782121535334961 72:1 1038:1 1085:1 1797:1 2983:1 3018:1 4430:1 5879:1 6897:1 7303:1 8038:1 8835:1 
0.05425675168153319 0 2131:1 5032:1 5656:1 7634:1 8347:1 
0.3449958385596938 0 1650:1 2423:1 6003:1 7192:1 7373:1 
0.04529654877893836 0 586:1 3105:1 3809:1 5104:1 5470:1 5507:1 6351:1 6557:1 7101:1 
1 0.0316881678655111 3698:1 
1 0.9332235487984005 2701:1 
1 0 642:1 3157:1 
0.8316229815750341 0 581:1 2090:1 3261:1 
0.8382381102815286 0 7314:1 
1 0.03148699881942002 2929:1 
0.2222606663187084 0 2258:1 2472:1 2719:1 2784:1 3812:1 7717:1 8925:1 
0.5760567007667948 0.03469198228003715 3105:1 4724:1 6178:1 8146:1 8631:1 8707:1 
0.1969571428373307 0 4943:1 5072:1 6894:1 7345:1 
1 0 4837:1 
0.3082577601152624 0 225:1 581:1 1402:1 1969:1 3063:1 4293:1 8245:1 
0.6664745910164271 0 447:1 1527:1 1735:1 2079:1 2784:1 4612:1 5922:1 6058:1 7761:1 
0.8293060690429569 0.5983094901959068 581:1 642:1 6905:1 7470:1 8450:1 
0.2962480308627266 0 44:1 1093:1 5738:1 6117:1 7672:1 
1 1 
1 0.03162125291058211 1183:1 
0.1981501177449841 0.1780589040122504 1102:1 2397:1 2838:1 3484:1 4320:1 5597:1 5915:1 7881:1 8818:1 
0.7299141309238913 0.07219553782031081 3946:1 4719:1 5962:1 7290:1 
0 0.1083365063942743 712:1 1459:1 1591:1 2569:1 3154:1 4068:1 4320:1 6678:1 8324:1 8905:1 
1 1 5193:1 
0.1360081883386889 0 4347:1 
0.6263818258121211 0.09414559668457408 1178:1 5798:1 
1 0 1045:1 3730:1 3992:1 4858:1 5650:1 
1 0 2473:1 5033:1 6552:1 
0.2379636743219601 0 3602:1 5458:1 6000:1 6484:1 6642:1 
0 0.1692108478043004 4519:1 5168:1 5373:1 7682:1 
0.1319814807477158 0 3445:1 4519:1 5201:1 6970:1 8035:1 
0.8815199362435605 0 678:1 1073:1 1313:1 3099:1 3108:1 3339:1 6278:1 9062:1 
0.2041227534255019 0 373:1 2456:1 8844:1 
0.3658526252039617 0 1276:1 2329:1 6729:1 6905:1 7094:1 
1 0.02891725751177375 251:1 309:1 326:1 2373:1 4780:1 5469:1 6286:1 
1 0 1076:1 4573:1 
1 0 3441:1 5738:1 6557:1 7582:1 8157:1 
0.4290239607848134 0.05278185670422717 1925:1 5701:1 8176:1 8337:1 
0.2070845675586696 0.0539771865169547 1679:1 4320:1 4915:1 5986:1 8989:1 9154:1 
1 0 1045:1 1548:1 3584:1 5419:1 5788:1 
0.1561483571118023 0 581:1 605:1 787:1 2050:1 4708:1 5738:1 
1 0.1140688941989121 4347:1 4519:1 8964:1 
0.1089621633934275 0 2023:1 2540:1 3715:1 3977:1 5559:1 6158:1 6489:1 7192:1 8010:1 
0.3642541990830921 0.1113261034031377 4837:1 7364:1 7783:1 
1 0 2079:1 8324:1 
0.2995977274170822 0.1695488111771452 783:1 835:1 1307:1 2737:1 3370:1 3401:1 4519:1 5033:1 7149:1 8435:1 8702:1 
0.3268527973404511 0 798:1 2759:1 3062:1 3823:1 4945:1 6214:1 6515:1 8159:1 9154:1 
0.9082811543487374 0 246:1 648:1 697:1 976:1 1482:1 3507:1 9069:1 
0.5496281488882544 0 1313:1 1701:1 6851:1 7829:1 7876:1 8815:1 
0.3706109824169954 0.1780281879849326 5954:1 7868:1 8488:1 
0 0.00621074085374027 36:1 714:1 1178:1 1608:1 1705:1 3016:1 3312:1 4910:1 5358:1 6946:1 
1 0.2619175606208909 2757:1 3105:1 3441:1 3537:1 8971:1 
0.514051751379399 0 1085:1 7970:1 8242:1 
0.2988882429817225 0.01497554020601422 453:1 2689:1 4605:1 7443:1 
1 0.7390769826802036 642:1 2960:1 4320:1 
1 1 
1 0 8508:1 
0.8127179222617995 0.1006837801883164 581:1 1864:1 5078:1 6197:1 
0.07740650696750852 0 581:1 1585:1 2808:1 3730:1 4212:1 5740:1 6463:1 8530:1 
0.3370674751546952 0 298:1 309:1 991:1 1083:1 2117:1 5124:1 6557:1 7249:1 8411:1 
0.04997631233655374 0 525:1 1313:1 4947:1 5683:1 6958:1 7026:1 7554:1 8010:1 
0.2156971112392258 0 1705:1 1735:1 4982:1 5033:1 7583:1 8496:1 8906:1 
1 0 254:1 
0.9947039077199673 0 2108:1 2784:1 2862:1 3437:1 3529:1 3587:1 3971:1 5974:1 
0.9438442779815495 0 4502:1 4675:1 5570:1 9009:1 
0 0.01228605178974058 493:1 804:1 998:1 1797:1 2000:1 2535:1 3828:1 4878:1 
1 0.6265471909308987 4320:1 6499:1 
0.1839936021736333 0 207:1 336:1 4639:1 5033:1 7764:1 
0.01527913102223122 0 581:1 1134:1 1922:1 3449:1 4208:1 4509:1 4827:1 5671:1 6433:1 8880:1 
0.5389990917969154 0.0705016017733447 1459:1 1585:1 7763:1 
0.6032555678068283 0.0162111271570352 1301:1 3370:1 3911:1 5230:1 
0.6985089474791326 0.02294165602150064 1706:1 3584:1 4015:1 4357:1 4553:1 4906:1 4936:1 5266:1 5387:1 8367:1 9002:1 
0.03485104207176182 0 254:1 4639:1 4857:1 7563:1 9230:1 
1 0.07650684084983482 642:1 8102:1 8651:1 
0.5044130573918316 0 6624:1 7470:1 8124:1 8877:1 
0.1267851452118716 0 394:1 1085:1 2879:1 3403:1 4154:1 4265:1 4947:1 5604:1 6543:1 7129:1 7295:1 7526:1 8285:1 8952:1 
0.07042306754506727 0 3979:1 4930:1 7459:1 
0.170464011729889 0 1051:1 2763:1 5173:1 8067:1 8324:1 
0.01982787661882686 0 426:1 1079:1 1908:1 3895:1 4128:1 4719:1 5674:1 6885:1 7375:1 
0.5152880422410178 0.2257593184234683 4001:1 4105:1 4320:1 5452:1 8631:1 
1 0 2319:1 2657:1 
1 0.4769633558079505 285:1 5851:1 
0.7212506102867883 0 394:1 3730:1 4886:1 8964:1 
0.9656912421350879 0.02562520665392132 46:1 254:1 1223:1 4632:1 6436:1 
1 0 4574:1 5266:1 6670:1 
0.1569187229556185 0 2255:1 6142:1 6267:1 8301:1 
0.3867017695132897 0.2563069180415779 874:1 1438:1 1553:1 1658:1 2105:1 2879:1 5704:1 6011:1 7319:1 7614:1 
1 0.07274539667177465 98:1 656:1 3545:1 5841:1 
0.4659519515199532 0.02525997409822619 771:1 856:1 1901:1 4519:1 
1 0 874:1 5422:1 9171:1 
0.7058927645167893 0 6557:1 7282:1 8579:1 8597:1 
1 1 
0.2105015049935992 0 3896:1 4708:1 5507:1 8267:1 
0.09973858657239218 0 894:1 1525:1 2966:1 4502:1 4519:1 5531:1 6992:1 7550:1 9203:1 
0.8853895088153114 0.5195724170829925 2098:1 7005:1 
0.791241532621517 0 1986:1 5216:1 6353:1 7207:1 7926:1 8877:1 
0.2006071515728616 0.1212377387122099 999:1 2086:1 3082:1 4314:1 4913:1 
1 0 386:1 
0.5760861863882641 0 662:1 6998:1 7758:1 
1 0.1941685100914055 861:1 998:1 3882:1 4331:1 4881:1 6970:1 
0.1654255862955542 0 581:1 1678:1 3736:1 5007:1 5126:1 5691:1 5998:1 6959:1 7601:1 9230:1 
0.20241035161474 0.589686350914493 4947:1 6643:1 8056:1 9190:1 
0.9214875969925259 0 1050:1 1603:1 4053:1 4719:1 5738:1 7634:1 
0.1036419601775872 0 1395:1 5014:1 5718:1 5887:1 6339:1 6421:1 6943:1 6946:1 8707:1 
0.2721022445912302 0.007780911002420936 1168:1 1597:1 3984:1 5072:1 8427:1 
0.8504306344633197 0 2784:1 3604:1 5974:1 7958:1 
0.1870806782778886 0 470:1 1848:1 4051:1 4161:1 4454:1 6499:1 7990:1 
1 0.03167828623685113 463:1 
0.05626933338671587 0.08382480514318146 2110:1 2463:1 2856:1 3946:1 4719:1 6951:1 8807:1 
1 0 2413:1 2763:1 5718:1 8006:1 
0.31786531373567 0 2470:1 2784:1 7131:1 7677:1 8565:1 
0.8212009652284742 0 142:1 1317:1 5718:1 
0.07531150873008671 0 295:1 4393:1 5999:1 6238:1 
0.7272063909094024 0.3236504332878539 308:1 474:1 2373:1 5240:1 8239:1 
1 0 361:1 581:1 1085:1 2171:1 2784:1 2912:1 9165:1 
0.9276373627258182 0 1051:1 3437:1 4118:1 
0.7075322975728043 0.08299425448869892 3772:1 6214:1 6946:1 
0.7840324069964331 0.00790331135365319 1171:1 2248:1 3326:1 4018:1 
0.6328555034203983 0 2737:1 3862:1 6957:1 8941:1 
1 1 
0.7984301435284969 0 1797:1 4878:1 7295:1 7303:1 
0.4036013389788467 0 207:1 304:1 505:1 4519:1 4813:1 5072:1 5879:1 7623:1 
0.245805766572413 0 648:1 1566:1 2861:1 3383:1 4744:1 6949:1 7926:1 7967:1 
0 0.03380563074209771 2430:1 3007:1 4320:1 4906:1 7293:1 8224:1 8599:1 
0.2849386387978093 0 1608:1 1673:1 2933:1 5527:1 5531:1 7156:1 
1 0 5954:1 
0.02695075370815612 0 394:1 581:1 3431:1 4674:1 5095:1 5598:1 8489:1 8591:1 9021:1 
1 0 83:1 2262:1 7156:1 
1 0 3730:1 8010:1 
0.2067425972816356 0 884:1 1833:1 3730:1 6343:1 7183:1 8530:1 8751:1 8964:1 
0.8984363250052064 0.2069410757980112 678:1 1063:1 2603:1 4920:1 5846:1 5997:1 7814:1 
0.01416671894297372 0 224:1 4783:1 5671:1 6313:1 7462:1 
0.07789354717776628 0 1845:1 4502:1 4806:1 5136:1 
0.0806944547695588 0.98423694624941 1230:1 1533:1 7614:1 8478:1 8726:1 8914:1 
1 0 4947:1 
0.6219939466316605 0 95:1 474:1 2249:1 6057:1 
1 0 270:1 2997:1 4154:1 
1 0.01580779088258755 6642:1 7200:1 
1 0.2376828839966185 3363:1 4370:1 4834:1 4887:1 7933:1 8136:1 
0.8105733291058086 0 642:1 2763:1 4301:1 6949:1 8221:1 8324:1 9110:1 
1 0 3350:1 5683:1 
0.5681405602018917 0.01586247790852879 202:1 8386:1 
0.7262927680030034 0 486:1 5032:1 
0.6813888564742343 0.02257003031692413 948:1 3846:1 4163:1 5570:1 
1 0.7996648152834375 3828:1 6111:1 6957:1 
0.08103679981402469 0 345:1 454:1 1479:1 2155:1 2172:1 3529:1 5023:1 5676:1 8599:1 9005:1 9053:1 
0.1846769496712499 0 4519:1 7459:1 
1 0 4888:1 
0.5511735234619402 0.1949052871176659 258:1 1194:1 1773:1 2594:1 3808:1 4224:1 4320:1 5915:1 8010:1 8177:1 9218:1 
0.4702789216981582 0 4398:1 6927:1 6949:1 8081:1 8146:1 
0.1673784280277562 0 1178:1 4659:1 7044:1 8443:1 
0.7255446140846642 0 175:1 644:1 5033:1 
1 0.01579898780821426 2239:1 6052:1 
1 0.4202804955871901 7677:1 
0.1999825171002944 0 1622:1 1893:1 2741:1 3644:1 3833:1 3956:1 5578:1 8284:1 
0.06189888947964889 0.04020133589293239 624:1 3163:1 4148:1 4318:1 4320:1 5032:1 6031:1 
0.8504320303364322 0 4520:1 7210:1 8648:1 9154:1 9171:1 
0.3226026655405217 0 394:1 7677:1 9052:1 
0.06400942849349153 0 2084:1 2473:1 3236:1 6839:1 
0.8897594342319691 0 771:1 1941:1 7156:1 
0.6213383655825578 0 5048:1 7156:1 8516:1 
0.07653930456167193 0 838:1 1402:1 3612:1 7304:1 8599:1 
1 0 2079:1 8010:1 9110:1 9154:1 
0.6351022777289405 0.1567848868131249 1831:1 4456:1 6031:1 6972:1 7657:1 
0.3330376405176523 0 1793:1 3182:1 3730:1 5189:1 
0.7064182742667888 0 5999:1 7309:1 
0.3274187160589932 0.0329992710122199 186:1 1093:1 1310:1 5611:1 6971:1 
1 0.1601431318930946 998:1 1508:1 
1 0.0110753817435903 703:1 6062:1 
0.3246109895527085 0.005015887232727215 394:1 703:1 1209:1 1283:1 3439:1 5679:1 6351:1 6635:1 6696:1 8010:1 8765:1 9179:1 
1 0 1705:1 6214:1 7249:1 
0.7762637193191485 0.06635589264646867 3441:1 4409:1 5124:1 5522:1 
0.8319880729813639 0.01087796107940781 3640:1 5007:1 5318:1 6478:1 7552:1 8221:1 
0.4329344823344958 0 1432:1 2108:1 8324:1 
1 0 4639:1 
1 0.03167213952748573 959:1 
1 0 3208:1 
1 1 
0.3260155357221143 0 270:1 691:1 1085:1 2385:1 2568:1 2762:1 3184:1 3573:1 5385:1 8964:1 
1 0 4502:1 
0.3657232967610283 0 34:1 270:1 4540:1 4805:1 4830:1 8060:1 
0.2316660222210851 0 379:1 2403:1 3939:1 5634:1 5671:1 8127:1 
0.284419439685691 0 1055:1 1696:1 4104:1 4678:1 4857:1 
0.5680374426099604 0.1830730164951269 2203:1 3874:1 
0.08761153252928675 0.1362143725257078 1063:1 2534:1 4937:1 7974:1 
0.2886116703688756 0.1487524668424013 3067:1 3248:1 7364:1 
0.6928767495367343 0.1648686246166507 394:1 1053:1 3348:1 5316:1 
0.4088620707725785 0.1537626687055278 991:1 1516:1 2241:1 4320:1 6774:1 7970:1 
0.474075421205409 0 270:1 2023:1 2685:1 3946:1 4288:1 5216:1 5341:1 7252:1 9069:1 
0.2122070536921575 0.05713774942617147 517:1 3782:1 5896:1 7474:1 
1 0.03155384823715768 9042:1 
0.5176361979927835 1 4320:1 5684:1 8342:1 8729:1 8947:1 
0.2885367010975398 0.07355700976080097 4828:1 5020:1 
0.129339257648164 0 1016:1 3875:1 4376:1 5032:1 
0.3431401060970929 0.05318447704797619 558:1 1465:1 2562:1 2630:1 2998:1 3431:1 
1 0.3430008198014945 2412:1 3803:1 
1 0.1249883212559225 3898:1 4288:1 
0.4408369643074487 0.1439174623491042 330:1 2097:1 2503:1 2784:1 3815:1 5826:1 6439:1 6702:1 8342:1 
0.9599323614356754 0 1033:1 3097:1 4933:1 5007:1 5997:1 
1 0.02925952738296425 1090:1 6382:1 8008:1 
1 0 2678:1 5032:1 
1 0 1033:1 3248:1 5185:1 
0.2699439358270441 0 789:1 1870:1 3451:1 3515:1 7486:1 
0.4857612415658614 0 289:1 2080:1 6557:1 6642:1 8305:1 8750:1 
1 0 4276:1 
1 1 
0.3152184164141454 0 30:1 581:1 1085:1 1313:1 4288:1 5770:1 
0.3866254085371834 0 289:1 1981:1 9190:1 
0.05618506463668198 0.03653012004042475 3468:1 3976:1 5348:1 5635:1 7519:1 
0.4279776025485686 0 1085:1 1584:1 6020:1 
1 0 2079:1 2117:1 8324:1 
0 0.0007174779846879524 1786:1 2219:1 3667:1 5033:1 5107:1 7650:1 
1 0 3824:1 4724:1 8941:1 
1 1 
0.2837250891556524 0 1199:1 1785:1 4125:1 5427:1 5781:1 
0.5679790047306164 0.01574498306486515 6391:1 7055:1 
0.6897182404591712 0.06230643540691924 642:1 2108:1 6471:1 7170:1 
0 0.1019201413824869 282:1 5007:1 5185:1 8327:1 
1 1 1085:1 8617:1 
1 0.03158045528823582 521:1 
0.640068692196888 0.1582070795183741 1808:1 2851:1 4320:1 5254:1 5954:1 7440:1 
0.5134634447106488 0 504:1 2871:1 3002:1 3437:1 4660:1 6057:1 6633:1 6686:1 
1 0 581:1 1705:1 3105:1 3835:1 4430:1 5849:1 6214:1 6269:1 6351:1 6415:1 6949:1 
0.7820387060195404 0 3809:1 4276:1 4320:1 4932:1 
1 0 608:1 1833:1 2900:1 3730:1 5788:1 8964:1 
0.4787940039465509 0 342:1 442:1 642:1 3370:1 5683:1 5941:1 6946:1 7252:1 
0.4569606597197028 0 2413:1 2547:1 4183:1 5033:1 8831:1 
1 0 4144:1 4519:1 7156:1 
0.9251556459454311 0 2413:1 7406:1 9090:1 
0.3453647906776666 0.08109020119901601 883:1 6371:1 6528:1 
1 0.03166736617681593 1123:1 
1 0.03242531127126801 3280:1 5946:1 6974:1 
0.112760559256438 0 1268:1 1705:1 3437:1 3730:1 6471:1 8782:1 
0 0.3100622647427211 1324:1 2519:1 6643:1 7252:1 7328:1 8109:1 
0.2363793061637912 0 270:1 741:1 3529:1 4688:1 5266:1 5276:1 5297:1 7497:1 7764:1 7869:1 9171:1 
0.09090191420463253 0 474:1 1464:1 3225:1 3835:1 5413:1 8327:1 
0.6776151014594242 0 288:1 6474:1 9085:1 
0.3945801771446567 0.08724962551417961 677:1 924:1 2845:1 4320:1 6905:1 
0.7824304074326821 0.08617379080239509 36:1 4519:1 4709:1 9060:1 
1 0.2766709226014085 1190:1 4519:1 7210:1 9022:1 
0.1479904094933764 0 642:1 1459:1 4484:1 4947:1 5935:1 6636:1 8324:1 
0.5680079741483457 0.01584096138753551 5319:1 5702:1 
0 0.03151569679262159 488:1 3005:1 5554:1 5739:1 6184:1 6197:1 6970:1 7680:1 7773:1 
0.43202545090458 0.009633355002503547 3314:1 5033:1 7623:1 7989:1 8191:1 8295:1 
0.7566121931071735 0.7258519324266398 1718:1 4320:1 6910:1 8941:1 
0.1483685927320143 0 771:1 2175:1 4752:1 5918:1 
0.1991517915442836 0 5033:1 6885:1 7678:1 8453:1 
1 0 2000:1 2099:1 9190:1 
0.6208828940183572 0 351:1 996:1 6446:1 6816:1 
0 0.08121575415553392 1045:1 3099:1 3370:1 5707:1 6574:1 7175:1 7207:1 
0.5600813381531836 0.6411371046282034 1085:1 1993:1 2079:1 2784:1 4928:1 5539:1 5554:1 8214:1 8617:1 
0.4400470760791024 0 1760:1 5419:1 7659:1 
1 0.03098765777584126 3969:1 
0.8778498907564644 1 5999:1 8377:1 8617:1 
1 1 
1 0.002930075318824618 3210:1 5358:1 5419:1 8273:1 8763:1 
0.2432720398131549 0 1095:1 2277:1 2666:1 2814:1 5902:1 5923:1 8239:1 
1 0.3580595021213662 2319:1 3898:1 5189:1 
1 0.0418848540795246 581:1 2784:1 5645:1 6026:1 
0.7658427287848664 0 1788:1 3077:1 3571:1 5189:1 5266:1 8296:1 
1 0.06637958220963545 4288:1 6729:1 7912:1 
0.4986973225384964 0 5879:1 5954:1 7913:1 
0.717008417924991 0 1459:1 
0.8681087867172396 0 2502:1 3587:1 5738:1 
0.03988530608415763 0.1762061602447031 1085:1 1130:1 4928:1 5076:1 5712:1 7816:1 
1 0 95:1 2628:1 
0.3522408967827783 0 1767:1 2694:1 2695:1 3866:1 4137:1 8010:1 8073:1 8324:1 
0.1375405477241871 0 1276:1 2679:1 4502:1 5519:1 6891:1 7149:1 7758:1 8483:1 8854:1 
1 0 2277:1 5173:1 
0 0.2615405600404452 3631:1 6949:1 8822:1 
0.8709185543499396 0 1833:1 8324:1 8857:1 
1 0.7710162621079955 1076:1 
0.3821337867434212 0.02371525527379697 394:1 1468:1 1585:1 2242:1 2464:1 3835:1 5318:1 
0.9022128965556391 0.2572222921540634 4305:1 7897:1 
0.2423890999401311 0.06527934287918523 2277:1 4111:1 6198:1 6277:1 7386:1 7478:1 7523:1 
0.3553387481200336 0.02300647941201889 36:1 338:1 4862:1 
0.08671834051236542 0 3862:1 5630:1 5738:1 
0.2885761045227332 0 465:1 1482:1 3005:1 3587:1 4370:1 6753:1 8964:1 
0.671346939623654 0 4386:1 4965:1 
0.4788953444829319 0 4910:1 7196:1 
0.1981262085903964 0.01670746840431454 474:1 1204:1 2118:1 2480:1 4399:1 6206:1 6557:1 6863:1 8426:1 
0.8189898039748795 0.4393175130718288 413:1 581:1 1969:1 4519:1 5334:1 5348:1 6419:1 8342:1 8994:1 
0.5194144801944481 0.01061986710308153 3573:1 3662:1 6128:1 
0.3663352196774285 0 505:1 3973:1 
0.04002180870897398 0 861:1 1426:1 4569:1 4607:1 5976:1 
1 0 4801:1 5705:1 6905:1 
0.3769693418183839 0 894:1 1178:1 2109:1 2568:1 5234:1 5922:1 6362:1 
0.2894119671079924 0 207:1 817:1 2784:1 5469:1 5869:1 
1 0 882:1 2079:1 3121:1 3975:1 4519:1 5033:1 6031:1 7560:1 
1 0 5007:1 5033:1 6278:1 6632:1 8964:1 
1 0 4308:1 
0.0854608430807579 0.07861414653374042 36:1 531:1 998:1 1954:1 2445:1 3809:1 4144:1 4602:1 6323:1 8324:1 
0.3775770269695996 0.4943262484562572 2183:1 4320:1 7362:1 7742:1 8073:1 
1 0.4560314483237629 2851:1 
0.1436385259462467 0 525:1 2495:1 3235:1 
0.1264536249097006 0.2456498283714184 922:1 2294:1 2457:1 3803:1 3821:1 4949:1 5874:1 6203:1 8681:1 
0.172543653049704 0 608:1 2079:1 3501:1 3730:1 4698:1 5488:1 7155:1 8721:1 
0 0.01927124943262126 403:1 998:1 1308:1 1667:1 2695:1 2983:1 5007:1 5318:1 6438:1 8980:1 
0.1209689252951709 0 1241:1 3944:1 5410:1 6007:1 7212:1 7346:1 8599:1 
0.8120499757095162 0.6878294370732704 1302:1 1308:1 4104:1 4510:1 7582:1 8617:1 8877:1 
0.3166311921183717 0 2570:1 4386:1 7470:1 
0.0711507697565416 0 245:1 593:1 726:1 1308:1 5032:1 6884:1 7433:1 8041:1 8475:1 
1 1 517:1 
0.1439460925724709 0.01070758563636817 4177:1 6083:1 6978:1 7954:1 8379:1 8821:1 
0.5902727283145999 0.002658542393936602 525:1 617:1 1193:1 1490:1 3064:1 4811:1 5959:1 
0.2651475737130614 0 2297:1 5002:1 6140:1 6816:1 
0.5601082331529956 0 573:1 741:1 1482:1 6356:1 
0.6078443189686304 0.009706107618676041 4630:1 5959:1 8422:1 
1 0 254:1 7244:1 
0.9231891473538719 0.4138600168360159 2401:1 6674:1 
0.3197536113827251 0 581:1 1986:1 2104:1 5137:1 5644:1 6472:1 6557:1 8918:1 
0 0.02046354989510081 1182:1 2007:1 2042:1 3072:1 4886:1 7303:1 7338:1 7902:1 8930:1 
0.3183481591110455 0 1426:1 5300:1 
0.8529309448465381 0 3584:1 3644:1 3862:1 5216:1 8908:1 
1 0.02440186791281616 3558:1 4430:1 
0.323059449317791 0 998:1 1491:1 2544:1 3188:1 3697:1 3730:1 4897:1 5209:1 6354:1 6753:1 
0.3214130154168031 0.04227907628842881 1313:1 5611:1 6064:1 8086:1 
1 0.02119583406451572 5055:1 5729:1 
0.1301232546888702 0 1735:1 3248:1 5157:1 5922:1 6929:1 
1 0.7824528706029809 504:1 4616:1 5718:1 7634:1 8617:1 
0.4790149737004384 0.02868066611009489 384:1 759:1 1685:1 3510:1 3882:1 4947:1 5092:1 6027:1 7554:1 
1 0.05538147637859046 6533:1 
0.1592731789980893 0 784:1 3642:1 3730:1 7002:1 8997:1 
0.3020543844235683 0 8345:1 
0.5680454429921503 0.01586886453696286 6601:1 9220:1 
0.4540613641321253 0.2409924799855641 581:1 2958:1 3775:1 4174:1 6911:1 7700:1 
1 0.03179558853377659 7717:1 
0.5274401352474101 0.01576610682329506 3567:1 4378:1 6957:1 
0.8636208565164026 0.1451116036158902 2508:1 4032:1 6751:1 
0.4016545168203934 0 1705:1 2329:1 2808:1 4890:1 4953:1 6957:1 7583:1 7771:1 
0.7334079579808434 0 3073:1 7554:1 9007:1 
0.7896061392984678 0 2851:1 3185:1 3437:1 3943:1 4730:1 
1 0 3437:1 5076:1 
1 0.004686779821348759 1200:1 2023:1 
1 0.1352790329872378 2400:1 2784:1 5705:1 6141:1 7634:1 
1 0 1085:1 8301:1 8324:1 
0.4602047550090675 0 549:1 3172:1 4780:1 
0.1962939439368962 0 3320:1 4004:1 6946:1 
0.1646061046195653 0 805:1 869:1 971:1 2283:1 2576:1 3226:1 8903:1 
1 0 6946:1 
1 0 5974:1 7909:1 
1 0.1620901026946674 36:1 394:1 5033:1 
1 0 2277:1 
1 0.1747485539211907 5705:1 6543:1 
0.3077543993283203 0.01628998974939125 650:1 1553:1 2135:1 4714:1 5180:1 5469:1 6903:1 7377:1 8785:1 
0 0.265852686036361 1735:1 6374:1 8450:1 8881:1 9190:1 
0.1140635852302111 0.02144791916497825 5033:1 5288:1 5348:1 6377:1 6383:1 
1 0 4308:1 
1 0.01586531619038688 6719:1 8317:1 
0.293976091963146 0 722:1 741:1 844:1 2711:1 2784:1 2790:1 3786:1 4170:1 4288:1 
0.239793003804545 0.0404025533116467 2360:1 3862:1 4922:1 5200:1 5406:1 6355:1 8347:1 8383:1 8691:1 
0.5407438733670996 0 3077:1 3730:1 
0.3559170901485587 0.4547175054255499 1185:1 6957:1 7554:1 9181:1 
1 0 1746:1 4288:1 4393:1 5554:1 5630:1 5738:1 
0.6355150141768254 0.09085055726768965 81:1 1402:1 4844:1 5246:1 5962:1 7555:1 
0.1838811006218257 0 581:1 770:1 4639:1 5624:1 7470:1 8352:1 
1 0 1085:1 2749:1 3614:1 5974:1 
1 0.03164869362623164 5993:1 
0.9089135354446114 0.1690383886509105 2022:1 2552:1 2628:1 4320:1 
0.8834265550931074 0 2601:1 5392:1 6240:1 
1 0.03153105795560274 6139:1 
1 0 732:1 5997:1 8929:1 8964:1 
1 0 6031:1 
0.655194662709328 0.01663742470175165 1559:1 7902:1 
0.7048630457375367 0 581:1 2784:1 2976:1 3188:1 4101:1 4574:1 5268:1 5974:1 7765:1 8738:1 
1 1 6477:1 7767:1 
0.6046517890087534 0 704:1 5674:1 6548:1 
1 0 6970:1 
1 0.03410197207506045 3898:1 4393:1 5189:1 5738:1 
0 0.4068422091122861 995:1 1178:1 6254:1 
0.4638785579216619 0.05572342287040955 1650:1 2352:1 4857:1 5468:1 5784:1 7371:1 8127:1 8137:1 8208:1 8381:1 
1 0 2986:1 3016:1 7156:1 
0.2818179231241768 0 517:1 6975:1 7470:1 
0.3263590030716152 0 581:1 982:1 998:1 1085:1 1402:1 3086:1 3400:1 5266:1 6905:1 8144:1 
0.1495794934920782 0 3559:1 4370:1 5469:1 8388:1 8681:1 
1 0 3320:1 5358:1 5738:1 8971:1 
0.2454582780441062 0 904:1 1705:1 4888:1 5092:1 5168:1 5532:1 
0.005996527673816083 0 2023:1 3869:1 4276:1 6512:1 8426:1 
0.3268125436215191 0.3583522360738164 2794:1 4083:1 7005:1 8556:1 
0.482548591225874 0.2686215962502858 464:1 7281:1 
0.1014996558806679 0 994:1 2717:1 5297:1 7891:1 8530:1 
0.3278218879302239 0.02556527457995969 353:1 488:1 581:1 3720:1 4818:1 5182:1 
0.1832056621541157 0 771:1 2784:1 6947:1 
0.9198738477625308 0 1324:1 5061:1 6557:1 
0.2837087716086887 0 246:1 4579:1 4607:1 5266:1 5310:1 5797:1 8806:1 
0.7114578163611268 0 1479:1 5469:1 5738:1 6946:1 7691:1 
0.485178144137297 0 708:1 2590:1 2877:1 5507:1 
0.2874101627592725 0.06974703009982115 952:1 3264:1 5469:1 7281:1 
1 0.03283305607248199 525:1 2495:1 4519:1 7207:1 
0.01723350456023792 0.8323349706242287 517:1 2437:1 3177:1 5901:1 6291:1 7026:1 
0.1045767306014916 0 1090:1 2691:1 6905:1 8293:1 9085:1 
1 0.04719905553965903 3437:1 7149:1 7864:1 
0.645491592419123 0 481:1 3789:1 3898:1 5997:1 6030:1 9154:1 
0.8989024804263926 0 1598:1 3157:1 5738:1 8533:1 
1 0 2784:1 4937:1 
0.05163132002821375 0 1276:1 2329:1 4189:1 4531:1 4830:1 8794:1 
1 0 6353:1 6765:1 
1 0.05062379495808299 1028:1 1718:1 2685:1 5266:1 6922:1 
0.1201298470119362 0 254:1 3528:1 4552:1 5072:1 5335:1 6445:1 7414:1 8749:1 
0.4075469096437728 0.1273568605570542 1045:1 1487:1 1614:1 5172:1 
1 0 4409:1 
1 1 2413:1 3654:1 8617:1 
0.4892584320599078 0 4937:1 5052:1 6557:1 7560:1 8707:1 
0.7794552498984385 0.107352481637499 3477:1 7657:1 8736:1 
0.2529379452077494 0.3291577778413196 1284:1 2373:1 2763:1 3882:1 6179:1 8023:1 8910:1 8941:1 9230:1 
1 0.05531503765021689 531:1 2371:1 5107:1 7364:1 
1 0 874:1 9207:1 
1 0 238:1 5705:1 
0.7563480926267149 0.008017310562960197 120:1 3582:1 4000:1 4897:1 
0.1602580439373873 0.1582678032829397 581:1 3150:1 3323:1 3824:1 5555:1 
0.5400261568326239 0.1177678574811065 1217:1 2489:1 4077:1 6266:1 7257:1 7858:1 8527:1 
0 0.1908930610691449 386:1 882:1 1085:1 5512:1 8763:1 
1 0 8239:1 
0.4101236467702713 0 4414:1 6946:1 
1 0 3050:1 
0.8010213580471756 0 1178:1 1527:1 1788:1 4288:1 4612:1 6946:1 6949:1 8369:1 
0.1045192520533422 0 474:1 552:1 4947:1 9190:1 
0.6179970998167225 0.3387468707623686 678:1 1308:1 2167:1 4269:1 7283:1 7489:1 7844:1 8601:1 8617:1 
0.8524799704081996 0 1085:1 4393:1 5268:1 6557:1 9039:1 
0.5437288810713488 0.01063883874441302 1893:1 2460:1 4558:1 
1 1 4320:1 6946:1 
1 1 7135:1 
0.5327494883065819 0.01541101209288935 1301:1 
0.5719491363079812 0 2763:1 3164:1 8010:1 8512:1 9021:1 
0.3624126670504969 0 424:1 1911:1 2674:1 3219:1 4002:1 6902:1 7084:1 7320:1 8504:1 8644:1 
1 0 6031:1 6421:1 
0.7855467093075625 0.0189093871498725 981:1 2657:1 6615:1 
1 0 3898:1 6828:1 8324:1 
1 1 8854:1 
0.4694395787164621 0.2583192582769768 391:1 660:1 1622:1 4301:1 5102:1 
0.3784903972419623 0 474:1 580:1 1767:1 1788:1 3121:1 3403:1 4015:1 8362:1 8644:1 9096:1 
0.9328642290171117 0 6647:1 7207:1 
0.598612057504709 0 2054:1 4111:1 6884:1 
1 0.04190635520348506 3275:1 5738:1 7152:1 7657:1 8648:1 9171:1 
1 0.0159844963416861 2496:1 5410:1 
0.1059496084252707 0.02688531178128176 1214:1 1753:1 2364:1 2747:1 4519:1 4851:1 5434:1 6557:1 9236:1 
0.110335337862313 0 1718:1 2258:1 2967:1 2999:1 6557:1 
0 0.02006152905533242 1028:1 4321:1 5085:1 5404:1 
0.1698372448901438 0 246:1 2023:1 4253:1 4607:1 4616:1 5061:1 5797:1 
0.1382255094545937 0 107:1 1585:1 2086:1 3754:1 4891:1 4947:1 6345:1 7286:1 8156:1 
0.4113703358791646 0 340:1 2489:1 4391:1 5275:1 5554:1 5652:1 6687:1 
1 1 
0.4269812227084444 0 581:1 1750:1 
0.4770598589474577 0 5090:1 5353:1 6808:1 6905:1 6970:1 8372:1 
0.1558691014078621 0 2895:1 4502:1 
0.2183473421029518 0 415:1 1571:1 2739:1 3067:1 4502:1 4947:1 
1 0 2784:1 4727:1 7156:1 
0.2277393422525448 0.0005480088674168207 2051:1 2224:1 3807:1 5033:1 6899:1 
1 0 2084:1 3067:1 
1 0.03149296997839269 8508:1 
0.1423616932941116 0 722:1 1856:1 3005:1 3734:1 4088:1 6049:1 8285:1 
0.05983203148756111 0 4947:1 6606:1 8324:1 
1 0.04766605891852567 1787:1 5173:1 6254:1 8324:1 
1 0 895:1 2228:1 4649:1 
1 0.4309631417419627 401:1 3441:1 4887:1 7790:1 
1 0 3730:1 
0.7088695412285769 0 300:1 771:1 
0.4214056653685745 0 504:1 3093:1 3730:1 
1 0.6174657829260615 990:1 4320:1 
0.4026671512277166 0.06528484402998247 357:1 2965:1 4095:1 4945:1 6643:1 7156:1 8010:1 
1 0.4073770378555235 4719:1 
0.1987357189437085 0.6136258247238939 3433:1 4320:1 4500:1 5020:1 9104:1 
0.2525591894360362 0.145707012261925 3110:1 5419:1 5674:1 5921:1 8194:1 
0.3810125881737568 0 895:1 1626:1 2228:1 4649:1 
1 0.5341473659168685 642:1 1585:1 1598:1 
0.3524753437607119 0 382:1 642:1 2108:1 3834:1 4308:1 4755:1 7582:1 
0.5791362860232753 0.05950733900141604 1564:1 1947:1 1969:1 4320:1 
1 0.03158477081584618 5490:1 
0.301831403646182 0 1095:1 3730:1 3842:1 3905:1 3959:1 4892:1 5225:1 6471:1 7415:1 7623:1 8964:1 
1 0.03206456030679923 1749:1 2079:1 3437:1 3509:1 3795:1 
1 0 1705:1 2340:1 2784:1 3370:1 6421:1 
0.1186888417315497 0 238:1 4216:1 8599:1 
0.3787067081452066 0.01051094781281904 1192:1 2129:1 7569:1 
0.01779405630277292 0 490:1 2311:1 6490:1 6770:1 7873:1 8478:1 8973:1 
0.5679856655696883 0.01576101738083858 4229:1 6073:1 
0.4375470565578154 0.01063541764496244 589:1 8912:1 9139:1 
0.2460605598287422 0.01143245311216159 4866:1 5349:1 7800:1 
1 0.3579879576429846 282:1 6640:1 6891:1 7776:1 
0.1442349524710111 0 1230:1 1908:1 2914:1 3206:1 3437:1 4331:1 4624:1 6000:1 6349:1 
0.6846321982468286 0 447:1 4999:1 8023:1 
1 0.1804750547981754 2657:1 5524:1 5578:1 8287:1 
0.9359351207649714 0 2216:1 2277:1 6846:1 8577:1 
0.6999869248041167 0 581:1 4674:1 5026:1 
0.2757014391327007 1 6279:1 8617:1 
0.3336814020823585 0 5281:1 6278:1 6949:1 6957:1 
1 0 6946:1 
0.4538203112419816 0 1407:1 4288:1 6910:1 
1 0.1771621937792577 887:1 5468:1 8130:1 
0.3451972398544523 0.1878072629415375 901:1 1721:1 2387:1 6000:1 8342:1 9068:1 
1 1 
0.03472212748169536 0 1423:1 3520:1 3866:1 3972:1 5007:1 
1 0.04469741866444242 1006:1 2784:1 
0.6658737511845318 0.1033324156416265 646:1 6841:1 
1 0.1527656614102099 325:1 642:1 
0.0492757926349195 0 852:1 3820:1 5094:1 5164:1 6353:1 
1 0.01589657483879693 4218:1 6393:1 
1 0.5428240226489529 490:1 6158:1 
0.1701609960412155 0 493:1 3924:1 3946:1 4417:1 5276:1 7589:1 
0.1394476625458761 0 535:1 2108:1 3804:1 5404:1 5849:1 6848:1 7596:1 
1 0.03156102848459093 3122:1 
0.3787488606144002 0.01051626944116194 1364:1 7736:1 8586:1 
0.5430524613478303 0 994:1 2763:1 3416:1 5554:1 7149:1 7459:1 
0.216234579408274 0.1886798536063781 374:1 6949:1 
1 0.1119995675834423 1001:1 
0.5466796165342012 0.00754970881096656 1751:1 2339:1 4114:1 4154:1 6557:1 
0.3527694935995356 0.09356691115038246 1857:1 4531:1 6256:1 9091:1 
0.4675897204276643 0.1544571582389195 270:1 1456:1 2190:1 4320:1 7664:1 
0.2070561981062549 0.004851815260404193 1217:1 2407:1 4086:1 4945:1 5579:1 6199:1 6206:1 7307:1 7997:1 8836:1 
0.6902489593390666 0 235:1 581:1 1210:1 5199:1 8289:1 9060:1 
1 0 1772:1 5072:1 
1 0 6946:1 
0 0.3891042529542859 648:1 1424:1 2084:1 2781:1 3501:1 4561:1 4674:1 5107:1 6704:1 
0 0.00121733069053401 579:1 976:1 1085:1 1102:1 4079:1 4288:1 4506:1 5007:1 7678:1 8351:1 8648:1 
0.6376299235834304 0 3038:1 4639:1 5481:1 8866:1 
0.1491126954578787 0 3040:1 5185:1 
1 0 1788:1 3370:1 6946:1 8347:1 
0.3002311472217633 0.03424175896728784 635:1 3563:1 3711:1 4636:1 6000:1 6254:1 
0.4631877726942411 0.3150332669970514 238:1 1906:1 5107:1 7318:1 7767:1 9199:1 
0.284005051812145 0.469395678423391 187:1 3556:1 3747:1 5779:1 
0.09702698153587287 0 2257:1 3264:1 3939:1 8923:1 
1 0 6970:1 8640:1 
0.4626548487014696 0.187247251509393 222:1 1464:1 2023:1 3741:1 4575:1 
0.3281055855279424 0 2277:1 6240:1 6374:1 6957:1 
0.9303001092707164 0.1548086659862455 4820:1 5556:1 8010:1 8707:1 9040:1 
1 0.1860331539256792 704:1 3828:1 
0.6147657947485083 0.004259249253258219 447:1 1005:1 1864:1 3482:1 5033:1 5565:1 8653:1 
0.3130312507704706 0.694260059200869 3259:1 3787:1 6302:1 7053:1 7614:1 
1 0.03151179138676915 907:1 
0 0.03181115448852799 581:1 2158:1 3943:1 3996:1 5922:1 6252:1 7078:1 7312:1 
0.2649912674888967 0 5321:1 7512:1 
0.5454041509733134 0 351:1 3427:1 4015:1 5578:1 6149:1 6622:1 9218:1 
0.02995091471824899 0 107:1 1699:1 2826:1 3320:1 6238:1 6946:1 7149:1 8478:1 8530:1 
0.9367448515270674 0 939:1 1387:1 1767:1 2354:1 4649:1 5860:1 6485:1 
1 0 2108:1 
1 0.3390950915088412 531:1 4310:1 
1 0 2757:1 2907:1 4957:1 8324:1 8451:1 
0.2347968585892522 0 504:1 2260:1 2545:1 3730:1 5674:1 
1 0.6668902466450152 5106:1 
0 0.009923725393188681 1324:1 1706:1 3640:1 4152:1 4567:1 4639:1 4910:1 7064:1 7292:1 7841:1 
1 0.248211467037057 4320:1 4913:1 7308:1 
0.06991715641357661 0 447:1 605:1 4284:1 5020:1 6019:1 6225:1 
0.6515173435876376 0.0917365758988007 2983:1 4301:1 5224:1 7099:1 
0.2123617619607105 0 1308:1 3551:1 3803:1 5427:1 6968:1 
0 0.0392448750852035 1487:1 4140:1 
0.105506245821089 0 1998:1 5032:1 6057:1 6071:1 
0.1673735109945664 0 504:1 3105:1 5738:1 5841:1 5997:1 6351:1 8923:1 
0.5119377758570632 0 2099:1 3148:1 3197:1 3343:1 3835:1 4454:1 4661:1 
1 1 
0.7992399210226376 0 4393:1 6905:1 
0.4759323039995441 0 6485:1 7131:1 7677:1 
1 1 
1 0 3248:1 5846:1 
0.5268901235548211 0.06724356397325744 278:1 303:1 1994:1 4324:1 
0.118148216252052 0.1439324915415785 1731:1 1797:1 6264:1 7796:1 
0.4681275144370136 0 1922:1 3902:1 3930:1 4910:1 8239:1 
1 0.1467474061623004 3803:1 7252:1 9108:1 
0 0.02779307384113561 1526:1 1574:1 3587:1 5932:1 7247:1 7488:1 8296:1 
0.1395720978604109 0.1830682396824314 581:1 642:1 2171:1 4891:1 6031:1 6946:1 7500:1 9110:1 
0.5747852510012702 0 1232:1 5110:1 5738:1 
1 1 4320:1 
0.3815716497366023 0.1006862007569218 2214:1 4301:1 7813:1 8185:1 8356:1 8644:1 
1 0.1247676117112456 2073:1 4858:1 
0.2102942982983793 0.1031777653307465 211:1 1771:1 2104:1 2398:1 4220:1 4671:1 8354:1 
1 1 4719:1 8707:1 
0.5726467139299091 0 953:1 2236:1 6557:1 
0.6517916764283378 0.05857023992232405 702:1 3882:1 4133:1 6683:1 9218:1 
1 0.01562657565196356 61:1 1426:1 4357:1 8116:1 
0.1085290747160106 0 84:1 1205:1 2879:1 3778:1 8010:1 8845:1 
1 0 1308:1 
0.3502450837691525 0 1996:1 2639:1 3992:1 6908:1 
0.03971407828964219 0 803:1 3754:1 
0.7885219909302298 0.012538961326985 581:1 2630:1 4034:1 4794:1 6910:1 9190:1 
0.3557447561399438 0.06872990699729702 1672:1 3803:1 5382:1 6447:1 6685:1 7607:1 
1 0.7734044042791081 5102:1 
0.5680522996254115 0.01585485678517504 7467:1 8436:1 
0.1082318038227854 0 1313:1 1384:1 2784:1 3264:1 4789:1 6557:1 
0 1 5007:1 6368:1 8617:1 
0.5609503219995858 0.004633438011547635 1479:1 5321:1 5845:1 7026:1 
0.493099320983532 0 3730:1 8136:1 
0.3787093306537184 0.01062937854280316 1471:1 2163:1 5898:1 
1 0 3350:1 3738:1 
1 0 865:1 4136:1 9190:1 
0.2103306664088755 0 1085:1 8599:1 
0.5471401952705612 0.02612793169679237 515:1 642:1 1724:1 2851:1 5953:1 6503:1 
0.540421040435289 0 6493:1 7137:1 8599:1 
0.1805326925878383 0 504:1 1464:1 2691:1 3730:1 3897:1 4907:1 5630:1 5893:1 8775:1 
0.277856902784451 0 1102:1 4314:1 8174:1 
1 1 
1 1 
0.9444857685703842 0.1530326824577898 2299:1 2757:1 2933:1 5463:1 
0.1779730036974434 0.3748413306496776 2749:1 2784:1 5376:1 5441:1 6700:1 7428:1 7687:1 8535:1 8617:1 
1 0.1523712428078158 8116:1 8941:1 
0.2985207860822341 0 144:1 713:1 5032:1 6057:1 7822:1 8603:1 9022:1 
0.3324757903345509 0.02913034990700899 5188:1 5207:1 5986:1 7415:1 
0.05381719378044793 0 1612:1 2374:1 3284:1 4616:1 5980:1 6946:1 7011:1 
0.06800409416934446 0.08303878671303976 2045:1 8428:1 
1 0.0316986627262982 2900:1 
1 0.3602673883318618 1466:1 3105:1 4320:1 4519:1 
0.01519507356406048 0 2926:1 5092:1 6279:1 9014:1 
0.0065084766045466 0 1313:1 2028:1 2678:1 3437:1 4780:1 4982:1 5033:1 5073:1 5427:1 7439:1 7657:1 7818:1 
0.4625457869135061 0.1576391342213841 3366:1 6467:1 8688:1 8906:1 
0.9634306467982499 0 2094:1 3319:1 4430:1 6059:1 7489:1 8335:1 
0 0.2761275009923595 334:1 1835:1 2479:1 3101:1 3715:1 3738:1 3862:1 4945:1 5167:1 
0 0.02145747991776371 1457:1 3010:1 7244:1 7681:1 8841:1 9133:1 
0.01427235336318059 0.6865450910511686 646:1 1260:1 2732:1 3527:1 5651:1 6291:1 
0.01423717330472551 0 95:1 3366:1 3370:1 5419:1 7406:1 
1 0 3898:1 5738:1 6557:1 
0 0.3183316898430121 94:1 741:1 900:1 5033:1 9005:1 
1 0.02438980868615685 10:1 4430:1 
0.2130978426141835 0 376:1 1656:1 3584:1 4724:1 4750:1 6179:1 6993:1 8186:1 8828:1 
0.1169232495984342 0 987:1 1934:1 2676:1 2879:1 5469:1 5554:1 5953:1 7940:1 7970:1 8676:1 
1 0 2495:1 5469:1 5554:1 7767:1 
0.7110451687286005 0.3279878706431667 1797:1 3713:1 4012:1 5346:1 8648:1 
0.3247317835134845 0.04133936811988036 6227:1 7663:1 8941:1 
0.6298503048000942 0 2456:1 6142:1 
0.2444100805913367 0 1234:1 2108:1 2277:1 2560:1 4544:1 5145:1 6557:1 7132:1 8324:1 
0.8228030748064126 0 3665:1 3887:1 4996:1 5554:1 5671:1 
0.7492761332838094 0 733:1 1479:1 1520:1 2079:1 2784:1 5630:1 6506:1 8010:1 
0.8186462533511367 0.007332942424627276 810:1 4060:1 5301:1 
0.1526018562777514 0.09041456381571593 381:1 1651:1 4320:1 5216:1 5553:1 5687:1 7579:1 8152:1 8665:1 8707:1 8774:1 8790:1 9044:1 
0.02026265219854578 0.04355072390549828 267:1 368:1 1984:1 2409:1 2492:1 2997:1 3862:1 5389:1 5752:1 7359:1 7860:1 8858:1 
1 1 
0.3801609644806934 0 4647:1 7827:1 8324:1 
0.1739327500681574 0 1076:1 3655:1 6247:1 8344:1 
1 1 5818:1 
0.1120884295607393 0 2678:1 3933:1 4288:1 8324:1 
0.1291250373367309 0 1788:1 2321:1 3370:1 4943:1 7252:1 7610:1 
1 0 2762:1 4519:1 7252:1 
1 0.2540191041300575 1553:1 7406:1 
0.2227989763118443 0 2321:1 3370:1 3652:1 4308:1 5738:1 8530:1 8721:1 8946:1 
0.2191010077237438 0 2329:1 3878:1 7554:1 8599:1 
1 0 642:1 5634:1 6279:1 
1 0 1152:1 5738:1 8428:1 8648:1 
0.02356055394021699 0 617:1 4887:1 5007:1 5674:1 7566:1 
0.4431015440463001 0.1837149588076516 1267:1 1902:1 2320:1 6456:1 7860:1 8512:1 
0.6981211173413489 0 4000:1 5554:1 5669:1 6292:1 
1 0 4288:1 5341:1 6557:1 
1 0.01058467826101794 5061:1 6092:1 
1 0 41:1 642:1 1078:1 1464:1 5927:1 
0.3712223099668159 0 612:1 785:1 1084:1 2233:1 2689:1 4724:1 
1 0 3427:1 4719:1 5630:1 
0.8152083313250145 0.02765673452380883 2972:1 4467:1 4502:1 5922:1 8221:1 8707:1 
0.4763957886786833 0.005462106310368729 132:1 449:1 1177:1 6240:1 7015:1 
0.6870353918103232 0.01583150038018153 3442:1 6313:1 
1 0.3388330631113476 4324:1 6946:1 
0.2099675909842239 0.003639898159926053 28:1 988:1 3080:1 3257:1 3554:1 5583:1 5604:1 6093:1 6861:1 7423:1 7480:1 8993:1 
0 0.2224844741205698 36:1 418:1 2023:1 2329:1 2398:1 3050:1 3824:1 7756:1 8197:1 8617:1 
0.5679889604833497 0.0159650162086119 6982:1 7886:1 
0.5200071963216617 0.007811400849730907 1085:1 1288:1 4222:1 
0 0.006682759579815663 61:1 1617:1 4386:1 4657:1 7417:1 8631:1 
1 0 1381:1 3004:1 8681:1 
1 0.01592305592706221 56:1 8845:1 
1 0.6174478135530432 4320:1 8096:1 
0.08110915783880417 0 1122:1 1527:1 4937:1 5645:1 6557:1 7761:1 
0.5681018740745765 0 3349:1 7756:1 
1 0 2277:1 
0.5680597735163795 0.01588626886840692 2543:1 2924:1 
0.1406176481898352 0 3010:1 4360:1 
1 0 3005:1 5739:1 
0.4824550818265222 0 2489:1 2703:1 5554:1 7523:1 9027:1 
0.8203532956929465 0 3393:1 5266:1 6197:1 8010:1 
0.2048278778009068 0 3428:1 3730:1 4616:1 5646:1 6970:1 7782:1 
0.3766135312231831 0.5113422304149295 160:1 3289:1 3960:1 4320:1 4555:1 7393:1 8617:1 8941:1 
0.5969169038383794 0 2084:1 2784:1 3828:1 3868:1 6992:1 7318:1 7406:1 
0.1038442830046716 0 345:1 1751:1 4639:1 4995:1 5787:1 7488:1 
1 0.0979832547195771 1864:1 2240:1 3066:1 4574:1 5216:1 
1 0.145439872633848 6353:1 
0.7877452154162791 0 5554:1 6054:1 6557:1 7054:1 
0.7518954853966779 0.1611131146782758 177:1 1760:1 5419:1 8941:1 
1 0 1718:1 2133:1 2784:1 5842:1 6107:1 6653:1 8104:1 
0.5325752330052087 0.07949566301903614 581:1 5803:1 6923:1 
0.1538071123909674 0.004536467301560099 1755:1 1974:1 4422:1 5150:1 7262:1 7804:1 8685:1 
0.2646474889147273 0 1986:1 3591:1 4097:1 5634:1 6020:1 6557:1 
1 1 
1 0 2784:1 3521:1 5438:1 5674:1 7532:1 7764:1 8124:1 
0.573618496640423 0.0009747964265524985 642:1 839:1 864:1 1802:1 3831:1 6194:1 9229:1 
0.9035592911421261 0 1487:1 7793:1 8478:1 9154:1 
1 0 3754:1 
0.4552957813409478 0.01284545110499808 3875:1 4219:1 4288:1 4839:1 6494:1 
0.2449832945362086 0 3730:1 5037:1 7207:1 8281:1 
0.1409126800541266 0.1312836305784324 1833:1 4320:1 5306:1 6905:1 8906:1 
0.575717760782358 0.337738403519275 497:1 499:1 4649:1 6304:1 8617:1 
0.04425456758713085 0 176:1 7234:1 9148:1 
1 0 1441:1 8124:1 
1 0 251:1 1426:1 2495:1 6729:1 
0.5610049166289056 0.02552244622920685 759:1 1846:1 6557:1 6856:1 6970:1 8745:1 
1 0.03161274173103849 707:1 
1 1 6557:1 7873:1 8617:1 
1 1 
0.06559777907834126 0 4805:1 5638:1 6471:1 7252:1 
0 0.1258917436790044 1084:1 2997:1 7026:1 7860:1 9130:1 
0.4374716727278247 0 1084:1 2105:1 2277:1 2607:1 2762:1 3437:1 5674:1 5974:1 8116:1 
1 0 2079:1 3992:1 5655:1 
0.2232024125236883 0.00595888151710966 631:1 1161:1 1324:1 8521:1 
0.2746795560985104 0 663:1 1308:1 2194:1 4644:1 6018:1 
0.02953932722350521 0 3963:1 5276:1 8049:1 
0.07644367328059781 0 363:1 1596:1 2623:1 2794:1 3437:1 3658:1 4456:1 4517:1 5033:1 5572:1 
0.1114743785586322 0.0398515775816192 444:1 2321:1 4891:1 5954:1 7519:1 
0.30416937326691 0 5140:1 5167:1 5669:1 7156:1 
0.2914794845976482 0 4270:1 4870:1 5286:1 6557:1 8324:1 
0.2180103392866339 0 581:1 1735:1 3361:1 3517:1 4288:1 4320:1 5922:1 5999:1 8489:1 
0.2365118726678972 0.07702053042958149 309:1 1691:1 2036:1 2510:1 4320:1 4736:1 5152:1 6946:1 8964:1 
0.2561783067064153 0.0001919389418977002 617:1 3862:1 4616:1 5314:1 5643:1 6598:1 
0.3074638012162657 0.3116009349716619 4639:1 5201:1 5358:1 5990:1 8342:1 
1 0.03159797561642858 9163:1 
1 0 36:1 531:1 1479:1 3050:1 5033:1 5554:1 
0.8699670832796498 0 2413:1 3704:1 3730:1 4708:1 7156:1 
0.7716529311387661 0.0159374711556383 2231:1 6718:1 
0.6361360740116833 0.04866799882276259 1297:1 3128:1 3437:1 3464:1 4425:1 4578:1 4680:1 4749:1 5191:1 7026:1 8519:1 8971:1 
1 1 
0.7721013097968915 0 1501:1 2596:1 4946:1 5738:1 7015:1 
0.1611497269480077 0.07077470670523571 132:1 1021:1 2205:1 3366:1 3437:1 6281:1 7255:1 7689:1 8564:1 
1 0 4639:1 5033:1 
0.07656879768508096 0.09104274323784756 3013:1 3693:1 4320:1 5002:1 5014:1 5916:1 7105:1 
0.1615789721952104 0 2473:1 3313:1 3614:1 3788:1 4780:1 5974:1 7860:1 8964:1 
0.2585312691681028 0.09503158244033183 1126:1 2229:1 3615:1 3965:1 7946:1 8754:1 
0.113155588677617 0 4288:1 5699:1 5825:1 6905:1 
0.1282397554680891 0.1616683519293957 1217:1 5442:1 7131:1 8599:1 
0.460595658805878 0 5358:1 5562:1 5922:1 6946:1 6962:1 8008:1 
0.4512377481341364 0 1718:1 2337:1 3437:1 4492:1 5095:1 6107:1 6332:1 6653:1 8104:1 8370:1 
0.8526941117897716 0 678:1 1729:1 5373:1 5554:1 5645:1 
1 0.9720037881112491 474:1 
1 0 1313:1 4567:1 6970:1 
0.8184778041615547 0.08197353143218658 2340:1 2757:1 5554:1 6421:1 8345:1 8644:1 8671:1 
0.03322548567002723 0 1085:1 2413:1 2657:1 3009:1 3242:1 3833:1 5007:1 6174:1 
0.3416102235717317 0.4771141076996082 1608:1 5315:1 7041:1 8202:1 
0.0538062437539103 0 2676:1 4946:1 4963:1 5072:1 5661:1 6231:1 6437:1 7863:1 7900:1 
1 0 1090:1 2079:1 3730:1 4324:1 4586:1 6108:1 9088:1 9190:1 
0.609459934907004 0.1279148365101419 43:1 3441:1 3623:1 5002:1 8806:1 
1 0.1739372135385195 1028:1 7028:1 9005:1 
0.09380928524742853 0.06332575650838088 1067:1 1085:1 3005:1 4320:1 4809:1 5254:1 5568:1 5736:1 7376:1 8282:1 
0.08726577939377797 0 3902:1 3998:1 5414:1 5651:1 
1 0.764656271582647 4288:1 
0.2146877201662803 0 22:1 1093:1 1553:1 3545:1 3730:1 7810:1 8940:1 
0.5111083778560238 0 41:1 1889:1 3672:1 7137:1 9167:1 
1 0 4639:1 7026:1 
1 0.03176465009691333 8360:1 
0.475373656406858 0 447:1 1882:1 3644:1 5645:1 7462:1 8576:1 8940:1 
1 0 5683:1 
1 1 
0.6455878595491441 0 366:1 1093:1 1444:1 1605:1 2387:1 3677:1 8806:1 
0.2634376782559936 0 36:1 175:1 581:1 6970:1 8532:1 
0 0.06897338251484592 474:1 2108:1 2369:1 3348:1 6223:1 
0.7622560270080952 0 3239:1 6031:1 8324:1 
1 0 4308:1 
0.0743967165599341 0 123:1 2789:1 3587:1 3866:1 5048:1 5072:1 7930:1 8121:1 
0.06393002697645067 0 1291:1 4471:1 6478:1 6949:1 8576:1 
1 0.9057675234782145 474:1 1107:1 1788:1 4617:1 4937:1 7406:1 8617:1 
0.9476004258140488 0.2984989737251547 1441:1 
0.4601335552749518 0 3105:1 3437:1 4519:1 4888:1 6970:1 
0.5571173088369428 0 474:1 2784:1 2881:1 5107:1 6223:1 6758:1 9097:1 
0.7172257319031333 0 342:1 1026:1 1544:1 2023:1 2784:1 3715:1 6946:1 8213:1 9027:1 
1 0.1213026253107087 7124:1 8806:1 
0.8809507033063859 0 2411:1 4947:1 9020:1 
0.4744942528138747 0 18:1 1857:1 3226:1 
0.2405466445004303 0 1827:1 2455:1 3474:1 3952:1 4529:1 4544:1 5179:1 6634:1 6733:1 7207:1 9005:1 9190:1 
0.1302760240494076 0 98:1 254:1 2079:1 3050:1 5554:1 
1 0 3730:1 
1 0.04488114432975093 3642:1 5268:1 6947:1 
1 1 
1 0 605:1 2454:1 4612:1 8941:1 
0.004642839986774246 0 998:1 4810:1 4947:1 5039:1 5362:1 5507:1 7328:1 8291:1 
1 0.03154515793185511 5131:1 
0.9395577981947139 0.347871934352716 4245:1 5509:1 
0.8587390878773533 0 1205:1 1452:1 7952:1 8010:1 
0.490810326649388 0 4097:1 5020:1 5216:1 6946:1 
0.1171263005467899 0.2642085239971638 1870:1 2783:1 7714:1 8819:1 
0.143688224801911 0 1879:1 5020:1 5047:1 7020:1 7990:1 
0.1440539618884597 0 305:1 504:1 1256:1 2350:1 3303:1 3824:1 4574:1 4612:1 8347:1 
0.04884960816994167 0 339:1 1230:1 4386:1 5468:1 6674:1 7406:1 7494:1 7659:1 
0.1123649680819086 0 1090:1 4639:1 6656:1 
1 0.03148996612973028 5399:1 
0.07257326901079715 0.1785963675490675 1337:1 5902:1 7085:1 8130:1 
0 0.3518854600121744 2379:1 3157:1 3208:1 6905:1 7678:1 8324:1 8617:1 
0.9877342523562268 0.1582818407288319 474:1 1833:1 3760:1 4121:1 4937:1 
0.09600310682970781 0 254:1 349:1 2338:1 7711:1 
0.3059136952879346 0 741:1 3503:1 
1 0 2489:1 8489:1 
1 0 3050:1 
1 0 1:1 504:1 506:1 2784:1 4301:1 5738:1 6974:1 7406:1 8648:1 
1 0.01584384859129415 3421:1 4091:1 
0.06294373793053296 0 3754:1 3809:1 5954:1 
1 0 280:1 2079:1 4207:1 
1 0 89:1 1313:1 
0.05908866897603254 0 1113:1 1487:1 2413:1 7156:1 7406:1 
0 0.1041175589208376 351:1 1161:1 1727:1 2023:1 4273:1 5617:1 5653:1 6756:1 
0.7474052548434964 0.1667492436903817 1835:1 3460:1 5883:1 8000:1 
1 0 3050:1 
0.7208118274543304 0.1147805846574844 3739:1 7340:1 
0 0.07177864040443206 235:1 1816:1 2335:1 2441:1 3792:1 5072:1 6610:1 6704:1 7241:1 8367:1 8404:1 
0.3266122170098206 0.008768871664077074 2160:1 2605:1 7015:1 
0.5680508482150207 0.01585422640027318 4040:1 4950:1 
0.9877123804974398 0.03154159820321314 4752:1 
0.765447188543337 0.2215983634252952 3465:1 4320:1 4724:1 7252:1 8881:1 8941:1 
1 0 5276:1 6557:1 7156:1 
0.4552998393134334 0.4581179514679652 3721:1 3902:1 4137:1 4288:1 
0.7160941244258225 0.4239451123584134 2329:1 2695:1 3730:1 7983:1 8617:1 
0.03825400445698009 0.1273491065350028 2084:1 2240:1 2998:1 6362:1 7005:1 8342:1 9154:1 
1 0 5507:1 
1 0 2144:1 2413:1 2496:1 4502:1 9190:1 
0.3299817023169456 0 3730:1 4616:1 4619:1 
0.05385490454209491 0 2023:1 3273:1 3402:1 4055:1 4242:1 8157:1 
0.3243256284505158 0 2413:1 2623:1 3077:1 3437:1 4140:1 4552:1 5301:1 5398:1 6043:1 
1 0 295:1 6949:1 7438:1 
1 0.04156640184481672 2615:1 4313:1 
1 0 5266:1 9110:1 
0.4338509121423126 0.07670504099207455 2275:1 3851:1 5422:1 5877:1 6499:1 
1 0 3248:1 3946:1 5266:1 5630:1 5846:1 
1 0.1458391333841497 7083:1 
0.7267690159513164 0.180210558128541 92:1 1011:1 1033:1 1136:1 3828:1 6946:1 8124:1 
0.9688867193203237 0.2986481235624358 1605:1 3694:1 4324:1 
0.3396517343437425 0.02853076196516603 531:1 2492:1 5345:1 5349:1 5790:1 6946:1 
0.8251401842978171 0.01581291944987807 2481:1 8235:1 
0.3270083561516278 0 727:1 1324:1 1759:1 3529:1 4571:1 7252:1 
0.5602560811166368 0 622:1 1872:1 3824:1 
0.19826562764537 0.08142625542275839 1113:1 5014:1 5252:1 6957:1 7333:1 8398:1 8806:1 
0.2350090507284456 0 1327:1 1972:1 3644:1 
1 0 1759:1 3097:1 4320:1 5173:1 6884:1 7554:1 
1 0.2090047683601754 2476:1 3809:1 4750:1 5448:1 6057:1 
0.6576678729777469 0.1273988821326454 2023:1 4245:1 4430:1 5151:1 5358:1 5554:1 5783:1 6957:1 
0.005666923656852139 0.01487819004881058 2456:1 4320:1 5007:1 7140:1 8328:1 9116:1 
0.02925149671277958 0 175:1 1544:1 3730:1 4308:1 5268:1 5353:1 5701:1 5804:1 6163:1 7999:1 
1 0.01900897897123221 239:1 2701:1 4262:1 4398:1 5292:1 
0.7866696246892857 0 2350:1 2901:1 3437:1 7941:1 8998:1 
0.5344983118904968 0.1538408567722985 503:1 632:1 2413:1 4842:1 7409:1 
0.2485509249656065 0.03620269985828001 1033:1 1240:1 2419:1 2795:1 4123:1 5419:1 
1 1 
0.5429719573538778 0.05089816659603349 4293:1 5266:1 5348:1 8010:1 8296:1 
0.36684474080625 0 285:1 6166:1 7656:1 
0.3099002595900145 0 849:1 998:1 1986:1 2784:1 3210:1 3898:1 4093:1 4495:1 5166:1 5932:1 6794:1 7485:1 
0.1571662099060493 0 575:1 697:1 7627:1 8172:1 
1 0.6120753461800589 5033:1 5954:1 
0.6783005553393193 1 195:1 6964:1 8617:1 
0.8762333719690655 0.04788368503713326 1085:1 3370:1 5025:1 
0.2590252751505786 0 4242:1 4528:1 5032:1 5554:1 6420:1 6435:1 7767:1 8365:1 8489:1 
0.1489954564536479 0 2926:1 3010:1 3816:1 7187:1 
1 0.09371644096245031 1241:1 5622:1 5623:1 5738:1 
0.6151391038255165 0 254:1 3850:1 5727:1 8797:1 
0.3155632331795297 0.06615489860360567 485:1 2757:1 5805:1 7851:1 7942:1 8913:1 8941:1 
0.6902475265698538 0 342:1 1660:1 4639:1 4994:1 
0.4288367222898755 0 3370:1 4080:1 5537:1 5646:1 5674:1 6821:1 7981:1 8010:1 
0.1928698658049386 0.2468693047160218 289:1 1227:1 2784:1 3639:1 5646:1 8392:1 8674:1 9216:1 
1 1 3862:1 
0.8168586673921514 0.01051039049115113 1999:1 2376:1 6071:1 
0.274746613373392 0 982:1 2240:1 3005:1 4616:1 5469:1 7096:1 7582:1 8388:1 8643:1 8681:1 
1 0 5554:1 6710:1 
0.2872688644839723 0 474:1 2879:1 5788:1 6946:1 7252:1 8010:1 
0.303293731214819 0.3999953490497313 6119:1 6884:1 8617:1 9208:1 
1 0 2413:1 3644:1 7252:1 7952:1 
0.6576836316121962 0.5824459990625633 474:1 3441:1 3673:1 5369:1 8200:1 8617:1 8967:1 
1 0.03696763457987434 5707:1 
0.1805107528949258 0.4301530413927913 896:1 1194:1 1603:1 1696:1 3718:1 4882:1 5545:1 5997:1 6286:1 7689:1 
1 1 
0 0.002946230673841737 770:1 2695:1 3875:1 6031:1 6862:1 8220:1 8850:1 
0 0.08315599422584533 34:1 548:1 576:1 1053:1 1499:1 2055:1 5498:1 5838:1 6472:1 8894:1 
0.3269044568505665 0 2079:1 2784:1 4774:1 5276:1 7398:1 
0.2610727687447521 0 3644:1 3848:1 4253:1 5068:1 5404:1 7213:1 8916:1 
0.3787180454711285 0.001052608371773567 5402:1 7655:1 7815:1 
0 0.006458490044823262 653:1 2656:1 3041:1 3050:1 3126:1 3872:1 5554:1 5752:1 5801:1 8819:1 
0.03767628376204215 0.00588744929911963 33:1 2001:1 3529:1 5312:1 5827:1 5837:1 6331:1 6433:1 7160:1 7438:1 7653:1 8641:1 8998:1 
0 0.0144713159681208 1308:1 1776:1 4850:1 5136:1 7327:1 7406:1 
1 0.01574648498919639 6753:1 7551:1 
0.05750949021829257 0 1062:1 1324:1 1426:1 2762:1 3363:1 7157:1 7328:1 7634:1 9233:1 
1 0 531:1 2371:1 4288:1 6905:1 7657:1 8010:1 
1 0.2865042244422643 474:1 4121:1 4937:1 
0.009244381490680676 0 160:1 660:1 4395:1 6142:1 6288:1 6891:1 7767:1 8392:1 
1 0 1705:1 3946:1 
0.24238102042232 1 345:1 4502:1 4649:1 6240:1 8617:1 
0.3763616615836156 0 3264:1 8596:1 
0.2246470967744209 0 3730:1 4320:1 5018:1 5693:1 5879:1 6438:1 7156:1 7473:1 7832:1 8697:1 
0.1939998078580215 0 624:1 1375:1 1986:1 4947:1 5836:1 6557:1 
1 1 
0.7636775592446595 0.072116791087407 88:1 6214:1 9110:1 9154:1 9230:1 
1 0 9005:1 
0.5004457222657448 0.08632883593061633 3437:1 3898:1 4154:1 4888:1 4943:1 5173:1 5688:1 6031:1 6421:1 7226:1 7764:1 8648:1 
0.9048705983257087 0.02997196140029455 1661:1 1986:1 4519:1 
1 0 770:1 3157:1 5353:1 8574:1 
0.5707504302777758 0 3724:1 4538:1 5311:1 7379:1 
0.8976119838970653 0.07806143955519323 1368:1 4309:1 7657:1 9166:1 
0.3669612090429332 0 749:1 837:1 3333:1 5470:1 6420:1 6739:1 
1 0.1026110975715574 581:1 897:1 3437:1 
0.4590070925396119 0.01321501508449902 273:1 850:1 4051:1 4293:1 4856:1 4890:1 5209:1 6420:1 6476:1 7575:1 
0.6765611772381793 0 3768:1 5705:1 7252:1 
0.09624440627368167 0 183:1 4112:1 4574:1 4947:1 5718:1 7137:1 7716:1 7806:1 8010:1 8793:1 
0.4198149230994663 0.101102714449655 1749:1 2263:1 4768:1 5645:1 6908:1 
1 1 
1 0.04394936672364935 4398:1 4749:1 5456:1 7860:1 
1 1 
0.6127348378507644 0.003024803884351477 48:1 207:1 3530:1 
1 0 8599:1 
1 1 6736:1 6821:1 6824:1 7962:1 8617:1 
1 0 1308:1 5763:1 8010:1 
0 0.03129214961339208 2495:1 4724:1 5533:1 6031:1 7402:1 8941:1 
0.5421400700304468 0.05050950096481732 299:1 4324:1 4788:1 7378:1 9081:1 
0.5420329360494147 0.005301585232837542 1429:1 2551:1 3871:1 4141:1 4892:1 7975:1 
0.5411185302273711 0.0159029018057151 7482:1 7900:1 
0.9689422434751738 1 1705:1 1772:1 2958:1 3946:1 8617:1 
0.7113199651325062 0 160:1 2079:1 5439:1 
1 1 
0.208646442207198 0 2023:1 3873:1 5007:1 5879:1 6278:1 6315:1 6946:1 
0.2849208431917411 0 1083:1 1846:1 2674:1 3050:1 3549:1 7575:1 
1 0 2213:1 3437:1 5119:1 
0.009994917877514033 0 1555:1 3049:1 3754:1 6866:1 8541:1 
0.4893313254247435 0.01968324479404894 169:1 2108:1 2737:1 4616:1 7156:1 8116:1 8177:1 8195:1 
0.07053795867419782 0.08855897363706602 1421:1 2892:1 3116:1 3735:1 5206:1 5705:1 6557:1 7488:1 
0.4724783703455395 0 826:1 4288:1 5173:1 5738:1 5974:1 
1 0 5191:1 
1 0.03155303983932174 2286:1 
0.804711364347806 0 1165:1 3931:1 4612:1 5974:1 6438:1 
0 1 3073:1 4510:1 5427:1 8617:1 
1 0 36:1 504:1 1085:1 
0.2456100360046311 0 1231:1 1790:1 2277:1 6587:1 
1 0.1470009235319933 162:1 2983:1 6278:1 
0.3377096866560855 0 2662:1 5841:1 6946:1 
0.4729432248065417 0.07537616947454004 2556:1 2784:1 4244:1 5109:1 5191:1 5692:1 8010:1 
0.9269875875650032 0 1085:1 1426:1 3501:1 
1 0 5554:1 6946:1 
0.1447702810726652 0.244961372195541 1797:1 2757:1 4405:1 5520:1 6468:1 6910:1 9090:1 
0.7652000851826305 0.05059730819587229 4970:1 5109:1 6025:1 6974:1 8010:1 8530:1 
0.34338362163067 0.1295936969042747 3048:1 3169:1 4614:1 6049:1 6800:1 7327:1 
0.08725612437127864 0 1178:1 1735:1 1968:1 2108:1 3437:1 4154:1 6240:1 8187:1 
0.8152627506928739 0.01507190518890221 2006:1 6242:1 8644:1 
0.8769639751086734 0 581:1 977:1 4247:1 7156:1 
1 1 8489:1 8617:1 
1 0.02496953517829987 4657:1 
0.6046677994518722 0 1090:1 8525:1 
1 0.01433866656208275 394:1 1833:1 2465:1 3350:1 9012:1 
0.07372356316336494 0.04823865764296453 1165:1 3961:1 4907:1 7166:1 7823:1 
0.003566302649733363 0 756:1 5173:1 9148:1 
0.1710102988717963 0.02054582159124594 531:1 1863:1 4724:1 4906:1 4947:1 6081:1 6577:1 7068:1 7176:1 7745:1 8818:1 
0.1764441371994878 0 1187:1 2277:1 2942:1 3197:1 3730:1 4527:1 6214:1 7651:1 
1 0 447:1 6946:1 
1 1 
0.01703072101086732 0.6892589606316476 309:1 6197:1 6957:1 
0.3587148106164478 0.1246523032793187 121:1 378:1 2578:1 2927:1 4210:1 6013:1 7163:1 
0 0.1301020578971253 95:1 4261:1 7137:1 8010:1 8016:1 
0.1001855667667201 0 3060:1 5273:1 5974:1 6923:1 7336:1 
1 0.6226255556871237 9190:1 
0.2817380795306396 0 480:1 581:1 798:1 4097:1 5554:1 5759:1 5874:1 6946:1 
0 0.003549121161468244 1045:1 1135:1 1402:1 1699:1 4163:1 4321:1 5353:1 6269:1 7207:1 7616:1 7653:1 
0.2668178617857501 0 2589:1 5554:1 6905:1 9171:1 
0.161355567326227 0.02494263384779413 2479:1 5115:1 5266:1 6905:1 7259:1 7680:1 8209:1 
0.250620763058887 0 309:1 504:1 1021:1 1685:1 2610:1 3441:1 4263:1 7328:1 
0.845415431725056 0.1765966405380102 531:1 2731:1 3754:1 7108:1 8644:1 
1 0.2725034980611024 656:1 4320:1 6867:1 
1 0.1048488879782713 935:1 994:1 3898:1 5266:1 5334:1 
0 0.2665315054817041 605:1 939:1 1877:1 5570:1 6269:1 7026:1 7406:1 8008:1 8345:1 
1 0.01670626511586518 2967:1 6068:1 
0.4507975159868733 0 1431:1 3016:1 3644:1 8324:1 
0.3396149062616793 0 11:1 673:1 2086:1 3976:1 5124:1 5334:1 
1 0 5999:1 
0.4473367657476666 0.002955184092124652 541:1 1670:1 2757:1 2763:1 5297:1 5705:1 5718:1 6044:1 
0.1380550628223915 0.2005691104181263 1217:1 3416:1 5072:1 5191:1 5554:1 7026:1 7462:1 
0.3208716273173443 0 1874:1 5449:1 6557:1 7152:1 
0.2760769640096922 0 672:1 1085:1 2645:1 3525:1 3993:1 4564:1 5245:1 6891:1 
0.1564449510950574 1 1015:1 3419:1 5427:1 7614:1 8726:1 
0.1323064762921807 0 1313:1 2703:1 2915:1 3898:1 5509:1 6277:1 7554:1 9154:1 
0.3419532689524412 0 1104:1 1544:1 2989:1 6911:1 8681:1 9022:1 
0.279591604152323 0.4029985254376539 4276:1 4320:1 8324:1 
0.369278636265597 0.01034741281387976 653:1 3437:1 4010:1 4676:1 5033:1 5123:1 5225:1 
1 0.9980177658247933 3010:1 
0.7367980147048145 0 2277:1 8508:1 
1 0.04780964939709945 2690:1 2958:1 7005:1 
1 0 605:1 1846:1 6557:1 
0.2767358558352407 0.0003072027655347966 2143:1 3457:1 6471:1 6533:1 6596:1 
0.1724883004698372 0 447:1 2610:1 2890:1 4320:1 5237:1 5410:1 7001:1 
0.5853669483386915 0 1085:1 1178:1 1398:1 1618:1 4949:1 5531:1 5623:1 7061:1 8008:1 8157:1 
0.4941765582824017 0.1006622731100061 185:1 1095:1 7383:1 
0.9621110550916969 0 3240:1 4288:1 7678:1 
0.3248470255579061 0.1416548775353627 3319:1 4549:1 5921:1 9015:1 
1 0 2675:1 3673:1 3833:1 4801:1 
0.4095215241505055 0 2438:1 3555:1 4519:1 5033:1 5777:1 5841:1 6353:1 7166:1 7598:1 9230:1 
1 0.8139250714229317 2277:1 8008:1 
0.1231428899027295 0 982:1 1835:1 2933:1 3642:1 3722:1 5642:1 6233:1 7634:1 8324:1 
1 0.2151658231132184 7657:1 8324:1 
0.2345258325753053 0.2401089202840989 1944:1 4320:1 4333:1 4386:1 4887:1 5623:1 6214:1 6690:1 
0.4946338993667013 0 41:1 642:1 1346:1 2460:1 2813:1 4288:1 4331:1 5738:1 6957:1 7462:1 7970:1 8008:1 
0 0.02243410325809101 2023:1 2458:1 6522:1 8478:1 
0.871922011985781 0 1085:1 1527:1 7351:1 
0.1007489985246784 0 504:1 605:1 2923:1 3444:1 4456:1 5240:1 5707:1 
0.6843116044586989 0 2993:1 3067:1 7612:1 7637:1 
0.4688779328511756 0.4148896976857455 3484:1 4751:1 
1 1 
0.3352555503350024 0.009048856304717048 3807:1 4541:1 5318:1 8546:1 8713:1 
1 0 2079:1 4717:1 8324:1 
1 0.06421169017472669 1085:1 4970:1 
0.4598328968007207 0 852:1 3830:1 4366:1 5022:1 6970:1 7159:1 8231:1 
0.6254872353489994 0 36:1 3604:1 4288:1 5554:1 
0.8568744844712757 0 1527:1 5922:1 6519:1 
0.7689396539680353 0 608:1 4273:1 5927:1 6278:1 
1 0 61:1 8532:1 
0.4178335282461597 0 4205:1 5554:1 6946:1 7455:1 
0.1266549967725719 0 1833:1 5353:1 6206:1 7689:1 8324:1 8637:1 
0.2182415298099488 0 788:1 1230:1 2117:1 5007:1 8010:1 
1 0.03169866272629803 7066:1 
0.7494805013118709 0 2468:1 2678:1 5032:1 5353:1 6057:1 6557:1 7443:1 8964:1 9226:1 
1 0.03177347136628753 5359:1 
0.5009807451951177 0.2151477582576837 4320:1 6223:1 7295:1 8003:1 
0.2818583250291239 0.01576064784552965 1078:1 8182:1 
1 0 525:1 2495:1 5033:1 
0.5675249959709918 0.01060646113336392 6092:1 7806:1 
1 0.04461189520969894 2784:1 6015:1 
0.3408328582243558 0.01607345549038109 1188:1 1898:1 2799:1 3833:1 6330:1 8039:1 8806:1 8931:1 
1 0.004545348764819013 1085:1 6062:1 
0.2840381873088098 0.008045597525665749 1961:1 4487:1 5415:1 8108:1 
0.2252546228638246 0.1413737130467493 771:1 1461:1 6174:1 6803:1 
0 0.05045998176190529 3264:1 7063:1 7281:1 7882:1 
0.1447616505507257 0 581:1 1402:1 3902:1 4159:1 5453:1 5619:1 
1 0 642:1 1324:1 2023:1 2762:1 
0.5974808003663433 0.3111055105191379 1395:1 5718:1 8457:1 
0.2218057177607997 0 2184:1 3448:1 5718:1 6557:1 7580:1 7743:1 8157:1 9154:1 
1 1 8617:1 
0.08760126783878658 0 823:1 1972:1 4593:1 5718:1 5808:1 5954:1 5959:1 7514:1 7552:1 7634:1 9226:1 
0.5930411067209522 0.04231666361264573 61:1 1234:1 2598:1 3051:1 3862:1 4142:1 5554:1 5733:1 5962:1 6980:1 
0 0.02450268915145347 939:1 1138:1 2798:1 4301:1 4502:1 4509:1 5165:1 6477:1 
1 1 
1 0 1:1 4409:1 6557:1 
0.1269727654857534 0 597:1 1676:1 2589:1 3230:1 4301:1 4635:1 6516:1 8010:1 
0.8511876608995635 0.3336147604830769 618:1 3202:1 6538:1 8324:1 
0.6074992383515438 0.04931391477310289 2519:1 2763:1 3350:1 5024:1 7481:1 
1 1 342:1 3437:1 
0.219092123667101 0.001381405801733871 90:1 1151:1 1336:1 2709:1 4288:1 4786:1 5634:1 5713:1 5718:1 7166:1 7439:1 9021:1 
1 0.05871119604231042 1864:1 4320:1 5879:1 6286:1 
1 0 4288:1 5738:1 6557:1 
1 0.4127645884603385 490:1 3303:1 4015:1 4320:1 7917:1 7963:1 
0.1067941783117094 0 487:1 2450:1 2528:1 3440:1 5469:1 5635:1 6641:1 7586:1 7653:1 
0.5321682992739517 0.1816881230539555 1085:1 2676:1 3854:1 3882:1 5962:1 6433:1 7513:1 8010:1 8285:1 8367:1 
0.1865337627042307 0 7210:1 7945:1 
1 0 1373:1 2470:1 3437:1 4120:1 4323:1 5092:1 5634:1 6946:1 8806:1 
0.303958463049562 0 4370:1 7156:1 8206:1 
0.7425570485464015 0 2140:1 2171:1 7406:1 
1 0 254:1 2763:1 4864:1 7917:1 
0 0.07104000505546453 547:1 2023:1 6323:1 6947:1 7421:1 9159:1 
0.1484696726605498 0 581:1 2270:1 2282:1 3627:1 4144:1 5754:1 5855:1 6729:1 6828:1 6950:1 
0.4434453092476501 0 276:1 798:1 1666:1 4038:1 5378:1 5723:1 
1 0 2277:1 8508:1 
0.3716561005298276 0.6855357892532278 1908:1 6047:1 8451:1 8617:1 9154:1 
0.8427064375005648 0.0410094980598061 4586:1 4749:1 6233:1 7128:1 8008:1 
0.4850019394747442 0 394:1 2558:1 5033:1 5119:1 6155:1 6702:1 7689:1 7806:1 8488:1 
1 0.03154880832348593 252:1 
0.8760536339935249 0 1760:1 6300:1 6623:1 
0.6255247534710757 0 912:1 1085:1 2099:1 2739:1 3370:1 4946:1 4995:1 5718:1 6031:1 7003:1 
0.5680600020457136 0.01583570735699831 3825:1 5041:1 
0 0.1065247888070166 976:1 4224:1 4768:1 9209:1 
1 1 
0.4126807717814297 0.1477037461744974 1337:1 1379:1 5292:1 8288:1 9171:1 
0.2406934980561917 0 2679:1 3319:1 4283:1 5007:1 6286:1 6500:1 8877:1 
0.8646612786407051 0 2131:1 3121:1 3366:1 4649:1 6703:1 7634:1 8662:1 8877:1 9166:1 
0.1436863954043341 0.0306428658200112 1498:1 2798:1 5170:1 8330:1 
1 0.416752125375018 602:1 4612:1 
0.5363111316248201 0.2948217609647862 3151:1 3374:1 4528:1 6891:1 8300:1 8342:1 
0.2085625518393329 0 2097:1 2277:1 7989:1 
0.2195103360098923 0 1085:1 1864:1 5276:1 5645:1 8134:1 
0.6953276144391205 0.1208703060494685 642:1 5656:1 6411:1 6949:1 
0.4249414668563662 0.1951155121773068 1045:1 1135:1 1402:1 1699:1 4163:1 4321:1 5353:1 6269:1 7207:1 7616:1 7653:1 
1 0 326:1 2598:1 5554:1 
1 0.1209719449937175 6557:1 8819:1 
1 0.03161242472988437 182:1 
0.1856385427251201 0 795:1 1727:1 
1 1 
0.8025310605374071 0.03166521251352347 1581:1 
0.4577648813796077 0.3738327143862687 80:1 678:1 1585:1 2354:1 7689:1 8124:1 8599:1 
1 0 643:1 5033:1 5554:1 
0.3007406688748347 0.3079958074428132 4136:1 4724:1 4878:1 6451:1 
0.8210473161934183 0.06252012911054645 678:1 2387:1 4102:1 5032:1 5348:1 7300:1 8367:1 9232:1 
0.4304781956550829 0 1133:1 2023:1 3020:1 5016:1 7438:1 
1 0.07603472048572803 342:1 4875:1 6557:1 
0.0308255022598113 0.3738327102454236 89:1 246:1 4253:1 4320:1 4607:1 6183:1 6905:1 8617:1 9069:1 
1 0 9110:1 9154:1 
0.1745686852979084 0.003069702644837076 531:1 1615:1 2371:1 4420:1 4510:1 6862:1 7031:1 7657:1 8755:1 8941:1 8975:1 9218:1 
0 0.2319834348886426 976:1 1750:1 1909:1 2710:1 3642:1 
0.7969798565598833 0.1316432379910884 2127:1 3437:1 3593:1 3902:1 4324:1 5358:1 5986:1 
0.2565537105980418 0 994:1 4947:1 5119:1 5509:1 6188:1 
0.707634022900192 0.65606117198098 1746:1 3654:1 7424:1 7598:1 8617:1 
0.6272251613858277 0.01062967915620894 456:1 4938:1 6667:1 
0.4317255649857452 0 1433:1 1748:1 2177:1 2240:1 2473:1 3737:1 4174:1 4272:1 4946:1 5315:1 6472:1 7582:1 8806:1 
0.2549801717721054 0.146544356435426 95:1 1158:1 5394:1 
1 0 408:1 1085:1 2028:1 2370:1 5693:1 
1 0.03149574849616833 2452:1 
0.2724722346578371 0 3922:1 4202:1 6269:1 6759:1 6978:1 8029:1 9094:1 
0.3045472389621676 0.2128809243414758 3023:1 4213:1 4574:1 6030:1 7317:1 7575:1 
1 0 394:1 642:1 1159:1 3128:1 3835:1 5032:1 6946:1 
0.8767252915028791 0.05608507048653823 581:1 1986:1 3529:1 6557:1 6625:1 
0.2869439440068783 0 5738:1 6946:1 
0.06806271335762867 0.0001616727609095731 2514:1 5308:1 
0.5195253722478096 0 1426:1 1759:1 4288:1 5888:1 
1 0.3147176156235392 2458:1 6581:1 
0.7053042797738351 0.0920563157739733 822:1 1085:1 1783:1 3195:1 3370:1 3437:1 3501:1 4320:1 6856:1 7438:1 9005:1 
0.006947685642061713 0 1767:1 3050:1 5595:1 
0.5871569396593376 0.03429812999686151 1018:1 2362:1 5136:1 
0.3832804544219485 0 1829:1 6433:1 
1 0 1313:1 4612:1 6557:1 
0.4543325329875382 0.2043187500549047 820:1 2606:1 2821:1 2915:1 5015:1 5921:1 6517:1 6577:1 7036:1 8221:1 
0.2496313420168444 0 750:1 8259:1 
0.3794095224147466 0 671:1 1402:1 4295:1 6303:1 7252:1 
1 0.4667431955989282 4801:1 9040:1 
0.07937294863818986 0 280:1 2801:1 3105:1 5007:1 5752:1 6351:1 6888:1 7883:1 7917:1 8557:1 
1 0.02917651399886174 4262:1 5033:1 
0.1725335416853228 0.01971042322742058 892:1 1085:1 1384:1 1647:1 2676:1 3239:1 3368:1 4288:1 4574:1 4575:1 5630:1 5857:1 7509:1 7718:1 
1 0 1085:1 4288:1 
1 0 7152:1 8941:1 
1 0 1750:1 2329:1 2757:1 
0.2446429599390634 0 1525:1 1818:1 2456:1 2494:1 3153:1 4502:1 4910:1 5997:1 8681:1 
1 0.03161708817153146 6389:1 
1 0 2851:1 4947:1 
1 0.05687493925321736 2920:1 4417:1 5505:1 5823:1 6214:1 6990:1 
1 0 939:1 1788:1 2354:1 
1 0.02199118727144427 474:1 998:1 2598:1 6980:1 
0.7843872700919021 0 1718:1 5741:1 
0 0.04563364513681371 1705:1 3226:1 3370:1 4195:1 4261:1 8010:1 
0.3006033321910421 0.3167606067715326 622:1 2818:1 2873:1 3105:1 3153:1 3490:1 5072:1 7614:1 7874:1 
1 0 254:1 342:1 5655:1 5738:1 
1 0.1225877477428649 2695:1 
0.2042791870495706 0 24:1 499:1 5564:1 7159:1 
1 0 4148:1 
0.2519543076568597 0 1276:1 1570:1 2762:1 3087:1 4155:1 4977:1 5102:1 5932:1 
0 0.1436215807651496 298:1 439:1 505:1 948:1 1063:1 4599:1 5554:1 6505:1 6551:1 6880:1 7075:1 7815:1 8127:1 8481:1 8980:1 
0 0.5842407830931031 1602:1 4086:1 4890:1 5107:1 5276:1 7689:1 8496:1 8617:1 
0.01511128628124534 0.1830453002778097 481:1 994:1 1767:1 4510:1 
0.4181310158098743 0 3437:1 3862:1 5418:1 7595:1 8324:1 
0.04858873096405772 0 2950:1 3105:1 4165:1 4242:1 4577:1 4753:1 5999:1 8377:1 9154:1 
1 0 1126:1 1322:1 4532:1 5369:1 8540:1 
1 0.5703572025118884 1033:1 
0.6118120765806546 0 543:1 1201:1 6974:1 7860:1 9005:1 
1 0 254:1 2079:1 5554:1 
0.767347927659918 0 409:1 6326:1 9022:1 
0.8415514090772059 0.2090761768376302 642:1 660:1 3077:1 4320:1 5263:1 5546:1 8010:1 
1 1 
0.2388554544305341 0.02264878955647882 405:1 2798:1 4296:1 7620:1 
0.4162921211558117 0 432:1 708:1 7873:1 8270:1 8643:1 
0.3366502186466553 0 1308:1 1908:1 4574:1 5419:1 7742:1 
1 0 504:1 6353:1 
0.761304714614522 0 642:1 1735:1 2015:1 2818:1 3655:1 6981:1 7239:1 8013:1 8909:1 
1 0.02701074907984983 2473:1 4519:1 6865:1 
0.2401730638903588 0 1178:1 2784:1 2967:1 4288:1 6946:1 
0.7846294140470539 0.1884598466985991 1767:1 3144:1 4947:1 5448:1 5554:1 7406:1 8247:1 
0.129376454502826 0 704:1 784:1 1413:1 5399:1 5462:1 7295:1 7406:1 8270:1 9190:1 
0.0675286521938137 0 1402:1 1772:1 3073:1 3479:1 4841:1 4904:1 
0.2076609595325442 0.009486674254437333 715:1 724:1 5478:1 6589:1 8613:1 9186:1 
0.3273746308982497 0.04180658942956797 79:1 2025:1 3121:1 9075:1 
0.2144965963300382 0 285:1 366:1 2984:1 4509:1 4890:1 
1 0 298:1 5554:1 
0.1943571205385551 0 1426:1 4288:1 4468:1 5922:1 
0.8029253478699804 0 1044:1 3437:1 5358:1 5469:1 5683:1 6031:1 6286:1 
1 0 339:1 835:1 
0.4340224158379709 0.215761184502138 581:1 1105:1 2359:1 6238:1 6557:1 8482:1 
1 0.2449258210239864 2138:1 5997:1 7554:1 8010:1 
0.4106481708133861 0 3048:1 3266:1 3682:1 7065:1 
0.9572461144993161 0.09674680118877184 1345:1 3094:1 6746:1 7443:1 
0.2764779295577342 0 8489:1 
1 0 1126:1 5718:1 6946:1 8964:1 
0.3717033440752462 0 1521:1 5505:1 7610:1 
1 0 2023:1 3370:1 6946:1 
0.7195064891054279 0 3734:1 6412:1 6472:1 6999:1 9022:1 
0.1877996091624247 0 3828:1 5107:1 9169:1 
0.1814059049075316 0 295:1 1159:1 1683:1 1753:1 3902:1 5274:1 6753:1 7806:1 8971:1 
0.3965949972139455 0 29:1 2329:1 5718:1 
1 1 
0.09652886812983336 0.1384334644443448 517:1 646:1 2359:1 3141:1 5955:1 6713:1 7490:1 7628:1 8027:1 9166:1 
0.1923931170394982 0 3063:1 4063:1 6157:1 6530:1 8010:1 
0.458643831820765 0 4398:1 5007:1 5085:1 
1 1 4144:1 7583:1 8617:1 
0.1598648242956396 0 644:1 1986:1 2080:1 2784:1 3057:1 5974:1 6946:1 7860:1 7907:1 7918:1 8797:1 
0.4407155996197577 0 2933:1 6337:1 6906:1 
0.3256749797861325 0 4639:1 7390:1 7470:1 
0.3166077702727507 0.1802723307545667 581:1 1002:1 1028:1 1761:1 2209:1 3862:1 4140:1 4573:1 6164:1 7243:1 
1 1 
0.3912747888498815 0 199:1 2710:1 5033:1 
0.4291639116049391 0.08012949009978793 316:1 323:1 858:1 3655:1 3971:1 4492:1 4927:1 5232:1 6911:1 8624:1 8630:1 
1 0 741:1 4864:1 5353:1 5554:1 5698:1 6472:1 
0.2534076209423929 0 1869:1 3466:1 5376:1 5502:1 5526:1 6234:1 7156:1 
0.3293986344114798 0.02555908353131556 306:1 594:1 642:1 1655:1 2016:1 3539:1 4013:1 
0.4151087017753224 0.09528841449827043 2997:1 5527:1 8367:1 8707:1 
0.7543115533395284 0.01869182545092675 693:1 2472:1 5217:1 5266:1 
1 0 6946:1 
0.4483003787893429 0 504:1 811:1 6905:1 7805:1 8390:1 
0.204156103505636 0 642:1 3730:1 3835:1 4250:1 4616:1 5353:1 6214:1 
0.04149165222164793 0 1095:1 2729:1 2784:1 3739:1 7283:1 
0.7442511397622693 0.1944790745437129 1881:1 3437:1 4308:1 5586:1 6355:1 6557:1 
0.5091363676427564 0 2757:1 3317:1 4032:1 7104:1 8923:1 
0.143411517473635 0 634:1 839:1 3357:1 4943:1 
0.9176409223873129 0 6485:1 7413:1 7470:1 
0.2272362486324612 0.006429537883963141 751:1 2471:1 3907:1 6508:1 8746:1 
0.4722582019498383 0 605:1 998:1 1394:1 2023:1 5554:1 6946:1 7462:1 
0.6122953594585779 0 1492:1 5313:1 5969:1 6981:1 7217:1 8124:1 
1 0 8010:1 
0.03455467787540623 0.002258171032247312 581:1 948:1 1409:1 1519:1 3846:1 6517:1 8600:1 
1 0.2922167733026056 1093:1 1696:1 4053:1 6142:1 
0 0.08354304369286367 3835:1 4930:1 5033:1 6957:1 7026:1 
0.1381122640347387 0 1853:1 3073:1 3611:1 4320:1 5683:1 
0.5697203974746545 0.05861151714849334 3640:1 5634:1 6994:1 8894:1 
1 0 4492:1 
0.6919138893284107 0.2276266785706485 1837:1 3082:1 3287:1 6535:1 
0.2131956914343542 0.1103946178480637 1045:1 2010:1 5833:1 
1 0 3604:1 5974:1 8163:1 
0.8457830334248889 0.01138003440433661 1008:1 5349:1 8909:1 
0.6474703966545159 0 630:1 3157:1 4460:1 
0.2486959179185532 0 81:1 3863:1 4757:1 
1 0 124:1 581:1 3437:1 8010:1 
0.007601139545219369 0 5738:1 6557:1 6970:1 
0.08388553718924224 0 4339:1 5626:1 5833:1 8806:1 
1 0.5520903837408629 4888:1 
0.5553691519764534 0 132:1 8451:1 9056:1 
0 0.06380863393756171 3370:1 7526:1 
0.1128795031507714 0 1327:1 1794:1 
1 0 3128:1 5554:1 5974:1 6905:1 
0.1272492539037702 0 693:1 2277:1 7962:1 8111:1 
1 0 95:1 
1 0.208994201130623 982:1 1021:1 3320:1 
0.7058462653065332 0 2574:1 3010:1 4398:1 6646:1 
0.7396797086876218 0 41:1 4782:1 9171:1 
0.00428569484494269 0 581:1 3641:1 4056:1 5999:1 7511:1 8765:1 9110:1 
1 0 1033:1 4639:1 8239:1 8648:1 
0.06836780206560164 0.1184549023119546 41:1 282:1 632:1 1890:1 2577:1 3441:1 5397:1 5561:1 6169:1 7776:1 
0.4578404430390207 0.01078524985151898 1094:1 1138:1 1313:1 2079:1 2807:1 3437:1 3722:1 6933:1 
1 0.9704502434292153 4398:1 
0.9070233418942631 0 564:1 1021:1 1195:1 1212:1 2450:1 3375:1 4999:1 6557:1 7438:1 
1 0 2389:1 5116:1 5475:1 
1 0 4288:1 6905:1 
0.4635427793183695 0 2413:1 3370:1 3555:1 4288:1 5949:1 5997:1 
1 0 2354:1 4425:1 
1 0 5578:1 
0.4330996031998596 0.02180367871546629 533:1 6319:1 6335:1 7137:1 
0.5024476970794128 0.1490840445098645 474:1 1279:1 
0.5436393052741572 0 3862:1 4088:1 5356:1 6557:1 
0.1498499801774032 0 2123:1 5997:1 6419:1 7715:1 8060:1 
0.1411616643730202 0.02466930057209319 493:1 976:1 1313:1 5738:1 6277:1 
0.114849103993782 0 1758:1 2206:1 2239:1 3350:1 3618:1 4363:1 5962:1 8480:1 9154:1 
0.4267477609117932 0 2426:1 5683:1 6826:1 
0.3497350776643238 0 440:1 531:1 861:1 2763:1 5007:1 5718:1 6539:1 8124:1 8959:1 
1 0 1076:1 4288:1 
0.5753368082529901 0 36:1 681:1 3008:1 3530:1 4653:1 6946:1 7623:1 
0 0.003544802315778852 4868:1 6521:1 6899:1 7265:1 
1 0.5377445182575902 4083:1 6794:1 
1 0 1214:1 5201:1 
0.8921586095483536 0.1396411529082254 3178:1 5608:1 6214:1 7962:1 8964:1 
0.0383169656448686 0.4553679314472052 608:1 985:1 1894:1 2610:1 4320:1 4985:1 6291:1 6820:1 
0.4293641622388689 0.008225632041360868 36:1 1668:1 
1 0.01552536999026192 4910:1 
0.4114076781353828 0 5032:1 6946:1 
0.4997484083963026 0.003204600208556083 3121:1 3534:1 3651:1 3992:1 8220:1 8324:1 
0.3366018774232436 0.007877947846692305 4800:1 5174:1 6793:1 8608:1 
0.4121721279249685 0.04299543291164918 1029:1 1531:1 5233:1 5712:1 
1 0.01156609794922537 1986:1 6214:1 6557:1 8369:1 
0.842463718735158 0 605:1 2023:1 3072:1 3923:1 
1 0 2079:1 7193:1 
0.09859574293982044 0 3046:1 3835:1 4054:1 8445:1 
0.5334586642886582 0 809:1 1308:1 2079:1 2158:1 2828:1 2969:1 4417:1 4639:1 6557:1 
1 0.02267166635571059 3530:1 5033:1 7069:1 
1 0.09841875098903739 6933:1 8189:1 8900:1 
1 0.1399936089309467 1030:1 1045:1 7832:1 
0.2534613868916925 0.004285148242137674 4868:1 6521:1 6899:1 7265:1 
0.287677918148802 0.1235136660952436 2125:1 4320:1 5531:1 6842:1 8320:1 
0.7510701083247084 0.02277816003159947 1451:1 3360:1 5554:1 6180:1 6936:1 8965:1 
1 0 4311:1 5974:1 
0.4088969806818251 0 541:1 4398:1 6252:1 6544:1 8116:1 8496:1 8931:1 
0.2455822223984586 0.07745722595953282 493:1 1190:1 3033:1 3362:1 5383:1 
1 0.0116652072518087 8894:1 
1 0 4288:1 6905:1 
1 0.2667227477481638 5033:1 8221:1 8532:1 
0.1295973342971905 0.01571823831846891 2012:1 5714:1 7761:1 
1 0.03153714044161929 2672:1 
0.1933249956550416 0.01102463625045757 588:1 1085:1 1785:1 4894:1 5032:1 5913:1 6873:1 7137:1 7388:1 8010:1 9087:1 
0.4940726059080203 0.01665474757650286 1149:1 5259:1 6472:1 
0 0.01481381630775814 1085:1 1178:1 2621:1 2709:1 3255:1 5124:1 6603:1 6946:1 7131:1 
0.2977614710475356 0 1983:1 3441:1 3685:1 4667:1 9110:1 
0 0.09707016798656125 1085:1 4947:1 5321:1 5921:1 6862:1 6905:1 8435:1 
0.3624494131337652 0 4927:1 5953:1 7558:1 
1 0 2757:1 3803:1 4308:1 4639:1 5879:1 7470:1 8324:1 
0.6460347858848399 0.0174174893603881 1178:1 1527:1 5545:1 
0.742603627120221 0.03114888798801109 1511:1 
0.2002259766358379 0 504:1 771:1 3730:1 3953:1 6933:1 
1 0 3730:1 
0.4472901615382286 0.4791618122672467 41:1 2084:1 2085:1 3803:1 5954:1 6031:1 8617:1 
1 0.0003890592874657986 1511:1 6636:1 
0.4365217103797299 0 97:1 1723:1 1788:1 5169:1 6030:1 6385:1 6440:1 7418:1 8998:1 
1 0.223509114475143 394:1 998:1 1085:1 2171:1 2397:1 2657:1 2757:1 6471:1 8560:1 
0.03529082535602748 0 206:1 1597:1 2126:1 4053:1 5427:1 
0.09904220075385303 0.03591076801317876 561:1 1085:1 1402:1 2952:1 3932:1 4887:1 5353:1 6024:1 7653:1 7962:1 
0.3334028692788232 0 982:1 1313:1 1449:1 1581:1 2629:1 2752:1 3809:1 4308:1 7013:1 7598:1 
0.1220966754029072 0 699:1 862:1 1412:1 4386:1 5197:1 6065:1 7054:1 7472:1 
0.3119132556668792 0.1071601743209712 539:1 1119:1 3093:1 3201:1 3391:1 4888:1 7012:1 8010:1 8105:1 8352:1 8969:1 
0.3752454097835108 0.03777243525591067 227:1 1043:1 1668:1 2907:1 3462:1 4668:1 4758:1 4907:1 5109:1 6253:1 
0.9962151374907651 0.07546939164562662 18:1 4971:1 6487:1 7689:1 8644:1 
0.353551079718572 0.1741233921755267 290:1 785:1 900:1 3584:1 5718:1 6253:1 7558:1 9005:1 
1 0.5114937124315457 749:1 1085:1 4261:1 
0.2976356485508382 0.1421170594580355 5001:1 6214:1 7314:1 
1 1 
0.09571770582320495 0 475:1 4816:1 8010:1 8259:1 
0.2002126111837273 0.01708217950116311 1377:1 2271:1 4463:1 5389:1 6136:1 6799:1 6972:1 8994:1 
0.5095675654614239 0 4947:1 4999:1 5004:1 6557:1 6563:1 
0 0.00907129317593566 546:1 2589:1 3010:1 3242:1 4154:1 5922:1 6957:1 7235:1 
1 0.6306652445873457 2784:1 4320:1 5974:1 
1 0 63:1 9154:1 
1 0.01585455771008884 5082:1 9122:1 
1 0.06853596025744228 396:1 
0.116889680926709 0 1412:1 2276:1 2847:1 4937:1 5197:1 6949:1 7297:1 
0.5926880536972662 0 609:1 2231:1 2489:1 3204:1 4623:1 5554:1 6030:1 7444:1 8146:1 8871:1 
0.9956280787283811 0 1518:1 3105:1 4770:1 6351:1 6998:1 7875:1 
1 0 3437:1 6884:1 
1 0 8599:1 
0.2137324063279135 0 3050:1 3299:1 
0.0199401192593759 0 207:1 2787:1 3182:1 3655:1 4009:1 4582:1 9200:1 
0.4011686600781877 0 966:1 1637:1 5738:1 6533:1 6946:1 7135:1 7180:1 
0.2860228805085852 0 1383:1 3050:1 7860:1 
0.5430947797783923 0.2409673454877605 3440:1 4320:1 5671:1 9095:1 
0 0.1473043023264476 36:1 2495:1 3734:1 4470:1 6194:1 8882:1 
0.850659244847807 0 2926:1 3898:1 5645:1 6946:1 
1 0.007842379418007223 3275:1 3342:1 4250:1 4612:1 
1 0.03150350538070823 7641:1 
0.2541805155416364 0 352:1 1076:1 1506:1 1645:1 2079:1 3711:1 8926:1 
0.5676729321560862 0.2093616267260751 223:1 4320:1 5727:1 6851:1 6896:1 
0.3980023915670008 0.3088746044224002 630:1 2227:1 4320:1 
1 0.2832962962086886 81:1 1290:1 2023:1 3197:1 
0.4303820739195273 0 3569:1 4154:1 4206:1 5296:1 6347:1 9154:1 
0.3660735756988789 0.210344274804157 1214:1 4174:1 4401:1 5262:1 5999:1 
0 0.4083956915816805 817:1 2925:1 3828:1 6643:1 7327:1 8466:1 8523:1 
0.2221159904046767 0 2430:1 2694:1 6881:1 
0.1623114755892469 0 787:1 2997:1 5665:1 6211:1 7638:1 
0.1081336637013651 0 1276:1 2460:1 3403:1 5266:1 5334:1 5738:1 6970:1 7282:1 8640:1 8894:1 
1 0.03174916915675541 4094:1 
0.3719654487141283 0 1076:1 3584:1 
0.6202393952740499 0 2067:1 5545:1 6260:1 
0.07281074415758526 0 877:1 1085:1 2495:1 3105:1 5879:1 6329:1 6351:1 7261:1 9226:1 
0.3231891668393149 0 313:1 2125:1 6126:1 7733:1 
0.3477529024232889 0 402:1 5554:1 7459:1 9173:1 
0.7007500954058634 0.1143673115271997 637:1 3803:1 5372:1 5880:1 
1 0.1330122633025448 73:1 948:1 5554:1 
1 0.12355332154013 313:1 2125:1 4320:1 6126:1 7733:1 
0.03582414394809263 0 2722:1 2958:1 7513:1 8307:1 8324:1 8399:1 
0.6277600199084715 0 6264:1 6936:1 7341:1 7988:1 8010:1 8324:1 
1 0 3097:1 3377:1 8010:1 
1 0.1859419775090564 3350:1 3437:1 4780:1 5656:1 
0.01384539646391505 0.02015136806435797 6941:1 7671:1 7713:1 9045:1 
0.3882317287200744 0 684:1 3021:1 8251:1 8492:1 8707:1 
0.1678360256331266 0.04706916124581932 899:1 1748:1 3729:1 4734:1 5534:1 6081:1 6142:1 7883:1 8729:1 
1 0.0002619205788578031 6123:1 9190:1 
0.5857300782793469 0 1945:1 3437:1 5427:1 8964:1 
1 0 2108:1 5997:1 
0.03360021654556037 0.00219058479300619 601:1 1047:1 3138:1 3730:1 3870:1 3993:1 5994:1 6566:1 7722:1 
1 0 5033:1 5671:1 5974:1 
0.06722875043418471 0.07860397579555858 1576:1 1986:1 2377:1 3416:1 4320:1 6041:1 8721:1 
0.05377084533204047 0 457:1 1464:1 5353:1 5537:1 7252:1 7653:1 7962:1 8324:1 8693:1 
1 0.01566815012450851 609:1 1085:1 
0.4561992342060309 0 355:1 474:1 4519:1 4617:1 6002:1 8530:1 
0.8014712087281753 0.01811557834260809 373:1 1480:1 3437:1 8008:1 
1 0 175:1 
0.7982858371784048 0.3473469455081891 3:1 998:1 1327:1 5942:1 
0.4571344998123905 0 552:1 642:1 2079:1 3644:1 6063:1 6764:1 8697:1 
0.4005813367443304 0 2626:1 6970:1 
0.5494676245272072 0.0788529181088838 1076:1 4984:1 5358:1 
0.1632721070970941 0.05008945357022972 697:1 2277:1 3736:1 3789:1 3827:1 5013:1 5430:1 8117:1 
1 0.03155314220297174 2031:1 
1 0 778:1 948:1 2413:1 4519:1 6970:1 8532:1 9190:1 
1 0.03188903746862676 7030:1 
0.3036992037406261 0.02771545980486478 787:1 2080:1 3526:1 5705:1 6557:1 9154:1 
0.1480493352001753 0.0400429151935742 526:1 1584:1 3789:1 3872:1 4688:1 6030:1 6844:1 8339:1 
0.5532842109736839 0.162222182777447 188:1 1561:1 5216:1 9192:1 
0.02309151082456128 0 26:1 581:1 2657:1 3946:1 4260:1 6139:1 6166:1 7634:1 
0.5120601831906919 0.1844303260055474 1944:1 3437:1 4724:1 4890:1 5164:1 5610:1 
0.2764683601242296 0 3894:1 4744:1 6946:1 
1 1 
0.9240115724738297 0 394:1 2794:1 5922:1 
1 0 865:1 3550:1 6557:1 
1 0.007264553836493081 1374:1 2757:1 5358:1 6485:1 7700:1 
1 0.01589374888309026 1709:1 6560:1 
1 0.19614348233103 1085:1 2709:1 4639:1 
0.5519941019643014 0 89:1 741:1 1174:1 1835:1 
0.2825757117426826 0.07302625236151246 3208:1 3350:1 3828:1 4250:1 6171:1 6445:1 7258:1 8367:1 8589:1 
0.09453883243870514 0 266:1 736:1 775:1 798:1 1085:1 2784:1 5276:1 6060:1 6557:1 
0.1857189425968072 0 1544:1 3248:1 4913:1 5282:1 5846:1 6709:1 8964:1 8980:1 
0.7082855878661243 0.2915533307257593 1992:1 2117:1 3079:1 7671:1 
0.4729459599406878 0.3088365404124225 3863:1 4320:1 4757:1 
1 0 2413:1 
1 0 3751:1 5554:1 
1 0 2329:1 4887:1 5358:1 5718:1 6946:1 
0.8734807804554643 0.1203909818458365 351:1 581:1 982:1 2701:1 6054:1 6242:1 8648:1 8750:1 9154:1 9177:1 
0.4463178452996162 0.6342036209345862 3584:1 3787:1 4320:1 4331:1 5739:1 5860:1 6894:1 7614:1 
0.2272414797936226 0.1999872495342994 893:1 998:1 1734:1 5425:1 6217:1 6643:1 8014:1 
0.4066426500124912 0 175:1 4601:1 5236:1 5623:1 8750:1 9175:1 
0.1529609328370122 0 975:1 4285:1 5868:1 6235:1 8894:1 
0.4116679594381778 0.04464039603759708 835:1 2756:1 4724:1 6811:1 7856:1 
0.1022226380216267 0 1544:1 2289:1 2350:1 5328:1 7557:1 
0.4701922976145315 0 175:1 605:1 1240:1 4891:1 4947:1 5954:1 7963:1 
0.1927148518189208 0 649:1 2060:1 5997:1 7065:1 
1 0.5809058036522522 4520:1 5554:1 
0.3083027777992787 0 254:1 2678:1 
0.9909282205605969 0 741:1 7586:1 
0.9010199906588571 0 642:1 1646:1 1833:1 3437:1 5033:1 5427:1 6851:1 7526:1 8324:1 
0.8009162375503379 0.05100278086948237 219:1 642:1 4787:1 4999:1 
0.01683808603807063 0 2472:1 2851:1 3210:1 3370:1 3833:1 4380:1 6808:1 
1 0 2495:1 6277:1 
1 0 784:1 6946:1 
0.7064318154233514 0 4693:1 5999:1 
1 0.03161659388504576 4694:1 
0.101056222305542 0 210:1 771:1 865:1 
0.0006585895879930073 0 2598:1 3105:1 4354:1 5915:1 9102:1 
1 0 1994:1 5096:1 5554:1 
1 0.1564606652564673 36:1 1085:1 8643:1 
0 0.3946228122224982 632:1 2763:1 3542:1 3730:1 4839:1 7614:1 8549:1 
1 7.459310946700271e-17 6353:1 8576:1 
0.1424368746989048 0 1375:1 1553:1 3665:1 4859:1 5554:1 5916:1 7067:1 8750:1 
0.6217733335376915 0 2079:1 2977:1 3680:1 4357:1 6286:1 
0.2377197603722579 0.0009126774824280183 2949:1 3545:1 4042:1 4434:1 5168:1 7811:1 9108:1 
0.1576240877222209 0 254:1 1025:1 1178:1 2784:1 3281:1 5199:1 5353:1 6557:1 6946:1 7554:1 
0.1553113665806969 0.09838268146374919 581:1 3644:1 4273:1 9087:1 
0.2215884490892406 0 77:1 1308:1 4188:1 5128:1 5605:1 8336:1 8392:1 8480:1 
1 0 4913:1 5189:1 
0.1606196241345318 0 3232:1 4002:1 4016:1 4946:1 8024:1 8346:1 
0.02786051521933541 0 1064:1 1304:1 1428:1 3005:1 5138:1 5223:1 6236:1 6949:1 7753:1 
0.2326736186112321 0 1527:1 6970:1 7744:1 
0 0.08569873727902877 5033:1 5439:1 6885:1 7678:1 
0.3251291669883793 0.03309617438809784 2331:1 2683:1 2688:1 4617:1 4715:1 
0.2046168235846688 0 581:1 598:1 1085:1 1276:1 4238:1 5020:1 6247:1 8143:1 8385:1 8923:1 9190:1 
0.188059878434093 3.033133588762623e-05 286:1 1077:1 1129:1 1482:1 3516:1 3562:1 4719:1 5977:1 6095:1 6103:1 7483:1 8514:1 
1 0.03153327656230068 599:1 
1 0.2748864108653565 3115:1 3370:1 8618:1 
0.3662962171794359 0 770:1 1026:1 2079:1 4308:1 4639:1 4821:1 4910:1 
0.1175303616168754 0 973:1 2070:1 5891:1 5922:1 5974:1 6472:1 6886:1 6893:1 8972:1 9043:1 
0.1979349713780111 0.1171510399889567 326:1 1608:1 1666:1 4032:1 5468:1 7156:1 
0.8480435292696931 0.2147066272239934 5129:1 7657:1 
0.1993514838232375 0 207:1 5999:1 7010:1 
0.3991668394977747 0 648:1 941:1 1455:1 1997:1 3329:1 3507:1 4422:1 6452:1 6522:1 7135:1 8100:1 
0.05256862008506121 0 43:1 6142:1 7115:1 7930:1 
1 0.2238801373773371 6485:1 7754:1 
0.1891307288551998 0 804:1 5213:1 7700:1 8152:1 8533:1 8949:1 9130:1 
0 0.003233442594987955 2294:1 3010:1 5185:1 6374:1 
0.529011350460927 0 1610:1 3440:1 3812:1 6286:1 7156:1 8035:1 9171:1 
0.3086756146248342 0.1007055989105777 2034:1 4519:1 6557:1 7408:1 7459:1 8648:1 8707:1 
0 0.6058273664829585 1324:1 8367:1 
0.6834087922726673 0 4308:1 5353:1 5738:1 7252:1 7741:1 
0 0.205987027678129 644:1 4097:1 4250:1 6970:1 7880:1 8532:1 
0 0.04772324104605165 3264:1 5730:1 6946:1 7281:1 7621:1 8297:1 
0.4995336334688954 0.2956829330655378 1539:1 3366:1 3716:1 4514:1 5032:1 6824:1 8367:1 
0 0.4870591325039208 490:1 7459:1 
0.4009276454249743 0 3429:1 3730:1 
0.5439521567148249 0.007935252793738672 2885:1 3131:1 6686:1 8402:1 
1 0 1727:1 5554:1 8010:1 
0.7213450525850377 0.01806902089245258 3855:1 7799:1 
0.08484718726108413 0 933:1 954:1 7414:1 8512:1 
0.5679914759269485 0.01580741644995074 241:1 7757:1 
0.405019713165871 0.7999906980994614 1152:1 6884:1 8617:1 
0.3787055128511694 0.01061276411805277 1162:1 1858:1 3916:1 
0.7542991627301529 0 5373:1 6632:1 
0.4063414920933135 0.2956669658403897 2616:1 2864:1 2908:1 3367:1 5847:1 6912:1 6998:1 7767:1 8964:1 
0.4076881035184772 0 7426:1 8200:1 8810:1 
0.3468688422866262 0.02955260751780101 61:1 349:1 2224:1 3050:1 4811:1 6669:1 6936:1 
0.2840750938516048 0.007950763418942994 5720:1 6550:1 6712:1 7370:1 
1 0 7131:1 
0.4485943815173185 0 713:1 4719:1 4925:1 7689:1 8639:1 9108:1 
0.3583949459130442 0.29582042862573 494:1 3964:1 4474:1 5538:1 5879:1 7062:1 7152:1 8530:1 
1 0.2466461035608299 3992:1 5507:1 6336:1 6485:1 
1 0.03135822002534494 5308:1 
0.37313188307311 1 8259:1 8367:1 8617:1 9067:1 
0.6806447582886711 0.08636641116275443 1835:1 2079:1 2931:1 3862:1 4470:1 5007:1 6108:1 
1 0.03162180540979694 7282:1 
0 0.4441367372957672 1158:1 3369:1 4675:1 4874:1 5387:1 6291:1 6302:1 6477:1 6931:1 9181:1 
0.6370526931752483 0 3264:1 6631:1 
0.3175865173182695 0 817:1 3098:1 3999:1 5928:1 7156:1 7342:1 8178:1 
0.1353142719155598 0 1483:1 3730:1 8964:1 
1 0.01108782968985961 7745:1 
1 0.480824181884024 2473:1 5189:1 7156:1 
0.438520553538161 0 484:1 1574:1 3437:1 5076:1 5841:1 5972:1 7876:1 8126:1 8127:1 8503:1 8817:1 8969:1 
0 0.2447366703725211 1033:1 3644:1 4719:1 6946:1 7026:1 8707:1 
0 0.04965776958271836 2992:1 6264:1 7406:1 7754:1 8428:1 
0.832822063442249 0 98:1 1905:1 6000:1 9005:1 9154:1 
0.07255753382715638 0 394:1 1986:1 4216:1 4657:1 4982:1 5917:1 6329:1 9166:1 
1 0.3248761292352372 1743:1 3370:1 4320:1 6822:1 
1 0.08278254621873907 2657:1 3828:1 5527:1 9148:1 
0.02227113050017746 0 5469:1 9110:1 
1 0.03162227452566216 4235:1 
0.1367946057520976 0 309:1 3264:1 3350:1 3832:1 5330:1 5738:1 7462:1 
0.1711537610976498 0.02625460644456662 6528:1 9087:1 9118:1 
0.6387838209578175 0.00542856543613151 216:1 2381:1 4567:1 7849:1 
0.652842643743946 0 745:1 4456:1 6173:1 
1 0.03157604218234769 2114:1 
0.8875192619960807 0.02414953487555075 5027:1 5033:1 6162:1 
1 1 
0.5835241073731281 0 1083:1 1700:1 3214:1 4213:1 4724:1 4801:1 6905:1 6972:1 7956:1 8635:1 8941:1 
1 1 2753:1 
0.1554457975210068 0.06304678020598245 1408:1 1835:1 3050:1 3413:1 5475:1 8780:1 
1 0 6557:1 6970:1 
1 1 6291:1 
0.1163090430885201 0 882:1 3673:1 3971:1 4397:1 5033:1 5469:1 5645:1 6557:1 6692:1 
0.8844694156968904 0 95:1 1850:1 6753:1 8327:1 
0.02156420338294194 0 1991:1 3768:1 4617:1 6794:1 7364:1 
0.2267109296789827 0.1127888983957002 1249:1 1797:1 2647:1 3052:1 
0.3430430263990139 0.1145770443473982 310:1 531:1 2099:1 2149:1 3033:1 3537:1 3604:1 5216:1 6738:1 7252:1 8008:1 
0.9657996665952603 0.09345189081141743 403:1 2896:1 5615:1 6632:1 
0.4934222195825058 0.1424100469534942 692:1 1987:1 4320:1 5954:1 9063:1 9225:1 
0.3633939232069007 0 4639:1 7478:1 8306:1 
0.5088608710378756 0.9841671487818585 474:1 627:1 3040:1 8617:1 
0 0.2552372026723954 3647:1 3835:1 4320:1 
0 0.01566457219173864 605:1 900:1 1313:1 4519:1 5235:1 6277:1 7156:1 7962:1 8146:1 
1 0.0939475407071714 1178:1 4659:1 
1 0.7574764770533227 2784:1 5334:1 5738:1 6557:1 8617:1 8741:1 8923:1 
0.03831231528318337 0 3439:1 3730:1 4079:1 
0 0.01687990747865356 2619:1 5602:1 5953:1 6054:1 6769:1 
0.6460375983705161 0.2260235791931104 531:1 1544:1 3875:1 5738:1 6970:1 7443:1 8010:1 
0.2618555489991068 0 1804:1 5032:1 6502:1 6923:1 
0.2030111032346659 0.02304428816669597 36:1 1600:1 7708:1 
0.5249630267423419 0 715:1 1159:1 2413:1 3437:1 3508:1 3870:1 5391:1 8237:1 8791:1 
0.4187240743389443 0.7089377267887406 177:1 4242:1 4947:1 7268:1 7614:1 
0.6947803987083921 0.01054207138923927 2459:1 3491:1 5004:1 
1 0 3320:1 5718:1 6652:1 
0.8936922374489376 0 2079:1 2762:1 2784:1 3437:1 3945:1 4672:1 6792:1 8270:1 8356:1 
0.3031665505664725 0 741:1 963:1 1085:1 3143:1 
1 0 6905:1 
1 1 2757:1 
1 1 6513:1 8617:1 
0.6476890369826699 1 1875:1 2943:1 4320:1 5515:1 6477:1 8617:1 
0.1737359710458399 0.193078225076836 865:1 1178:1 1991:1 2560:1 2701:1 2716:1 4881:1 9040:1 
1 0 1026:1 2589:1 3776:1 4750:1 5554:1 
0.3987763720856246 0 4409:1 4947:1 5629:1 
1 0 656:1 1788:1 2413:1 4121:1 4393:1 6946:1 7406:1 
0.3787025066130951 0.2794625026086914 2844:1 7195:1 8389:1 
0.9256112002603242 0.1047492857302011 581:1 982:1 5469:1 6097:1 6249:1 6557:1 
0.05187145689547189 0 718:1 1139:1 3115:1 3780:1 4278:1 4521:1 5343:1 5590:1 8487:1 
0.2207808554277258 0 3067:1 7488:1 8994:1 
0.6320398562432596 0.4646845573473843 2957:1 3993:1 4843:1 7035:1 8287:1 8617:1 
0 0.05950062826984297 4320:1 4691:1 5007:1 
0.7434927678876996 0 184:1 474:1 648:1 3507:1 8631:1 
0.2393455567238218 0 1459:1 2108:1 3097:1 3614:1 4882:1 6057:1 7833:1 
0.1158013456891691 0 4649:1 5139:1 6905:1 8964:1 
0.2298113792285441 0 1893:1 2900:1 7156:1 7835:1 
1 0.4058858165951119 486:1 1797:1 5266:1 
0.1589995371301049 0 1232:1 1384:1 3977:1 4505:1 8016:1 
0.3438967012110457 0.2127185312575875 1016:1 1279:1 1696:1 2926:1 3875:1 4104:1 6435:1 6856:1 
0 0.0006684556548666921 2556:1 3875:1 3969:1 4032:1 5627:1 6721:1 7162:1 
0.0169281784665633 0 642:1 2944:1 4051:1 6260:1 7406:1 8010:1 8599:1 
1 0 6946:1 
0.8466185127956588 0.04962623114777782 2657:1 4616:1 5540:1 5711:1 
0.1152335166441311 0.03332812583422722 62:1 298:1 309:1 474:1 4289:1 5124:1 5554:1 6561:1 7279:1 8595:1 
1 0 7513:1 
0 0.1786309304133536 865:1 2489:1 3275:1 3437:1 3581:1 4675:1 5927:1 6407:1 6957:1 8617:1 
1 0 1102:1 
0.2947058920395673 0 326:1 3210:1 5371:1 
0.9346418408992984 0.2626214856650371 2165:1 3957:1 4320:1 5554:1 
1 0.371301613874893 1045:1 2784:1 3443:1 5962:1 
0.1680148498223741 0 2370:1 5683:1 7133:1 8259:1 
1 0.07770042420202186 580:1 581:1 1843:1 4322:1 4357:1 6564:1 8008:1 
0.2771680354336813 0.001085150138710063 787:1 4315:1 6845:1 9038:1 
0.03481228206802395 0 4621:1 5147:1 5191:1 7672:1 
1 0 3105:1 5738:1 6351:1 8923:1 
0.340634357818812 0.008897094823408539 329:1 365:1 520:1 2784:1 3833:1 6557:1 7185:1 7320:1 7364:1 7922:1 
1 1 3642:1 
1 0 8489:1 
0.2654559206927151 0.0388440258666479 4569:1 4627:1 4885:1 5358:1 5951:1 6463:1 
0.443002027300327 0 1746:1 8233:1 
0 0.1501910020834675 732:1 1076:1 4051:1 5940:1 
1 1 342:1 3319:1 
0.3179643054095806 0 1084:1 2393:1 3540:1 7031:1 
0.9273631171662288 0.1544193630020406 964:1 3504:1 4320:1 7254:1 7929:1 
1 0 2079:1 2678:1 5879:1 6214:1 8324:1 
0.7193215014286091 0.1752770954545454 1612:1 2277:1 2524:1 4519:1 5216:1 6557:1 
0.8154817852392392 0.03398045164902107 347:1 4030:1 5358:1 
0.007667258347289227 0.09568862234896856 518:1 901:1 2373:1 2472:1 3804:1 4224:1 4616:1 6165:1 8492:1 
0.3121452178025827 0 369:1 5940:1 8010:1 8019:1 8881:1 
1 0.01172686007949911 2408:1 4035:1 
0 0.1410824490363807 2387:1 4188:1 4502:1 5404:1 8178:1 8367:1 8854:1 
-0.7880951373701668 0 642:1 5353:1 
-1 0.1232606764610755 2648:1 5032:1 5033:1 5419:1 6188:1 
-0 0.4583733419606049 1523:1 2621:1 2757:1 4163:1 6824:1 8412:1 8617:1 
-0.997367555548608 0 3264:1 3363:1 3655:1 4574:1 4616:1 5311:1 7439:1 7814:1 9110:1 
-1 0 4463:1 
-0.1565020586540119 0 4750:1 5144:1 5390:1 5955:1 
-0 0.7889636915143647 1083:1 3223:1 5216:1 6100:1 8617:1 8692:1 
-0.6070512796658286 0.06249356551001137 43:1 2601:1 2998:1 4723:1 5427:1 8306:1 8653:1 
-0.2007208068225411 0.008022799560709126 531:1 1178:1 2373:1 2762:1 4573:1 5318:1 6557:1 6970:1 7215:1 7252:1 7657:1 
-0.9502918163348805 0 642:1 3067:1 5821:1 
-0.7998943982985042 0 2413:1 2737:1 
-0.7350813888132839 0.08086563706395675 254:1 807:1 6808:1 6972:1 8369:1 
-0.3708708975145377 0.01985382954751366 490:1 1696:1 2615:1 3730:1 5127:1 7892:1 
-0.6919643335364629 1 3424:1 7614:1 8381:1 
-0.1214361269983956 0.01509558457534203 1155:1 3720:1 4043:1 5226:1 6050:1 6096:1 7495:1 7755:1 9019:1 
-1 0 4492:1 7513:1 
-0 0.4628900900780457 2723:1 4603:1 5695:1 6077:1 8617:1 8854:1 9154:1 
-0 0.1915862698570246 342:1 4288:1 4320:1 4492:1 5095:1 
-1 0 5201:1 5364:1 5738:1 
-0.08590852672162025 0.004004044495144919 668:1 1964:1 2751:1 
-0.04288232919105599 0 2080:1 6824:1 7450:1 8052:1 
-0.9582567094765185 0.05217030860162579 1090:1 1102:1 2882:1 3649:1 4888:1 
-0.3066785313541038 0.0564979456756813 31:1 2922:1 3298:1 3855:1 3923:1 
